#Parameter# /vanilla-lstm-builder/_0 {256,20} 81921 ZERO_GRAD
+2.79473886e-02 -1.20740557e+00 +1.47758201e-01 +6.22507259e-02 -1.94082841e-01 -5.83791323e-02 +1.74433023e-01 +2.55773664e-01 -2.23225802e-01 -5.87143362e-01 -2.13334590e-01 -5.10167837e-01 -7.26575777e-02 +8.69762003e-02 -4.47873533e-01 -6.29952177e-02 -4.13285404e-01 +5.75828552e-01 +3.14547904e-02 -4.31704760e-01 -6.66657269e-01 +5.29184639e-02 +2.42269356e-02 -7.49851170e-04 +1.25087753e-01 -7.75397003e-01 -1.69654474e-01 -1.66926123e-02 +5.53033650e-01 -1.87309496e-02 +2.91581094e-01 +3.99046719e-01 -6.02815032e-01 -2.44182989e-01 -5.25978208e-01 +1.24673560e-01 -5.80397367e-01 -4.84642297e-01 -9.44016695e-01 -7.29889125e-02 -6.91133976e-01 +1.91475265e-02 -4.60572317e-02 -1.62401170e-01 +7.22133338e-01 +1.15382031e-01 +6.40610680e-02 +1.65530875e-01 -1.59505740e-01 -3.15146625e-01 +4.57622200e-01 -5.82088590e-01 -4.27172035e-01 -4.17056352e-01 +2.43196115e-02 -5.98088093e-02 -5.45733452e-01 -2.87075877e-01 -5.56487381e-01 -7.38445401e-01 -8.55084583e-02 -4.26643580e-01 -1.37296841e-01 -5.25229871e-01 -1.69347271e-01 -3.50964189e-01 +2.93144584e-01 -1.22836776e-01 -2.53738612e-01 -3.64695251e-01 +2.76350141e-01 +1.50625259e-01 +2.06207380e-01 +5.28300881e-01 -5.76784730e-01 +3.48451048e-01 -7.75837898e-01 +1.58434045e+00 +1.14634961e-01 -7.31712043e-01 +7.29891956e-02 -2.39635006e-01 +8.72385919e-01 +5.44306576e-01 -1.01615548e+00 -6.31039917e-01 +8.59843075e-01 +5.34052610e-01 -6.58468544e-01 -4.86994565e-01 +6.44948661e-01 -5.92941158e-02 +1.01707351e+00 +5.63959122e-01 -4.91058856e-01 -5.92812598e-01 +5.45020640e-01 +3.80944222e-01 -4.34460819e-01 +1.29427940e-01 +4.98203605e-01 +8.68213549e-02 -4.31155443e-01 -4.22452003e-01 +6.07582033e-01 -5.61207831e-02 -3.18240643e-01 +1.68137863e-01 +4.17802215e-01 +5.17547652e-02 +8.14417362e-01 -3.30625296e-01 +7.00675726e-01 +1.00478792e+00 -2.44823933e-01 -7.64596164e-01 -1.02614331e+00 -9.65643346e-01 +9.09022033e-01 +4.82442230e-01 -7.74909675e-01 -1.65535986e-01 +2.38637045e-01 -6.77934110e-01 -9.60076392e-01 -5.48082471e-01 -7.70743728e-01 +4.94921654e-02 +1.17483675e+00 -1.03850317e+00 -3.55887532e-01 -5.42204678e-02 -5.57113111e-01 -4.43631560e-01 +4.88402486e-01 +1.15429020e+00 +1.75441682e-01 -4.23746318e-01 -4.42509949e-01 -2.94036180e-01 -7.49544725e-02 +7.45572448e-01 -1.89249396e-01 +9.13313683e-03 -8.10943916e-03 +4.18532848e-01 -7.58119300e-02 -9.41510722e-02 -8.58507991e-01 -6.65730536e-01 -2.20919345e-02 +1.65552199e-01 -3.04450125e-01 -1.10122478e+00 +1.00027835e+00 +3.36961120e-01 +4.39626247e-01 -2.74280488e-01 -1.54840909e-02 -1.32221058e-01 +3.39028388e-01 -6.01539873e-02 -8.38213503e-01 +4.24822271e-01 -1.58068746e-01 +1.26699969e-01 -3.71115148e-01 -4.33626175e-01 -5.32241225e-01 +1.40674084e-01 -2.46808544e-01 +1.17315519e+00 +6.22734904e-01 +1.78048629e-02 -1.20949179e-01 +1.59703001e-01 -8.62544954e-01 +1.08797669e+00 -5.08516073e-01 -4.95362252e-01 +2.31104419e-01 -1.14576364e+00 +3.46978664e-01 +6.42742962e-02 -2.20014178e-03 +2.92280585e-01 +1.16851017e-01 -3.24173152e-01 -1.86329007e-01 -1.32781729e-01 -3.02366644e-01 -9.01579916e-01 +2.69607693e-01 -1.37718143e-02 +2.89137393e-01 -3.29854280e-01 -1.88209787e-01 +1.62430555e-01 +1.12094611e-01 -3.87003511e-01 +1.65090203e-01 +6.93173409e-02 -2.24214450e-01 +3.23489398e-01 -4.70693111e-01 +5.84176898e-01 -6.96412548e-02 +3.61939877e-01 -2.72454649e-01 -1.52581781e-01 -4.85191822e-01 -2.98752338e-01 +6.32809520e-01 +3.22768629e-01 -4.94711518e-01 -9.77940083e-01 +3.84647399e-02 -2.76888553e-02 -4.18838948e-01 +3.06131691e-01 +7.88508058e-01 -3.34490210e-01 -1.47900730e-01 -1.09924376e-01 -8.38966444e-02 +2.86987215e-01 +1.78581625e-01 -2.54050523e-01 +1.15944825e-01 -8.30873966e-01 +7.55572677e-01 -1.08352058e-01 -1.75908327e-01 +5.41016281e-01 +1.76703855e-02 +2.86510378e-01 -1.98390827e-01 -6.25672489e-02 -3.57772589e-01 +3.67821641e-02 +9.10136998e-02 -2.90346771e-01 -3.36070396e-02 -2.85312831e-01 +5.97930551e-01 +1.08264219e-02 +2.67673939e-01 +5.89273512e-01 -1.92196697e-01 -1.33238032e-01 +1.69401001e-02 -3.95720124e-01 +3.31931472e-01 -4.16189097e-02 +5.25001824e-01 +5.61906874e-01 +1.01538110e+00 +9.28990424e-01 -5.62329769e-01 -5.71721271e-02 -5.31991184e-01 -2.25316972e-01 +9.61171448e-01 +2.24702716e-01 +2.77309835e-01 +1.26600802e-01 +8.98492515e-01 -5.30052260e-02 +2.87904531e-01 +5.78294396e-01 +1.08389422e-01 -1.41836673e-01 +2.29042649e-01 +2.12192327e-01 -1.25676068e-02 +5.55174649e-01 +5.81492543e-01 +1.35181636e-01 -2.52755076e-01 +3.15264672e-01 +2.47616366e-01 +6.11904085e-01 -3.63009810e-01 +8.31502616e-01 +2.88751990e-01 +3.01554561e-01 +3.50879878e-02 +3.82862061e-01 +3.59226197e-01 +3.02213162e-01 +2.53258586e-01 +6.90496573e-03 -6.84231102e-01 +7.96516299e-01 +1.48683715e+00 +3.33079189e-01 +5.00800967e-01 +3.78680885e-01 +3.31617534e-01 +7.27661192e-01 -2.97093421e-01 -3.13490748e-01 -1.66210502e-01 +8.92235711e-02 +6.73851669e-01 +5.05853772e-01 +1.18507433e+00 +7.77205646e-01 -2.20077112e-02 +6.90927505e-01 +9.89575803e-01 +1.80020124e-01 +1.02996922e+00 +4.12758924e-02 +1.18005611e-01 -3.29984464e-02 +5.38843751e-01 +5.44450819e-01 +6.31092846e-01 +3.03596556e-01 -7.00203836e-01 +1.45964459e-01 +4.77049828e-01 -3.67779315e-01 -1.34856656e-01 -1.33000806e-01 +8.14417720e-01 -5.44106424e-01 +3.04338336e-01 -3.45682889e-01 -5.01900494e-01 -2.45866239e-01 +1.92640796e-01 -3.33695352e-01 -9.46037006e-03 -3.87097239e-01 -3.53561379e-02 -1.90878436e-01 +6.30319893e-01 +5.92818677e-01 -8.08745384e-01 -7.27038980e-01 +4.40557569e-01 +8.31467509e-02 +6.35450304e-01 +6.95582747e-01 -5.30138195e-01 -3.28178070e-02 +1.55086190e-01 -3.53256643e-01 -1.19547538e-01 +5.49378037e-01 -1.80193558e-01 +9.70948935e-02 +3.25981587e-01 -7.16132760e-01 -5.68015575e-01 -2.28546813e-01 -4.11118627e-01 +2.51394510e-01 +6.59666777e-01 +5.80657542e-01 +5.35783947e-01 -3.97572607e-01 +8.29635784e-02 -6.07537627e-01 -3.55471551e-01 +2.61617079e-02 +1.24775544e-01 -4.03956920e-01 +4.17167217e-01 +3.64866912e-01 -1.16740122e-01 +8.48770559e-01 +4.99088056e-02 +1.34845441e-02 +1.35944605e-01 +2.44723409e-01 +3.53831708e-01 +4.27186280e-01 +1.44654131e+00 +1.25276625e+00 +4.20463920e-01 +6.64277494e-01 +6.27511799e-01 +1.32444978e+00 +4.37227562e-02 -2.99302816e-01 -1.27515972e-01 +7.88542926e-02 +5.15769720e-01 -5.78776121e-01 +3.15203488e-01 +4.09718335e-01 +3.84969383e-01 +1.84398100e-01 +2.52806008e-01 -1.30616158e-01 +2.24708110e-01 -1.67047922e-02 +1.34485856e-01 +7.76951969e-01 +6.86296001e-02 +3.09095323e-01 +3.65962267e-01 +3.12286377e-01 +1.79020435e-01 +5.01864791e-01 +8.01390946e-01 +8.50003183e-01 -2.75235891e-01 +4.48337525e-01 -5.05548157e-02 +2.62467742e-01 +9.67638552e-01 +7.02037990e-01 +6.47787690e-01 +6.92825466e-02 +5.08828461e-01 -4.27392066e-01 -1.41338229e+00 +1.67322785e-01 +8.90672803e-01 +1.52369156e-01 +4.20872927e-01 +1.91683605e-01 +4.68664736e-01 +2.85944670e-01 +5.66733420e-01 -7.89348066e-01 -7.19009697e-01 +4.42563236e-01 -1.28915533e-01 -5.11250019e-01 +5.98998725e-01 +1.08319782e-01 -1.25288991e-02 +1.01710176e+00 +9.74969491e-02 +7.63945607e-03 +3.09151649e-01 -7.52925202e-02 +1.89809054e-01 +3.89963500e-02 +4.55401652e-02 +6.97263718e-01 +7.94772387e-01 +1.25869370e+00 -3.37960392e-01 +1.76428840e-01 +1.73144475e-01 -3.70109946e-01 -2.41586324e-02 -2.14457124e-01 +1.65542826e-01 -2.73620307e-01 +9.53647420e-02 +3.85700256e-01 +1.77674174e-01 +3.26200694e-01 +9.81587946e-01 -6.73523486e-01 +7.11312056e-01 -6.71870708e-02 +2.23490015e-01 +2.16969073e-01 -2.64757007e-01 -1.54137969e-01 -3.67766649e-01 +1.31901175e-01 -3.32673967e-01 +3.51780325e-01 +3.62087369e-01 +7.40803182e-02 -3.83072466e-01 +2.31826872e-01 -6.87353969e-01 +3.81265461e-01 -3.50941330e-01 -8.09614509e-02 -2.22877681e-01 -4.16800171e-01 +5.53540409e-01 -2.20423356e-01 +2.86551304e-02 +1.48352506e-02 -1.73337966e-01 +2.58872714e-02 +6.25463009e-01 +3.93609077e-01 -5.95500886e-01 +1.77185312e-01 +3.22604805e-01 -1.59905031e-02 +2.73408175e-01 +5.03987670e-01 -2.32871190e-01 +1.65067181e-01 +5.72030663e-01 -3.34130526e-01 -3.55780721e-01 -2.51464278e-01 +4.94881272e-01 -8.20785388e-02 +1.14216156e-01 +4.96000350e-02 -2.19059452e-01 +2.19226718e-01 -1.23504065e-01 -8.34367692e-01 -1.88603312e-01 +5.09982288e-01 +2.62725919e-01 +7.58606732e-01 +4.15681124e-01 +2.62714088e-01 +8.55895132e-03 +5.89762747e-01 -2.76540309e-01 +3.38527001e-02 +1.61278471e-01 +5.48282638e-03 -4.61702287e-01 +7.05415428e-01 +1.03908151e-01 +1.31075487e-01 -1.87254444e-01 -1.88533664e-01 +2.31468961e-01 -1.88200817e-01 +1.01849973e-01 +7.14907199e-02 +2.52315611e-01 +3.16461712e-01 +1.49145080e-02 -6.21332526e-02 +2.81393379e-01 +6.73575103e-01 +4.91092980e-01 -2.09778652e-01 +5.59527874e-02 +4.57506552e-02 +1.94520488e-01 -1.10626113e+00 +2.69566894e-01 +3.43338162e-01 +8.33844066e-01 -4.62628454e-01 +5.17927647e-01 -2.40563154e-01 +1.70392141e-01 +9.22726214e-01 +7.72042498e-02 +6.39973760e-01 -9.91956666e-02 +6.12439990e-01 -6.19802400e-02 -2.83730626e-01 -5.47557771e-01 -1.48334339e-01 +6.68538034e-01 +3.75525892e-01 -3.11283261e-01 +5.46233237e-01 -2.53101766e-01 +5.14598675e-02 +1.35290772e-01 +3.76954228e-01 +2.60016203e-01 +1.37281775e-01 -2.32814029e-02 +2.70440429e-01 +1.31121412e-01 +2.19420031e-01 +2.68285442e-02 +4.54575211e-01 -3.69215190e-01 +8.45128596e-01 -7.13847458e-01 -1.61938921e-01 -8.87937665e-01 -9.00585949e-02 +9.25093949e-01 -6.89591587e-01 -6.77659869e-01 -1.51966393e-01 +4.35037524e-01 -2.71331370e-01 +1.24199510e+00 +1.29539311e-01 -1.69372648e-01 +5.07051349e-02 -5.78067601e-01 +4.93152618e-01 +1.02006584e-01 -3.28025728e-01 -1.18896879e-01 -7.99966812e-01 -3.28330040e-01 +5.35933793e-01 -1.16866447e-01 +2.62776643e-01 -7.80474305e-01 +8.01868498e-01 +1.81538165e-01 +2.67909288e-01 -1.84094787e-01 +4.71862406e-01 +5.85053146e-01 -2.64913768e-01 +1.02903640e+00 +6.93467632e-02 +5.35928346e-02 +5.01128137e-01 +5.04372656e-01 -7.54320323e-01 -1.14790058e+00 -4.38233584e-01 +8.40716343e-03 +5.35432100e-01 +2.36332625e-01 -3.40766698e-01 +1.27354711e-02 -2.58616328e-01 -8.12282979e-01 +4.04558569e-01 +3.77352327e-01 -9.07778978e-01 -2.89980501e-01 +6.63869679e-01 +5.70241153e-01 +6.01413012e-01 +3.78597617e-01 -2.43949264e-01 -1.18541509e-01 +7.10301101e-02 +1.64252874e-02 -7.00285673e-01 +5.08433342e-01 +4.72134471e-01 -4.78606045e-01 +2.19046921e-01 -4.85512502e-02 -4.00107261e-03 -3.57221961e-02 +9.24985170e-01 +5.58358245e-02 -4.09187764e-01 -3.42079252e-01 +3.04149240e-01 -6.13824964e-01 +7.11939335e-01 +8.96800935e-01 +1.00735649e-01 -3.66854340e-01 +6.28212839e-02 +7.51051074e-03 +4.83772367e-01 +2.99121231e-01 -4.65274572e-01 +1.50088996e-01 +3.35570574e-02 +2.81789720e-01 +3.63420904e-01 +5.80049634e-01 +1.14283717e+00 +9.34169963e-02 -3.96330804e-01 -2.85563916e-01 -2.33842552e-01 -3.98152739e-01 -3.30815107e-01 -3.76799852e-01 +1.22574523e-01 +1.52902377e+00 -9.18572128e-01 +1.95213426e-02 -3.68424505e-01 +1.64063677e-01 +4.11247551e-01 +1.29233703e-01 -1.49349108e-01 -5.63175976e-01 +7.66601264e-01 -2.45815441e-01 -3.17135841e-01 -4.11538154e-01 -2.60220796e-01 +1.73410460e-01 -1.71982557e-01 +1.12807512e-01 -3.45944285e-01 +1.29782811e-01 +1.52422011e+00 +2.55610257e-01 +1.85665682e-01 +5.47516465e-01 +3.01080614e-01 -2.07524210e-01 +2.35046342e-01 +6.43025935e-01 -4.20379668e-01 +7.30095744e-01 +9.97324526e-01 +6.26815021e-01 -3.66533488e-01 +1.91695020e-01 -7.37485215e-02 +2.27692872e-01 +2.16737494e-01 -1.81659654e-01 -3.70522678e-01 -4.23353881e-01 +3.07778895e-01 +2.10922718e-01 +2.37272725e-01 +1.96155801e-01 +5.16862869e-01 -7.40139186e-01 -6.24132812e-01 -4.69553709e-01 +9.88809243e-02 -3.04036379e-01 +3.52089673e-01 -5.31614944e-02 +3.93699408e-01 +4.04182285e-01 +2.28025526e-01 -4.25617754e-01 +1.37883082e-01 +1.72683388e-01 +9.41183329e-01 +7.04443753e-01 +2.22575232e-01 +8.08528215e-02 +1.75974295e-01 -3.01003814e-01 +1.18415073e-01 +2.26608500e-01 -5.42703152e-01 +4.76823151e-01 +1.48967281e-01 -8.42615440e-02 -5.96562088e-01 -4.81873900e-01 +4.63887811e-01 +4.15307492e-01 +4.75956976e-01 -1.06212378e-01 +1.31234765e-01 -3.54655206e-01 +4.82385874e-01 +2.37005621e-01 -6.74180806e-01 -4.15455788e-01 +4.30351079e-01 +3.36828291e-01 -1.49120077e-01 +2.17406362e-01 -2.74572074e-01 -3.11717451e-01 -8.98932740e-02 +2.29363233e-01 -2.46632844e-01 -4.19395626e-01 +3.59735936e-01 -4.46027696e-01 +3.13936248e-02 -2.08959788e-01 -3.71293783e-01 -4.97134805e-01 +3.13545987e-02 -7.08318949e-01 +3.51223528e-01 -2.52161562e-01 -3.92606884e-01 -1.77174404e-01 -2.38147810e-01 -1.59617111e-01 -3.76679868e-01 +1.77566528e-01 +4.41953093e-01 -3.37594330e-01 +3.30446661e-01 -3.69834363e-01 +1.70027331e-01 +3.23640794e-01 +2.38060385e-01 -1.06057453e+00 -4.25255954e-01 -3.04603875e-01 -3.29485744e-01 +1.86651736e-01 -4.91298027e-02 -7.45161831e-01 +2.52295166e-01 +5.54202080e-01 +3.89744900e-02 +3.78302097e-01 -2.59021759e-01 +3.52740318e-01 +3.62489909e-01 +6.74277171e-02 +6.56293780e-02 -1.79052368e-01 +2.39065394e-01 -4.96389806e-01 -2.13013962e-01 -4.01982754e-01 +4.02826339e-01 +2.81771988e-01 +4.44900781e-01 -5.36012471e-01 +4.26585317e-01 +4.72410560e-01 -1.18169762e-01 +4.25890744e-01 +1.60862386e-01 -5.10260284e-01 -2.21449792e-01 -1.26626352e-02 +1.10991456e-01 +3.60997558e-01 +3.62410605e-01 -2.12427706e-01 +9.87132546e-03 -7.81750083e-01 -4.91362363e-02 -2.82076180e-01 -5.24237975e-02 -3.39044124e-01 -4.63803232e-01 +1.72980154e+00 -1.11533451e+00 +5.20612538e-01 -9.97235000e-01 +8.84902105e-02 -5.51252067e-01 -1.11208111e-01 -3.89289707e-02 -1.67648911e-01 -6.59403205e-01 -6.26658916e-01 +3.09952080e-01 -3.60814631e-01 +1.62212119e-01 -3.52367729e-01 -3.19257937e-02 +1.51103690e-01 -2.61640251e-01 +6.21679783e-01 +4.77547407e-01 +7.35494643e-02 -1.39114439e-01 +6.59845889e-01 -2.95814842e-01 -9.42869723e-01 -6.42672256e-02 +4.82743800e-01 -1.01977408e+00 -5.47655672e-02 +4.04403687e-01 +2.07404196e-01 +3.61498356e-01 -4.60300654e-01 +3.75268310e-01 +3.90307248e-01 +8.43995869e-01 +8.20526063e-01 +3.99801344e-01 +2.45646313e-01 -6.39084816e-01 +6.15533888e-01 +6.14629686e-01 +4.10309881e-01 -7.99096283e-03 -3.85119021e-01 +3.82029749e-02 +3.55825663e-01 +4.84762311e-01 +6.28934085e-01 +8.67664754e-01 -9.43453074e-01 +4.98137504e-01 -1.88679308e-01 -4.59135443e-01 +8.78370821e-01 +4.91282821e-01 +2.08965018e-02 +2.82419235e-01 +6.95615232e-01 +2.89687663e-01 -5.68254173e-01 +2.86908537e-01 -2.51713574e-01 +1.76851138e-01 +1.61207664e+00 -2.87859216e-02 -5.30487180e-01 -3.70031297e-01 +2.55317181e-01 -5.07710278e-01 -4.88637090e-01 -3.57900918e-01 -1.54524744e-01 -2.80126274e-01 -8.76803026e-02 -6.66972995e-01 -6.48804188e-01 +7.95950174e-01 -2.66317725e-02 +3.10458511e-01 -8.78904283e-01 -2.10471265e-02 +1.38810083e-01 +2.26746611e-02 -1.15571193e-01 -1.05110562e+00 -5.66408157e-01 +1.07556701e+00 -8.12791109e-01 -2.91249931e-01 -3.39157343e-01 +2.91340023e-01 +2.86851794e-01 -3.97168964e-01 -3.02821875e-01 +9.07266662e-02 -2.44782388e-01 +3.47404420e-01 +6.20636582e-01 +8.11470330e-01 +1.23018943e-01 +5.69711089e-01 +5.66143990e-02 -1.03417134e+00 -1.59778014e-01 +4.47234631e-01 +5.66804036e-02 +7.30660884e-03 +2.33565476e-02 -6.75517201e-01 +9.52708647e-02 -7.19802260e-01 -3.32277328e-01 -1.55201167e-01 -6.95128500e-01 +2.59649120e-02 -7.86888599e-01 -1.67316914e-01 -9.17506158e-01 +5.37062645e-01 -2.63062716e-01 +1.07424483e-01 -2.06086308e-01 +1.83913857e-01 +3.41992706e-01 -2.29980871e-01 -3.00573677e-01 -8.06079447e-01 +6.16998136e-01 +1.41801432e-01 +1.77058384e-01 -1.24478221e-01 -9.18421149e-02 -3.57837200e-01 -1.93514913e-01 +2.42717508e-02 +1.99037775e-01 -1.25202805e-01 +3.87951940e-01 +3.49696279e-02 -3.25674891e-01 -9.54826847e-02 +3.58963728e-01 -6.51258528e-02 +3.39507520e-01 -1.95943817e-01 +2.58021474e-01 -7.25757301e-01 -5.66983968e-02 +9.56108570e-02 -5.61028481e-01 -1.60409734e-01 -1.63280860e-01 -1.96815252e-01 +9.92091000e-02 +3.91938657e-01 +5.77365994e-01 -2.71737576e-01 -2.76266038e-01 +4.81451631e-01 -6.02620244e-01 -5.86066306e-01 -3.00300151e-01 +1.02358252e-01 -6.85095116e-02 +7.82478526e-02 +3.85868967e-01 -8.83959830e-02 -5.07922590e-01 +4.25645798e-01 +2.57474575e-02 +3.82659435e-02 +3.87042612e-01 -2.05498174e-01 +5.99680424e-01 -2.45118499e-01 -1.05250329e-01 +6.26882166e-02 -2.62255639e-01 -3.28209519e-01 -6.43234551e-01 -7.08583444e-02 +7.58334696e-01 +2.85400450e-01 -9.37843621e-02 +1.40406951e-01 -4.43630069e-01 -2.91651696e-01 +2.86173075e-01 +2.88744327e-02 +1.02139032e+00 -1.21887363e-01 +2.30134621e-01 -2.88433343e-01 +4.75218654e-01 +7.36336363e-03 -6.51695371e-01 +4.59655434e-01 +5.85668802e-01 +2.26694703e-01 +3.09635103e-01 -4.73569751e-01 +7.23224401e-01 +9.01104584e-02 +3.30343962e-01 -4.02368546e-01 +2.29270190e-01 -2.77588248e-01 +3.84509802e-01 +1.95651546e-01 -1.39784202e-01 +1.59878228e-02 -5.55316210e-02 -3.48880082e-01 +4.61119652e-01 -4.32044536e-01 +4.25943702e-01 -3.30860376e-01 -1.02268055e-01 +2.19518617e-01 -2.06516758e-01 -2.17255503e-01 +1.24982029e-01 -7.36855865e-01 -5.04289389e-01 -7.11168945e-01 +3.23896855e-01 -1.54702157e-01 -2.43630409e-01 -6.29182756e-01 -1.68660730e-01 +3.24051172e-01 +4.69768614e-01 +4.91009742e-01 -2.27996603e-01 -1.43909499e-01 +4.46868956e-01 +1.38539508e-01 +9.24349353e-02 -1.09011400e+00 +5.60619056e-01 -3.63998532e-01 +7.09907413e-01 -4.45011966e-02 +2.02558234e-01 +5.28608024e-01 -3.66762608e-01 -5.70667565e-01 -8.93580079e-01 -2.46985316e-01 -1.74887881e-01 -8.86366591e-02 +3.03798884e-01 +4.22738463e-01 -3.32824774e-02 -5.14031589e-01 +5.15679181e-01 -6.35958314e-01 -4.72015679e-01 -5.68642855e-01 -1.01673198e+00 -4.65156555e-01 +1.48126876e+00 -4.00511444e-01 +3.50980252e-01 -4.97635424e-01 -7.43517056e-02 -1.47923306e-01 -1.38120484e+00 -2.07239226e-01 -6.46563053e-01 -7.41774201e-01 -6.94900990e-01 -8.93186182e-02 +4.40377861e-01 +5.32937348e-01 -2.57401049e-01 -1.30686045e+00 -7.20079184e-01 -3.07678401e-01 -1.02371328e-01 +4.12993729e-01 -5.37144661e-01 +1.24546444e+00 +1.56393498e-01 -5.90067923e-01 +4.27810960e-02 -4.55149084e-01 +3.96302581e-01 -5.99310517e-01 -2.40719736e-01 -9.52664539e-02 -3.20604533e-01 -7.88082182e-01 -1.05495572e+00 -3.92496645e-01 -1.18059540e+00 -7.84201503e-01 +1.21893644e-01 +8.71847123e-02 -5.01292884e-01 -7.99682498e-01 -1.14331841e+00 -1.55674383e-01 -8.62540364e-01 +7.35176742e-01 +5.60049057e-01 +3.77924412e-01 -2.21455663e-01 -4.86719638e-01 +9.44316566e-01 -1.18844211e+00 -1.22551107e+00 -8.53925526e-01 +3.63516778e-01 -3.67278516e-01 -6.54000521e-01 -8.40573847e-01 +2.61993259e-01 +6.78225279e-01 +9.77991164e-01 -8.83924544e-01 -6.40025139e-01 -9.64256823e-01 -1.53305721e+00 +9.51648504e-02 +1.42985141e+00 -2.60849118e-01 -2.38335341e-01 -6.13118887e-01 +3.87346476e-01 +2.25405052e-01 +4.63002831e-01 -3.85404587e-01 -1.55535355e-01 -6.06181800e-01 -3.44186008e-01 -1.57596469e-01 -4.41700034e-02 +4.76277530e-01 -2.89850205e-01 -9.74980354e-01 -6.81215525e-02 -3.36855888e-01 +6.14685655e-01 +2.01260597e-01 +1.46793723e-02 +9.86539364e-01 -1.96293503e-01 -7.95080423e-01 -4.11864996e-01 -9.03023422e-01 -7.23330975e-01 +3.80683243e-01 +4.45981175e-01 -8.40514660e-01 +6.43498600e-02 -7.82413244e-01 +2.64387697e-01 -1.81369841e-01 -1.72931850e-01 -4.81688857e-01 -4.89460438e-01 +6.59029841e-01 +8.51196766e-01 -5.74779212e-01 -1.80815905e-01 -2.66387045e-01 -4.09574002e-01 -2.65404254e-01 -4.93222289e-02 -4.71342839e-02 +1.03092265e+00 +9.49464291e-02 +2.12528985e-02 -4.02525127e-01 -5.24558067e-01 -9.87098068e-02 -1.06950736e+00 -4.58513379e-01 +7.62875676e-01 -9.63809311e-01 -6.64002970e-02 -3.27335447e-01 +7.89907873e-02 +3.62112850e-01 -7.42483288e-02 -6.21696115e-01 -8.45750093e-01 -1.59584478e-01 +6.70971990e-01 +1.53149799e-01 +4.99320440e-02 -2.28238836e-01 -1.72858825e-03 +3.67907673e-01 -2.17997283e-01 +6.45319045e-01 -2.57967263e-01 +3.96022677e-01 -2.47701872e-02 +3.09604883e-01 -5.15219927e-01 +2.17833742e-01 +4.00635719e-01 +9.19889271e-01 -1.23947576e-01 -2.18511581e-01 +2.44591564e-01 -5.74031472e-01 -4.80359495e-02 +5.29117942e-01 +7.73997664e-01 +4.72655624e-01 -3.18611175e-01 -2.80853897e-01 +2.12403178e-01 +4.35444891e-01 -1.25196829e-01 +5.06576598e-02 +6.29109383e-01 -1.81641415e-01 -1.65545493e-01 -2.48537868e-01 +1.13337606e-01 +7.90707767e-01 -9.74021107e-02 -7.80249014e-03 -5.17197967e-01 -5.71315765e-01 +2.61844486e-01 +4.12592232e-01 -2.20317561e-02 -2.28609636e-01 +3.97392660e-01 +3.26028824e-01 +3.88345242e-01 -5.01914620e-01 -2.80278213e-02 +2.06256375e-01 +1.66886255e-01 +7.65211368e-03 +4.93980087e-02 -5.95618665e-01 +3.96827430e-01 +2.43155733e-01 +7.90876091e-01 +4.20472696e-02 -3.59449565e-01 -8.91699374e-01 -5.20533361e-02 +6.43495321e-01 -1.31046072e-01 -3.28212440e-01 +8.37389469e-01 -1.61414906e-01 -4.41173255e-01 -4.30032164e-01 -5.44514418e-01 +3.18240255e-01 -3.48016769e-01 -4.88483459e-01 -8.82722497e-01 +4.40580308e-01 -2.45914102e-01 +4.08756137e-01 -4.27899420e-01 -6.32589817e-01 -5.69456100e-01 -8.78533244e-01 -1.86743483e-01 -2.36221310e-03 +7.21638650e-03 -2.02722102e-01 -1.86703593e-01 -5.96296966e-01 +4.20048870e-02 -1.24685548e-01 -2.33496893e-02 -4.03457224e-01 -6.24913573e-01 +5.16066372e-01 -2.93062866e-01 +1.00130245e-01 -1.05212450e-01 +5.47254309e-02 -5.96502200e-02 -5.95107019e-01 -5.05822420e-01 -1.84659347e-01 -2.75820881e-01 -5.60825169e-01 -2.34061584e-01 -1.65556327e-01 -4.45778221e-01 -3.73407543e-01 -3.51091266e-01 -7.24271536e-02 -1.51555523e-01 -2.44542077e-01 -5.14404356e-01 -4.42638934e-01 -4.07267123e-01 -2.25772202e-01 -2.20667154e-01 -2.69238353e-01 -4.05830681e-01 +3.20191592e-01 -4.56563294e-01 -5.77557147e-01 -9.42428946e-01 +7.29672462e-02 +6.47268414e-01 -8.29496264e-01 -5.54043591e-01 -2.03259345e-02 -3.60859752e-01 +5.31469345e-01 +4.96888191e-01 -4.77528214e-01 +1.26994646e+00 +7.16632843e-01 -9.44153219e-02 +1.95406646e-01 -5.76242626e-01 +4.38620657e-01 +3.20639491e-01 -2.01194305e-02 -9.66631472e-01 -3.98152530e-01 -1.13607213e-01 +2.76058000e-02 -1.37331402e+00 +1.49924919e-01 -1.19900778e-01 -7.21757293e-01 +3.18515524e-02 -1.14252472e+00 +1.83421634e-02 +3.23186070e-01 +4.06518459e-01 -2.47661084e-01 +3.39068398e-02 -1.13015866e+00 -6.70346797e-01 +4.19344336e-01 -3.14929724e-01 +5.06548524e-01 +2.16715276e-01 +1.74653590e-01 -3.97413194e-01 -4.60527837e-01 -2.00588256e-01 -4.61523890e-01 -9.56088662e-01 +3.91532570e-01 +1.12212420e-01 +2.39154696e-01 -6.94426149e-02 +1.25169039e-01 +2.30422780e-01 +7.65768707e-01 +1.37866080e-01 +7.05347776e-01 -6.49193943e-01 -3.84167641e-01 -3.66465122e-01 +6.06528997e-01 +2.80197412e-01 +2.87768573e-01 -1.37597108e+00 +2.72929579e-01 -5.56600273e-01 -7.32404053e-01 +5.91613173e-01 +3.91865373e-01 +9.20857728e-01 -5.24151623e-01 +1.87504590e-01 +5.45865238e-01 -8.17797363e-01 +4.92421389e-01 +2.73061186e-01 -6.73749968e-02 +5.48762262e-01 +3.34243365e-02 -8.55207801e-01 -2.02257425e-01 -7.86431491e-01 -2.97061019e-02 -8.57512504e-02 +3.86687636e-01 -1.03301501e+00 +5.73738217e-01 -4.30171907e-01 -7.24075437e-01 -6.30391419e-01 -8.26559722e-01 -2.68904716e-01 +7.68016977e-03 -5.66619277e-01 -1.06461190e-01 -1.61363203e-02 -6.32961452e-01 +4.68632430e-01 -8.81012797e-01 +2.60459393e-01 -7.67354727e-01 -3.05734187e-01 +1.05590248e+00 -7.29547679e-01 +4.75156069e-01 +6.76063746e-02 +1.02921045e+00 +3.82935405e-01 -5.00076711e-01 -2.55448818e-01 -1.03257701e-01 +3.73105198e-01 +7.89000392e-02 -4.14260507e-01 -7.85351276e-01 +5.98449767e-01 +1.72660097e-01 -4.78707433e-01 +6.11494005e-01 -5.25020540e-01 +4.57687885e-01 -5.34479797e-01 -7.14285791e-01 -3.64195965e-02 +1.81674168e-01 +3.25874597e-01 +8.85198116e-02 -4.73897606e-01 -2.31336400e-01 +9.01693821e-01 -6.93135142e-01 -2.94642568e-01 +2.98976898e-02 -5.48302472e-01 +1.25604838e-01 +3.15988868e-01 +2.84823235e-02 +4.40449178e-01 -5.73271692e-01 +7.98726618e-01 -2.00082704e-01 -1.08209155e-01 -1.77817404e-01 -1.37827635e-01 +1.84137210e-01 +1.39068335e-01 +8.32917243e-02 -3.63496721e-01 -8.61945271e-01 +3.36067259e-01 -3.15188058e-02 -5.72182536e-02 -3.74183208e-01 -2.04808146e-01 +1.35554656e-01 -1.41167909e-01 -3.87208462e-01 -1.59360334e-01 +1.64366260e-01 -2.57928818e-01 -3.19829524e-01 +2.34944984e-01 -3.81317943e-01 -1.56746849e-01 -4.94806111e-01 +3.35076749e-01 -4.76360656e-02 -4.92117889e-02 -5.88281676e-02 -1.12486348e-01 +3.22311372e-02 -1.93154931e-01 +3.05456787e-01 -7.74773061e-01 +1.62090778e-01 -3.59775901e-01 -1.51999533e-01 -2.35691801e-01 +3.00183535e-01 +1.35403574e-01 -3.58129948e-01 +2.28788421e-01 +5.94000340e-01 +6.05166107e-02 -1.52681082e-01 +1.19367830e-01 -5.49459569e-02 +2.53468543e-01 +2.41449744e-01 -3.76333863e-01 -8.98345634e-02 +6.29849672e-01 -1.68448076e-01 +5.92926681e-01 +4.74515200e-01 +4.72486645e-01 -6.86584041e-02 +6.59222960e-01 +9.37483907e-01 -1.88064441e-01 -3.63467276e-01 -4.29361314e-01 -2.71942973e-01 +4.20640916e-01 +2.86985151e-02 +8.88887607e-03 +3.38193685e-01 +6.06228232e-01 +1.57618836e-01 -1.20383009e-01 -4.14779246e-01 -2.93777511e-03 -3.74530077e-01 +4.21905667e-01 +2.91766793e-01 +2.90354550e-01 +5.37639856e-01 +7.30157256e-01 -5.94464540e-01 -4.30100083e-01 -3.23798418e-01 -3.13146204e-01 +6.31726027e-01 -1.90834757e-02 +3.51588070e-01 -2.91700989e-01 +1.34598002e-01 -4.43416625e-01 -1.17621697e-01 +2.68064678e-01 +2.49757111e-01 +3.74880731e-01 -3.96493733e-01 -4.65903521e-01 +4.58069086e-01 +1.14978909e+00 +8.23802203e-02 +9.05009031e-01 -5.01896560e-01 -7.76272640e-02 +6.18337542e-02 -6.15132451e-01 +1.59674287e-02 +6.63220957e-02 -5.39387703e-01 +5.62495232e-01 +2.88791180e-01 +7.03967988e-01 +6.45125628e-01 +4.54740860e-02 -1.03898672e-02 +2.51555651e-01 +6.58017918e-02 -1.68119937e-01 -1.30256236e-01 +3.46893460e-01 +1.29934520e-01 +1.58023700e-01 +6.69665992e-01 -1.30235195e-01 -4.74820763e-01 +9.22316551e-01 +7.30277419e-01 +1.53002307e-01 +5.52218556e-02 +3.10890764e-01 -7.82400966e-02 +5.79364955e-01 -1.18692979e-01 -2.48318389e-01 -5.84018946e-01 -2.46844545e-01 -2.28197962e-01 +1.36921421e-01 -2.86879241e-01 -5.05436659e-01 -6.08478561e-02 -1.90735817e-01 +3.26720536e-01 +4.10260588e-01 +4.30066809e-02 +3.98826778e-01 -3.82119954e-01 +5.59451468e-02 -6.13200944e-03 +9.62623835e-01 +1.14749551e+00 -6.15607440e-01 +7.52084076e-01 -3.72951180e-01 -6.58578992e-01 +1.34248212e-01 +1.05341844e-01 -2.59234428e-01 -6.16010249e-01 +9.56183672e-01 -3.45643878e-01 -6.94553614e-01 -8.14412311e-02 +2.09027410e-01 +2.49052569e-01 +6.40064299e-01 +7.39922643e-01 +5.93339086e-01 -2.13263631e-01 -9.72142518e-02 +5.39166629e-02 -5.30284047e-01 +4.34063137e-01 -8.56852531e-02 -2.25479037e-01 +4.72406328e-01 +9.28495049e-01 +1.21706180e-01 +5.98102093e-01 +3.06599587e-01 +1.55670255e-01 -6.28297478e-02 +9.69412178e-02 +6.75561130e-02 +1.11756253e+00 +1.42136586e+00 +3.01752299e-01 +4.41415310e-01 +4.89763588e-01 +3.44151556e-01 +9.91792381e-01 +3.57057154e-01 -2.52227992e-01 -3.75410020e-01 +3.90493423e-01 +8.76550555e-01 -1.64136314e+00 -5.73680520e-01 -4.89295609e-02 +8.94476622e-02 +3.65630656e-01 -1.32423609e-01 -8.81377935e-01 +1.64606526e-01 -3.28068763e-01 +3.22000921e-01 +6.04131639e-01 -1.27297759e-01 +5.79633415e-01 +4.58301246e-01 +1.04483806e-01 -4.53026861e-01 +1.04357302e-02 +8.80925477e-01 +5.31503260e-01 -1.01992083e+00 +1.70045719e-01 -1.99480727e-01 -8.77951011e-02 +2.15121061e-01 +5.50573528e-01 +1.04440391e-01 +2.83961058e-01 +5.73347569e-01 -6.22254729e-01 -9.58341300e-01 -2.69525230e-01 +1.07365072e+00 +1.26199769e-02 +7.24052489e-01 -2.41016492e-01 -5.18147610e-02 -4.11578655e-01 -1.29591897e-01 -1.28333342e+00 -3.38229090e-01 +8.13665614e-02 +5.20579934e-01 -7.24401116e-01 +9.55910981e-01 +4.78634059e-01 +3.75591606e-01 +7.51775563e-01 -1.25386819e-01 +1.20678961e-01 -3.42644274e-01 -2.28068635e-01 -1.48727477e+00 -1.20462086e-02 +2.17393830e-01 +4.12660062e-01 +5.89346327e-02 +7.31555104e-01 +1.54016033e-01 +8.58243167e-01 +1.34762302e-01 -9.92188096e-01 -1.69910073e-01 -2.21249700e-01 +5.42279243e-01 +8.23657736e-02 +6.76110089e-01 -1.81489632e-01 +5.40538609e-01 +9.95776057e-02 +4.48361874e-01 -3.90613437e-01 +6.21103108e-01 -2.99665183e-01 +6.34435490e-02 -3.59335705e-03 -2.04059020e-01 +4.55591112e-01 -7.10372925e-01 -1.93560645e-02 -8.92789364e-02 +7.70578310e-02 +7.04850674e-01 -6.81265056e-01 -1.04777152e-02 +1.82356924e-01 -4.91404295e-01 +2.16322437e-01 +1.20957494e-01 -5.77285230e-01 -2.68185765e-01 -4.38444465e-01 -4.42474276e-01 -2.83985615e-01 -2.09765941e-01 +2.83485204e-01 -7.84867406e-01 +4.73558247e-01 +7.23865807e-01 -2.76239347e-02 -1.28016680e-01 -4.50907916e-01 +2.27191523e-02 +1.13082211e-02 +3.78796279e-01 +3.90614420e-01 -7.81039476e-01 +1.07178934e-01 +2.54265487e-01 -1.83682740e-01 +3.86232466e-01 -3.38502368e-03 +3.74134660e-01 -4.30989444e-01 +8.35947692e-01 +8.25080574e-02 -1.19560234e-01 +4.25308086e-02 -1.63635641e-01 -2.61288226e-01 +5.36560416e-01 +6.57492459e-01 -3.86979617e-03 -5.16852438e-01 -1.37968540e-01 -1.22385800e-01 -4.22909021e-01 -3.76962215e-01 +9.30152237e-01 -8.47613513e-02 +5.51126292e-03 -3.64176929e-01 -4.74710733e-01 -3.96324337e-01 +5.26594758e-01 +2.30146408e-01 -4.73669529e-01 -7.67702639e-01 -3.15669775e-02 +2.66495615e-01 -2.25616321e-02 -2.30304077e-01 -5.67552090e-01 -2.25430712e-01 -1.67396963e-01 +3.21646094e-01 -5.68764051e-03 +3.52784514e-01 -2.93533802e-01 +2.89395601e-01 -3.89064610e-01 -7.27035031e-02 +1.73599660e-01 +3.97054851e-01 -5.88010788e-01 +1.07436717e-01 -5.61486065e-01 -6.05982006e-01 -4.92793322e-01 -7.14823604e-01 -7.30661511e-01 +1.12549059e-01 -5.13068855e-01 -6.24780834e-01 -4.31432202e-02 -9.36970264e-02 -9.14986193e-01 -1.62447736e-01 -3.95819247e-01 +3.72566313e-01 -6.81439340e-01 +3.48819435e-01 -2.22434387e-01 -3.87598008e-01 -4.74512577e-01 -2.26630345e-01 +2.16912061e-01 -2.72748806e-02 -5.26800871e-01 -3.13418388e-01 +1.42916650e-01 -8.21776927e-01 +2.75356054e-01 -6.59736693e-01 -9.19181332e-02 -7.74778575e-02 -5.57698607e-01 +4.64345003e-03 +1.84634849e-01 +1.98181406e-01 +3.59693319e-01 +2.54981458e-01 +4.34030890e-01 -2.74970680e-01 +2.43225485e-01 +1.07435417e+00 -4.85684782e-01 -1.48412690e-01 +3.81792992e-01 +1.16158915e+00 +2.29357019e-01 -2.50514895e-01 +2.10429639e-01 +1.44483134e-01 +3.09047312e-01 -1.93734646e-01 -8.82099509e-01 -6.41740561e-01 +3.92241955e-01 +7.59369075e-01 +6.80639029e-01 -2.09654942e-01 -5.72624132e-02 +5.62397204e-02 +4.08467710e-01 +4.40900207e-01 -2.72454798e-01 -6.87358499e-01 +7.56407917e-01 +1.69852018e-01 -5.97694278e-01 -2.35561475e-01 +5.14406376e-02 +3.89461935e-01 -4.19017732e-01 -2.27240562e-01 +9.55206811e-01 -3.65837157e-01 +1.37459263e-01 +1.97124228e-01 +1.94994330e-01 +2.26168662e-01 +8.01409423e-01 -1.79049909e-01 +1.12456596e+00 +2.77840286e-01 -2.72111654e-01 -7.85483360e-01 +2.63007492e-01 +2.76468396e-02 +2.27649376e-01 +1.14026165e+00 +2.81780183e-01 +8.29453096e-02 -2.17454091e-01 -3.31724793e-01 +7.09754508e-03 -1.39435783e-01 -5.46370149e-01 +3.72613251e-01 -4.94845778e-01 -3.04102719e-01 -3.70166332e-01 +3.98198575e-01 -6.60155058e-01 -1.41106859e-01 +5.92797220e-01 +1.21365681e-01 +4.96063707e-03 -7.73955882e-02 -6.15371108e-01 -3.22139829e-01 -1.90612371e-03 -1.40658438e-01 -6.01832092e-01 -2.56424904e-01 +3.59703422e-01 +4.59301502e-01 -1.60354957e-01 -1.84246525e-02 -6.16883971e-02 -7.03228116e-01 -3.97055686e-01 +3.07173818e-01 +2.26716295e-01 -3.60641867e-01 +5.92036210e-02 +9.99348536e-02 -4.69323903e-01 -1.68920457e-01 +1.05232209e-01 -2.71133095e-01 +1.77746966e-01 -2.48241737e-01 -1.04358768e+00 +1.55544356e-01 -4.62341040e-01 -3.55919480e-01 -7.44245052e-01 +9.49202254e-02 -2.72856541e-02 -3.86057705e-01 -3.64039131e-02 +1.66184485e-01 -3.70988548e-01 -7.21746325e-01 -7.39439368e-01 -1.86835095e-01 -9.28757787e-01 +7.50806987e-01 +3.67338747e-01 -5.41366696e-01 +3.77405547e-02 -3.11589152e-01 +3.84687223e-02 +9.41525996e-02 -2.08751723e-01 +4.07025456e-01 -2.70227462e-01 -4.97953475e-01 +4.69115824e-02 +2.80077457e-01 -3.80163282e-01 -2.93482125e-01 +2.76858002e-01 -2.06326127e-01 +6.30764604e-01 +1.05918206e-01 +3.77736509e-01 +2.99320817e-01 +4.80989814e-01 -5.82570851e-01 +1.06057875e-01 -2.62080967e-01 -5.33047736e-01 +1.20268397e-01 +5.01235664e-01 +1.61630973e-01 -1.53234228e-01 +7.69725591e-02 -2.12154463e-01 -2.31370047e-01 -4.84999478e-01 -6.86253002e-03 +5.06893814e-01 +4.13578242e-01 -1.77154079e-01 -5.22111118e-01 -6.50124028e-02 +1.04852848e-01 -5.80990434e-01 +6.06850423e-02 -1.22731164e-01 -1.69264451e-01 +1.12876706e-01 -2.96719283e-01 +9.32283234e-03 +4.63557988e-02 -2.42886201e-01 -4.46281433e-01 +4.80708554e-02 +9.79191959e-02 +2.50561506e-01 +3.23229194e-01 -2.36359522e-01 -3.75831187e-01 -3.12876731e-01 +5.69767356e-02 +4.96290103e-02 +6.22644126e-01 -5.96549273e-01 +9.14812647e-03 +1.72785506e-01 -4.16862160e-01 +4.51552272e-01 -2.50426084e-01 +6.79758251e-01 -3.27055365e-01 +2.64669329e-01 +7.74574816e-01 -3.82433802e-01 -4.34680820e-01 +4.70386585e-04 -5.89864030e-02 +3.65559220e-01 +1.74852610e-01 -3.48659903e-01 +4.42245789e-03 +1.62312061e-01 +8.58124256e-01 +3.63461435e-01 +3.74677807e-01 +3.88532162e-01 +4.19847108e-02 -5.67984223e-01 +4.25381660e-01 +2.67429292e-01 +2.63941139e-01 +5.49920917e-01 +5.71676135e-01 -1.74369290e-01 +3.45408976e-01 -1.01607433e-02 +7.42766917e-01 +5.51672161e-01 +5.35044849e-01 +8.08203876e-01 +1.34459540e-01 -4.60200787e-01 +1.06989540e-01 +3.42990190e-01 +6.78964481e-02 +1.23256125e-01 -7.61765018e-02 +1.05990462e-01 -1.33976594e-01 +8.74122009e-02 +4.49089646e-01 +3.46264035e-01 +9.35791135e-01 +6.83911264e-01 -4.17285785e-02 +7.90537715e-01 +1.15811074e+00 -4.52169657e-01 +4.06886369e-01 +2.85398453e-01 -9.64291394e-01 +8.10259819e-01 -2.94564158e-01 +5.00981688e-01 +4.92858857e-01 +2.22319052e-01 +9.63172317e-01 +6.69618070e-01 +4.09591407e-01 +4.71346825e-01 -1.42607749e-01 +3.09603423e-01 +1.43937394e-01 +4.03635889e-01 +7.93145746e-02 +6.67656660e-01 +8.81633461e-01 +1.59403265e-01 +3.99576575e-01 +2.11062148e-01 +1.48147941e-01 -4.86058891e-01 +5.48810601e-01 +6.29872203e-01 -6.88513160e-01 -1.36808172e-01 +1.98149472e-01 +5.27853847e-01 +1.39350563e-01 +4.87143070e-01 -2.61078030e-01 -1.03955996e+00 +5.11589587e-01 +4.92506385e-01 -3.78082901e-01 -7.67279267e-01 +6.66631877e-01 -1.02251971e+00 -2.83643037e-01 +6.25548422e-01 +5.44611327e-02 +5.00524819e-01 +8.17866251e-02 +2.76402533e-01 +2.34825701e-01 -3.96280110e-01 -2.68519044e-01 +3.23344111e-01 +2.99971011e-02 -2.68266767e-01 +5.51247418e-01 +3.14359576e-01 -5.06853640e-01 -1.65259719e-01 +2.44940504e-01 +1.34427309e-01 -1.37192741e-01 -1.44787550e-01 +3.43531877e-01 +1.40598580e-01 +1.03308996e-02 -2.68940121e-01 -2.03750044e-01 +9.16419923e-02 +2.60721087e-01 +6.91384077e-01 +7.75575936e-01 +3.98068950e-02 -8.46784234e-01 +5.79517245e-01 -5.55835776e-02 -6.10534847e-01 +7.38721043e-02 +7.18326390e-01 -5.61190128e-01 -4.37931687e-01 +1.20680904e+00 -5.49258232e-01 -3.16233724e-01 -1.14864722e-01 +1.42543077e-01 +4.27414417e-01 +6.20432079e-01 +7.86211729e-01 +9.85096931e-01 +3.80654812e-01 +9.01729286e-01 -4.98688787e-01 +6.42219782e-01 +8.30723569e-02 +1.45463669e+00 +4.81913090e-01 +9.23427701e-01 +6.43141747e-01 -1.86720207e-01 -7.17842579e-01 +5.24337888e-01 +6.42224848e-01 +2.94610411e-01 +2.82979488e-01 +5.92832506e-01 -6.15380406e-01 +9.95179862e-02 +7.47587323e-01 +6.67249382e-01 +5.98966241e-01 +5.05593419e-01 +3.22016537e-01 +1.15331426e-01 -4.62293595e-01 +5.16998470e-01 -5.49673021e-01 +8.58960748e-02 -3.87687564e-01 -8.04428160e-01 -3.31266046e-01 -5.41210651e-01 +2.22785905e-01 +2.99702525e-01 +9.49823141e-01 +5.67436457e-01 +8.79485250e-01 +5.47684848e-01 +3.52812605e-03 +8.27409267e-01 -9.72161770e-01 +2.04250216e-01 +9.07913387e-01 -2.01147422e-01 +6.79610252e-01 +8.01558346e-02 +2.22186729e-01 -5.80838546e-02 +1.03904581e+00 +3.22867781e-01 +5.14360905e-01 +6.04738832e-01 +6.96148396e-01 -3.52932811e-01 +7.62657747e-02 +9.04883981e-01 +1.41055897e-01 -8.19998503e-01 +2.46393099e-01 +8.11410308e-01 +4.54002291e-01 +6.56248450e-01 +5.68511248e-01 +5.94510853e-01 -5.93481660e-01 +2.72721827e-01 +1.67274415e-01 -4.62637484e-01 -2.86817163e-01 +5.97783446e-01 -2.59715229e-01 -3.82549703e-01 -5.68610132e-01 -6.98326647e-01 -4.13942367e-01 +6.82402104e-02 +1.53175130e-01 +6.41044319e-01 +1.72400072e-01 +2.10287627e-02 -1.07752234e-01 -5.24703860e-01 +2.53116965e-01 +2.65363783e-01 +1.40481412e-01 -4.95015174e-01 +5.42383552e-01 -5.06737947e-01 -2.43429750e-01 -9.40644801e-01 -2.16877267e-01 +3.88081044e-01 +1.09431390e-02 -7.26578236e-02 -8.52438956e-02 -4.05546337e-01 -7.62062788e-01 -2.06737593e-01 -8.11119750e-02 -1.53454617e-01 -7.71191895e-01 -4.13062811e-01 +4.34725285e-01 +2.60551095e-01 -8.94532725e-02 -3.47724497e-01 +7.24838376e-01 +3.98657829e-01 +3.19178700e-01 +2.05945164e-01 -4.98685598e-01 -7.17011020e-02 +4.95535582e-01 -5.61919332e-01 +6.12923145e-01 -1.77010462e-01 -6.37410045e-01 +4.54791337e-01 +1.20745637e-01 -4.36341971e-01 -4.82111484e-01 +4.83622879e-01 +3.07828873e-01 -1.96943671e-01 +2.28320714e-03 +2.40360498e-01 -8.38902146e-02 +2.67095119e-01 -1.20832734e-01 -4.02022272e-01 +2.75575817e-01 +9.65041101e-01 -7.65928328e-01 -4.68716890e-01 +5.19477487e-01 -1.24550924e-01 +4.01168138e-01 -6.98168576e-01 -4.49110061e-01 +4.95698810e-01 -1.22329742e-01 +5.64265668e-01 -3.97458393e-03 -1.32572562e-01 -2.09833026e-01 +2.04332620e-01 -5.67161012e-03 +6.11305982e-02 -2.17522919e-01 +4.06743139e-01 +9.26396027e-02 +2.15043187e-01 -4.52094488e-02 +3.10260236e-01 +1.93941683e-01 +5.69932997e-01 -3.71902585e-01 -5.29690087e-01 +5.42310715e-01 -2.14555815e-01 -1.84330627e-01 +1.55069470e-01 +3.01392168e-01 +4.82373744e-01 -9.88060907e-02 +3.67074728e-01 -4.61914241e-01 +2.70421088e-01 -3.90651286e-01 -1.35831922e-01 +3.75181705e-01 +2.08151881e-02 -3.35552692e-01 -5.60092404e-02 -4.10857439e-01 -4.30367768e-01 +3.80049467e-01 +2.67550629e-03 +7.70018995e-02 +7.72966146e-01 -7.30240166e-01 +3.85816634e-01 +5.20064890e-01 +2.10179970e-01 -4.35350955e-01 -3.03613514e-01 +3.17416161e-01 +3.29690799e-02 +6.24658883e-01 -1.07639186e-01 +3.40403587e-01 -1.85413003e-01 +2.25086421e-01 -1.89904749e-01 +1.84931099e-01 +2.41240770e-01 -7.85977066e-01 +1.13756311e+00 +1.62952021e-01 +8.35625350e-01 +7.05263317e-01 +3.19137454e-01 -4.77083325e-01 +8.13252687e-01 +9.41181779e-02 +3.70476991e-01 +7.94045448e-01 +1.14445955e-01 +9.75299180e-01 +6.13515496e-01 +6.36908889e-01 -2.21322730e-01 +1.11050785e+00 +8.04848909e-01 +3.91291767e-01 +5.46139479e-02 +1.46510452e-01 +1.01484835e+00 +2.60430813e-01 +5.34966171e-01 +3.22929889e-01 -7.68565238e-02 +1.93507433e-01 +2.63352543e-01 +1.03201903e-01 -4.95972782e-02 -8.36210728e-01 -1.85749084e-02 -3.90166380e-02 +4.75284725e-01 -2.73329824e-01 -1.05900466e+00 -2.49340713e-01 +1.92646366e-02 +5.12977242e-01 -2.49907389e-01 +4.59753752e-01 +8.69697511e-01 +8.84839058e-01 +5.08071125e-01 +5.43230116e-01 +1.90132096e-01 +3.50919098e-01 +4.98097628e-01 +5.83213151e-01 -7.70760179e-01 +3.88023257e-01 -3.55894238e-01 +1.75342485e-01 +6.33958131e-02 -9.36132637e-05 +1.36463895e-01 +3.81074637e-01 +8.76470625e-01 -3.10043395e-01 -1.61255404e-01 +1.12205946e+00 +1.13519192e+00 +6.89494014e-01 -7.18060434e-01 -8.11645269e-01 +3.76509845e-01 +1.95447892e-01 +1.01152623e+00 +1.51064515e-01 -9.66120541e-01 -7.25779593e-01 +1.04443336e+00 +5.83487630e-01 +4.84547883e-01 -2.67399132e-01 +2.06871033e-01 -5.24032442e-03 -1.08822361e-01 +5.22203445e-01 -4.45387103e-02 +4.40633535e-01 +3.09314340e-01 -2.97483265e-01 +6.90454960e-01 -1.83827549e-01 +8.68345559e-01 +4.23332602e-01 -4.71472964e-02 +8.28442723e-02 -4.91387546e-01 +1.78382188e-01 -8.03920686e-01 -3.31360757e-01 +3.03386480e-01 +5.45349300e-01 +6.17940187e-01 +7.27439761e-01 -2.82131523e-01 -1.43139625e+00 -5.76172471e-01 -8.18682849e-01 -4.05696839e-01 -1.65271983e-01 +2.47347027e-01 +4.28879797e-01 +4.42833871e-01 -1.05334036e-01 -1.33064196e-01 +1.09041274e-01 +8.56515288e-01 +2.16056198e-01 +9.93833840e-01 +2.87704229e-01 +3.04574132e-01 +9.86917689e-02 +1.59464777e-01 -2.43112624e-01 -5.14187813e-01 +9.57812846e-01 -1.15704596e-01 +6.90453053e-01 -2.61947930e-01 +6.52326941e-01 +3.29977930e-01 -4.74705011e-01 +8.19184184e-01 +2.57068992e-01 +3.79205167e-01 -4.07248400e-02 -1.93617672e-01 +1.98995210e-02 -4.15971667e-01 +5.01442730e-01 -1.41418964e-01 -1.29234856e-02 +9.06256065e-02 -2.31264248e-01 +5.02034009e-01 -1.81936875e-01 -1.07396878e-01 -1.94302827e-01 +2.17304349e-01 -5.36784053e-01 -1.52505457e-01 -4.53083783e-01 -2.00662494e-01 -9.50165242e-02 -4.32513729e-02 +1.77730843e-01 -6.47153914e-01 -3.70523483e-01 -7.36689925e-01 -4.62757707e-01 +3.68874401e-01 -2.90097743e-01 -6.36735797e-01 -5.26829183e-01 -5.87817252e-01 +2.80480325e-01 -1.05952479e-01 +3.40088069e-01 +2.93795109e-01 -2.21928805e-01 -1.63926199e-01 +1.18192405e-01 -3.65716517e-01 +4.34213072e-01 -1.39418505e-02 -5.77820018e-02 -2.78649926e-01 -4.02004898e-01 +6.90014243e-01 -3.37041281e-02 +6.36465754e-03 -1.15532793e-01 +4.43716735e-01 -2.50249565e-01 -3.35379362e-01 +2.92693898e-02 +2.90659778e-02 -1.41228572e-01 +9.92739797e-01 +7.61904791e-02 -2.28541091e-01 -5.13907373e-01 -2.95056403e-01 +2.17284501e-01 +1.37757257e-01 -6.89120710e-01 -5.07427454e-01 -8.72077346e-01 +5.11891067e-01 +9.41485703e-01 +7.49321759e-01 +2.91676342e-01 +1.17292143e-01 +8.14345956e-01 -2.01262273e-02 -1.71278343e-01 +7.54010260e-01 -1.02300033e-01 +1.97073936e-01 +5.00751495e-01 +4.59909678e-01 +6.86860755e-02 +1.54842436e-01 +1.41323522e-01 +4.25424017e-02 +5.11347950e-01 +7.17985988e-01 +9.91442680e-01 +3.34509850e-01 +7.39498079e-01 +4.92844254e-01 -1.32953122e-01 -4.12370205e-01 +1.15528554e-02 +6.49051726e-01 +8.70397925e-01 +3.77534628e-01 +3.31627041e-01 +5.20553552e-02 -8.17316830e-01 +7.91535318e-01 -3.49413991e-01 +2.77184695e-01 -2.19741359e-01 -2.52551317e-01 +3.25108588e-01 +7.43759930e-01 +8.56891870e-01 +7.31151879e-01 +7.60087550e-01 -6.43468201e-01 +5.48528731e-01 -1.31650254e-01 +8.21471810e-01 +5.37676930e-01 +6.16132319e-01 +9.29867089e-01 +3.30488771e-01 -1.51403487e-01 +9.08444449e-02 +1.97429121e-01 +4.45782661e-01 -4.25938182e-02 +4.52814788e-01 +2.98284739e-01 -3.83019835e-01 +4.67702717e-04 +2.53913134e-01 +1.59099862e-01 -6.11778609e-02 -1.97943151e-02 -3.03687036e-01 +7.01316297e-02 +1.18111706e+00 +2.80717909e-01 +1.60765976e-01 +5.21536767e-01 +4.28163588e-01 -2.46550776e-02 -3.04771602e-01 +5.97386956e-01 -4.60996538e-01 -4.34907936e-02 -5.22400022e-01 +1.80742130e-01 -3.79927576e-01 +3.56534123e-01 -9.45322365e-02 -2.84833908e-01 -2.94373065e-01 +2.08016098e-01 -2.77738068e-02 -2.79310912e-01 +1.20201147e+00 +7.15215951e-02 -1.18135452e-01 +2.10277393e-01 +2.34206781e-01 +3.09702605e-01 +3.23315412e-02 +2.18149889e-02 +4.63427931e-01 +2.41878495e-01 +2.43619457e-01 -6.25957668e-01 +1.26521781e-01 -1.79132402e-01 +5.95641792e-01 +5.92426777e-01 -3.46447438e-01 +2.69681215e-01 +3.94811511e-01 +1.65097654e-01 +6.76297128e-01 +8.74645412e-01 -7.21208215e-01 +1.81172296e-01 +8.58967066e-01 +5.10161042e-01 +5.12169421e-01 -1.89897399e-02 +4.47202802e-01 -6.62790909e-02 -6.05985463e-01 -6.60884082e-01 -8.18338156e-01 -6.34773731e-01 -2.87067652e-01 +3.78254116e-01 -1.94667473e-01 -2.09606916e-01 +2.51993567e-01 +1.00615239e+00 -2.37618580e-01 -7.98375905e-01 -6.23266637e-01 +1.02883026e-01 +3.62084448e-01 +7.48007655e-01 +3.08085114e-01 +5.25048792e-01 +7.84209192e-01 +3.95980775e-01 +2.06715196e-01 -4.47475314e-02 -4.61236894e-01 -1.05321877e-01 +5.80386817e-01 +1.17196785e-02 -1.84673861e-01 +2.05008507e-01 -4.21376675e-02 +5.47185354e-02 +9.74941850e-01 +7.12019444e-01 +4.68824714e-01 +7.40072355e-02 +7.37834871e-01 +8.63713264e-01 +2.09838733e-01 -3.37949574e-01 +9.74339768e-02 +4.93338704e-01 -6.62104338e-02 +4.33637053e-01 +8.37372482e-01 +4.81588215e-01 -1.38571188e-01 +1.39654493e+00 +3.28610361e-01 +5.53304553e-01 +3.66246343e-01 +6.47839904e-01 -7.40332231e-02 +4.00234431e-01 +8.33445311e-01 -5.66933155e-02 +3.92724901e-01 +2.84766704e-01 +1.72337919e-01 +4.70084727e-01 +4.87591699e-03 +1.12649910e-01 +4.93092209e-01 +2.99895018e-01 +9.22472894e-01 +5.96103907e-01 +1.88196927e-01 +9.72428098e-02 +9.79042202e-02 +4.82651621e-01 +1.04119979e-01 -7.26096630e-02 +8.58420134e-02 -5.60829192e-02 +3.79439332e-02 -1.27153173e-01 +7.64556900e-02 +1.08177972e+00 -1.42286032e-01 +6.04698539e-01 -1.25679955e-01 +7.51778543e-01 +1.13901153e-01 -3.41256261e-01 -2.42328554e-01 +3.22699010e-01 +4.68469173e-01 +5.10895550e-01 +5.11215925e-01 -2.99477670e-02 +4.97176886e-01 -2.00530618e-01 -2.42409974e-01 -3.46204698e-01 -4.10023108e-02 +1.10299706e-01 +2.54274100e-01 -6.03830040e-01 -1.73294827e-01 +5.52842855e-01 -3.05212975e-01 -2.18591794e-01 +1.16441371e-02 -3.79157782e-01 +2.45997936e-01 -3.57750148e-01 +4.12453786e-02 +1.44568235e-01 +1.68865085e-01 -1.66941792e-01 +2.51195759e-01 +7.58009329e-02 -8.44143257e-02 -4.04705495e-01 +6.19195215e-03 +2.18871474e-01 -5.31028926e-01 +2.66567260e-01 +3.29860538e-01 -1.75564438e-01 +2.76709884e-01 -4.70268130e-02 +5.77799082e-01 -2.77003676e-01 -8.04388970e-02 +3.28970104e-01 +6.55059367e-02 -5.04119575e-01 -1.01681307e-01 -1.29718468e-01 -5.80719590e-01 -2.13122874e-01 +2.10076421e-02 +1.05393447e-01 +5.99469900e-01 -5.90804160e-01 +6.88814342e-01 +2.39968002e-01 -2.42505357e-01 +6.67613000e-02 +1.62926883e-01 -2.10850360e-03 +2.37271801e-01 -1.45121351e-01 +7.06258953e-01 +8.80046248e-01 +1.37533128e-01 +4.19762343e-01 +4.61113095e-01 +4.12997216e-01 +4.92849499e-01 +3.84352684e-01 +7.08725572e-01 +7.19785213e-01 +4.17703316e-02 +4.68729675e-01 -4.05371860e-02 +7.21492052e-01 +1.81933969e-01 +5.21010041e-01 -2.53117651e-01 +5.03494680e-01 +2.98161119e-01 +2.09660962e-01 -1.28669679e-01 +1.02624464e+00 +5.14349520e-01 -6.02289513e-02 +5.97201467e-01 +7.24392295e-01 +3.55415046e-01 -5.79554588e-02 -4.00313623e-02 +2.23876104e-01 -1.58974808e-02 +7.44386137e-01 +6.24202251e-01 -5.93374344e-03 +1.03911078e+00 +1.22563899e+00 +5.29753804e-01 +1.33080557e-02 +1.00414157e+00 +3.34020704e-01 +9.91434991e-01 +5.84741056e-01 +1.58431605e-01 +2.16167659e-01 +4.04553950e-01 +1.81572631e-01 +2.92131245e-01 +2.38624603e-01 +2.13664636e-01 +3.58571589e-01 -1.82983037e-02 +5.87333918e-01 +1.95574895e-01 +3.47451657e-01 +7.46100962e-01 +1.28999949e-01 +4.89866316e-01 +7.31669888e-02 +2.86476105e-01 +4.33204681e-01 +7.36769736e-01 +1.23929107e+00 +3.21123540e-01 +3.99574935e-01 -6.37795866e-01 +3.10043603e-01 -3.68676245e-01 +8.27436984e-01 +2.15485185e-01 -2.90266484e-01 -7.73342177e-02 +3.69136155e-01 +2.18506142e-01 -6.67709351e-01 +6.94135547e-01 +3.13843340e-01 -7.93028593e-01 -1.89930335e-01 +2.64863491e-01 +2.48912752e-01 -5.65412819e-01 +1.97200924e-02 -8.47238481e-01 -6.50011957e-01 +5.19330204e-01 +3.28413874e-01 -1.78000614e-01 -4.99513805e-01 -1.48694113e-01 +5.30588150e-01 +1.21140435e-01 -2.79471576e-01 -3.65807027e-01 -3.05059314e-01 -5.01495972e-02 +3.82084072e-01 -1.40702697e-02 +2.83010658e-02 +1.16467550e-01 -2.73851275e-01 -9.30097029e-02 -2.64464051e-01 +7.15659112e-02 +5.49672782e-01 -4.20650989e-01 +4.32690471e-01 +2.91327592e-02 -1.03613764e-01 +3.30613077e-01 -6.06162310e-01 -5.46216965e-01 -1.38130233e-01 -2.55001873e-01 -5.95675826e-01 -2.24506021e-01 +1.80830523e-01 +5.52054465e-01 +9.51317668e-01 -7.04461336e-01 -7.73322284e-02 +2.44258240e-01 -8.85322224e-03 +2.52042919e-01 +7.03990281e-01 +5.31175494e-01 +8.14961731e-01 +5.29784679e-01 +2.51785338e-01 -5.27445793e-01 +1.00708604e+00 +2.89234594e-02 +6.36076868e-01 +6.32335067e-01 +1.38373673e-01 +6.09008372e-01 +5.51624806e-04 +7.28242695e-01 +7.12601304e-01 +1.81741625e-01 +1.83618739e-01 +3.03935975e-01 +5.47464788e-01 -5.58842458e-02 +2.82815546e-01 +2.19126701e-01 -4.35712218e-01 +3.53970677e-01 -3.81830186e-01 +2.83322513e-01 +1.64796662e+00 +4.61116552e-01 +9.57878008e-02 +1.53681412e-01 +2.87308067e-01 -4.69635814e-01 -1.02733731e+00 -6.08211815e-01 +3.93832833e-01 +1.70029268e-01 +5.12166023e-01 +3.49699259e-01 -2.76076525e-01 +3.48690957e-01 +4.03207600e-01 +4.56817478e-01 -1.45697400e-01 +3.38129282e-01 +1.98411196e-01 +7.65080094e-01 +9.57084969e-02 +4.24259663e-01 +5.40668547e-01 +1.04920673e+00 +7.68434465e-01 +1.82311714e-01 +2.36243591e-01 +5.30732214e-01 +1.82285324e-01 -1.68211371e-01 +2.97672451e-01 +2.86797434e-01 +1.07929993e+00 +2.98681972e-03 -2.55993187e-01 +4.12945896e-01 +1.46364704e-01 +6.71904922e-01 +8.42751741e-01 -1.79508820e-01 +6.94821239e-01 +3.85354131e-01 +4.88342285e-01 -2.73306340e-01 -4.69061613e-01 -5.73323786e-01 -1.79831490e-01 +3.20741832e-02 -1.16517551e-01 +6.38063729e-01 +8.31884965e-02 -6.02115914e-02 +6.88966572e-01 +2.12411135e-01 -3.89403433e-01 -6.97404861e-01 -4.19307590e-01 -1.99891999e-01 +2.37953678e-01 -2.62198955e-01 -2.84207642e-01 +5.65711856e-01 -7.62425363e-01 -8.23144540e-02 +4.62283492e-02 +3.11086804e-01 -1.71048805e-01 -2.90812522e-01 +3.85732472e-01 +5.37574649e-01 -4.81801406e-02 -4.07325178e-01 -7.92174861e-02 -2.49375239e-01 +5.17521262e-01 -5.60263932e-01 +5.86586408e-02 +1.14121759e+00 +4.91737396e-01 +5.80657482e-01 -3.06588739e-01 +6.01793349e-01 -2.70868093e-01 +6.16553962e-01 -8.35683756e-03 -3.17301303e-01 +3.35777134e-01 -3.91506791e-01 -2.23206371e-01 -2.43168175e-01 +1.95706278e-01 -3.03457260e-01 -1.59083337e-01 -1.53276458e-01 +2.22339928e-01 -8.06887925e-01 +7.00478375e-01 +2.50037253e-01 -6.42439604e-01 -5.23483038e-01 +1.69388846e-01 +1.12484796e-02 -3.85244817e-01 -1.36848167e-01 -9.30492282e-01 -5.94634712e-01 +2.27510363e-01 +8.92835557e-02 -1.12621330e-01 +2.12152973e-01 +1.13409981e-02 +1.24099351e-01 -6.22797012e-01 +4.28076744e-01 +2.24732384e-01 -3.63581777e-01 -3.14020336e-01 +1.06010176e-02 -1.10547051e-01 -3.51518691e-01 -1.47213981e-01 +2.07185507e-01 -3.53606552e-01 -8.13964084e-02 +3.09688300e-01 -1.46697015e-02 -1.50787104e-02 +9.72577214e-01 +2.13578805e-01 -1.00223191e-01 +2.68378586e-01 +7.98465312e-02 +3.29086363e-01 +6.55323803e-01 +4.32269603e-01 -1.41160220e-01 -5.37572324e-01 -2.60882080e-01 +4.53345776e-01 -5.03536105e-01 +6.29817247e-02 -6.34198010e-01 -6.67244792e-01 -6.98093295e-01 -1.37531206e-01 +4.19052243e-01 +1.90003380e-01 -4.24918562e-01 -6.03306890e-01 -3.70183349e-01 -3.56497586e-01 +5.17449141e-01 -7.30890810e-01 -5.82459688e-01 +1.66154638e-01 -3.17985803e-01 +3.68459255e-01 +1.20041072e+00 +1.94438472e-01 +1.06418341e-01 -3.35540980e-01 +1.93002313e-01 -3.74531627e-01 +1.40832618e-01 -6.06205583e-01 -2.43464828e-01 -1.85713485e-01 +2.92607397e-01 -1.81561455e-01 -3.28372508e-01 -1.45673100e-02 -4.53633368e-01 +6.09660983e-01 -1.12173818e-01 +4.04077560e-01 -1.03086635e-01 +1.73678994e-01 +7.04108655e-01 +1.03267163e-01 +1.66961960e-02 +4.73087788e-01 +2.39342123e-01 -2.60434896e-01 +1.04433930e+00 +6.81069732e-01 -1.85835719e-01 -6.16070330e-01 +2.26934686e-01 +6.04833901e-01 +5.50027132e-01 +3.64690334e-01 -2.16781184e-01 +1.32019877e-01 +8.53072405e-02 +6.47904277e-01 +5.27580917e-01 -6.85375512e-01 -1.26653954e-01 +1.48091626e+00 +6.13883734e-01 -6.52909815e-01 -5.89479685e-01 +2.44200721e-01 +3.82033080e-01 +1.58887625e-01 +2.10432876e-02 -7.89844692e-01 -5.81569016e-01 +3.56844246e-01 +4.96762067e-01 -2.32502237e-01 -8.61178562e-02 -1.89349338e-01 +1.86489105e-01 +3.72364432e-01 +4.17371631e-01 +2.15344638e-01 +9.39566791e-01 +4.75641608e-01 +1.39894828e-01 +1.89933538e-01 +1.20804358e+00 -5.27723372e-01 -5.14048815e-01 -3.03205222e-01 +3.93331051e-02 +4.70228344e-01 -6.11913145e-01 +5.48493445e-01 -8.01119804e-01 -7.79530883e-01 +6.90605879e-01 -8.13354403e-02 -3.07034582e-01 -6.71141297e-02 +1.96221963e-01 -2.89947331e-01 +2.16840714e-01 -1.80112854e-01 -8.01710069e-01 -6.26643822e-02 +2.33222961e-01 -2.02925220e-01 -3.57038349e-01 -4.03546691e-01 -1.44786462e-01 +2.31722347e-03 +1.58775240e-01 -2.37790614e-01 -2.84318268e-01 -2.70385385e-01 +1.20736010e-01 +6.88927531e-01 -7.64661329e-03 +3.84875417e-01 +2.63423085e-01 +4.03148443e-01 +3.20476472e-01 -4.61478114e-01 +1.22898686e+00 +7.55771875e-01 +5.70037127e-01 +4.92918104e-01 +3.50981861e-01 -4.74850804e-01 +1.40150890e-01 +1.44798443e-01 +2.08009213e-01 -4.37733501e-01 -1.94075659e-01 -1.06562662e+00 -3.97417068e-01 -2.30270237e-01 +2.37517551e-01 -6.22362196e-02 -4.74552572e-01 -1.25245319e-03 -2.94794112e-01 +3.95797491e-01 -1.21542647e-01 -3.61493528e-01 -5.55212319e-01 +1.88614994e-01 -1.69944003e-01 +7.33992994e-01 +4.93548006e-01 -3.68355095e-01 +6.68273091e-01 +9.62263867e-02 +1.01247287e+00 -1.59398630e-01 -1.61091775e-01 -4.34013218e-01 -5.25787711e-01 -4.70681489e-01 +4.80664104e-01 +7.63874173e-01 +4.55750674e-01 +3.73044461e-01 -8.32041949e-02 -6.65455282e-01 +1.98943168e-01 -3.95349205e-01 +5.63201725e-01 +6.55772746e-01 +1.11859374e-01 -9.53936577e-02 +1.99978463e-02 -2.58309156e-01 -3.61880720e-01 -3.51476789e-01 +2.83575386e-01 +2.11863205e-01 -2.22267225e-01 -5.71073234e-01 -4.04689938e-01 +8.69807303e-02 -6.05241716e-01 +1.04702163e+00 +1.52059915e-02 +6.84894100e-02 -5.61575703e-02 -1.40131041e-01 +3.69050235e-01 +3.06967378e-01 -1.03017405e-01 -3.94493520e-01 -2.01712195e-02 -1.38272569e-01 +4.35860664e-01 -6.73247397e-01 -3.71638499e-02 +4.66321379e-01 -1.05135334e+00 -2.16111109e-01 +9.97270569e-02 -3.47686678e-01 -8.53400007e-02 +3.74277383e-01 -1.70971528e-01 -6.04270279e-01 -2.06746683e-01 +3.96131992e-01 -4.44990322e-02 -3.00124902e-02 -4.40602183e-01 +7.48549044e-01 -2.29924694e-01 -3.86754781e-01 +5.03691584e-02 -2.19416380e-01 +9.33274925e-01 +2.37937734e-01 -2.53040820e-01 +3.41324583e-02 +9.25771892e-02 -6.32551983e-02 +3.77123684e-01 +3.90632123e-01 -5.53594790e-02 +2.56115854e-01 +1.43718511e-01 +3.49046439e-01 -1.56784251e-01 -3.11906040e-01 +1.08592224e+00 +2.21369322e-03 -6.49799779e-02 +5.53267710e-02 -5.97451687e-01 +4.15663719e-01 +1.49942890e-01 +2.10392907e-01 -1.43190458e-01 +3.27980846e-01 -9.53303993e-01 -6.72426403e-01 +1.99294817e-02 -2.12531209e-01 +8.86602178e-02 +2.88578987e-01 +3.09057295e-01 -1.69367313e-01 -1.16031133e-01 -7.32609481e-02 +4.07399029e-01 -5.82445621e-01 -2.41221830e-01 -9.12583888e-01 +5.98614156e-01 -9.25370693e-01 -3.46322715e-01 +1.28284499e-01 -2.51672596e-01 +2.17141807e-01 -3.93064111e-01 -1.89432755e-01 -1.85364112e-01 +2.27193430e-01 +4.98082727e-01 -1.83833852e-01 -4.01831090e-01 -6.91355050e-01 +2.60117531e-01 -4.12069440e-01 -7.28677735e-02 -1.08683717e+00 +4.59583223e-01 +9.31142092e-01 +5.78434467e-01 -1.66952029e-01 +2.93142255e-02 -1.18263638e+00 +2.82023281e-01 +3.45251709e-03 +2.22373217e-01 -7.82756448e-01 -5.84827602e-01 -3.93750697e-01 -8.38235557e-01 +3.12146898e-02 +1.25901714e-01 +1.90482408e-01 -2.79267758e-01 -1.71100169e-01 -8.47367644e-01 -1.40357625e+00 +5.53785563e-01 -3.92699778e-01 -5.66992521e-01 +5.03008962e-01 -3.52257162e-01 -5.15171826e-01 -6.96472228e-01 +7.28835166e-01 -4.75089163e-01 -1.53056666e-01 +4.00795154e-02 +2.47330189e-01 -1.11169147e+00 -1.06976211e-01 -8.44628751e-01 -1.70632437e-01 +6.92569558e-03 +3.52533698e-01 +1.63340598e-01 -7.84568116e-02 +6.58766925e-01 +1.15893766e-01 -1.57254606e-01 -2.92700619e-01 +1.80101424e-01 -1.21299565e-01 +2.38032173e-02 -2.41614461e-01 -1.38921276e-01 -1.27304688e-01 +3.13019031e-03 -6.51274085e-01 +4.22735244e-01 -8.84625077e-01 +1.83748335e-01 +9.27443147e-01 -4.35916334e-02 -5.79619765e-01 -2.66213745e-01 +2.86869138e-01 -6.40249789e-01 +3.40803415e-01 -3.08850795e-01 -7.09298015e-01 +5.98277263e-02 +4.72157508e-01 -8.25737298e-01 -4.15574849e-01 -3.92465681e-01 -4.48720604e-01 +5.73579788e-01 +3.00860077e-01 -7.05711961e-01 -2.09032565e-01 +1.75674826e-01 -5.71129560e-01 -1.18766272e+00 -1.57627895e-01 +1.67454407e-01 +3.70597839e-01 -5.15647829e-01 -5.22816837e-01 -5.14310539e-01 -3.62100303e-01 +1.11525416e+00 -1.69163451e-01 +2.85890222e-01 +3.04144174e-01 -4.50460076e-01 -2.75698621e-02 +2.45088160e-01 +4.70962942e-01 -2.61797696e-01 -4.34983283e-01 -1.47758141e-01 -3.43100280e-01 -7.68812895e-01 -6.15513086e-01 -1.97279617e-01 -1.27074465e-01 -1.78656623e-01 -7.33803138e-02 -5.99200189e-01 -1.03199273e-01 -9.20658350e-01 +3.12538743e-01 -4.53234434e-01 -1.18420351e+00 -5.54738164e-01 -1.16323590e+00 +1.33150980e-01 -4.86650229e-01 +3.29022378e-01 -2.76105404e-01 +1.98697168e-02 +1.15668692e-01 -3.30394983e-01 +6.00030243e-01 -9.29127812e-01 -1.08395785e-01 +6.75910294e-01 -3.61203820e-01 -4.03610945e-01 -6.82819247e-01 -8.59924555e-02 -1.35921925e-01 -5.47786474e-01 -5.09828091e-01 +7.10300505e-01 +6.01668596e-01 +7.65088677e-01 +2.64335543e-01 +6.15762234e-01 -1.98280573e-01 -3.57880473e-01 +5.31046748e-01 +5.95369160e-01 -1.03970373e+00 -2.67833233e-01 -4.25956637e-01 -6.39238000e-01 -2.01790318e-01 -7.84438401e-02 -4.23543245e-01 +1.29404441e-01 -7.73395360e-01 -7.39894211e-01 -1.34891570e+00 -3.65890265e-01 +6.88151836e-01 -3.27380925e-01 -3.26915205e-01 -5.09932697e-01 +7.82695860e-02 +4.38379288e-01 +6.60738647e-01 +2.52113402e-01 -2.14664087e-01 +4.29012440e-02 -3.52176309e-01 -7.53132164e-01 -2.09246010e-01 -2.70659447e-01 +1.90109730e-01 -3.53655666e-01 +1.67150870e-01 -1.13139085e-01 +1.87480792e-01 -1.44452587e-01 -4.33619052e-01 +1.09877631e-01 -3.12134355e-01 +3.38197678e-01 -8.34006786e-01 +1.70707464e-01 -6.24790490e-02 -1.15222149e-02 +2.21745938e-01 +5.09181201e-01 -1.80260688e-01 +3.12536031e-01 -3.04034382e-01 -1.66589946e-01 +2.32240140e-01 -2.84321494e-02 +1.78883355e-02 +8.69107172e-02 -2.07407117e-01 +1.11646645e-01 +1.13568291e-01 +3.69948417e-01 -3.96599382e-01 -6.51045501e-01 -2.81464513e-02 +4.42683011e-01 -3.13140899e-01 +1.06780849e-01 -1.04473993e-01 -2.57766634e-01 -2.23346323e-01 +3.65685463e-01 +2.71251351e-01 -3.30712855e-01 -5.11977136e-01 +7.57129192e-02 +2.84699202e-01 -2.02821847e-03 -3.76594037e-01 +1.07966650e+00 +1.75044730e-01 +1.00565004e+00 +3.35741818e-01 -4.90687609e-01 +2.12716281e-01 -1.39787272e-01 -4.10811245e-01 -4.35686886e-01 -2.26644352e-01 +1.93608418e-01 +2.99088955e-01 -2.69791096e-01 +1.70023553e-03 +8.08110476e-01 -2.54468977e-01 +2.28893369e-01 +5.17644733e-02 +1.41011909e-01 -4.89950627e-01 +1.24090403e-01 -3.44962060e-01 -1.84019059e-01 +8.37699354e-01 +1.47085977e+00 -1.20286770e-01 +3.02369058e-01 +2.31351495e-01 -2.63090640e-01 -9.65030119e-02 +1.87262326e-01 +2.80943900e-01 +2.58920938e-01 +3.41366619e-01 +8.40219036e-02 -5.37145913e-01 -1.86294630e-01 -2.19325930e-01 +9.55001730e-03 -1.74087435e-01 -2.00262204e-01 +4.70332056e-01 +5.40574372e-01 +2.56391644e-01 +3.21932673e-01 +7.58963287e-01 +9.20665190e-02 +4.79794860e-01 -1.58081084e-01 -2.67851595e-02 -2.23439168e-02 -5.20527840e-01 +1.22231737e-01 +4.44830298e-01 +5.40476590e-02 -1.01949818e-01 -5.98062813e-01 +3.04769695e-01 +2.87353188e-01 -7.31317401e-01 +5.43385088e-01 -3.54328454e-01 +6.83842599e-01 -3.65263149e-02 +1.33095682e-01 +1.62921786e-01 +4.07262921e-01 +9.54628706e-01 -5.77382624e-01 +3.30356807e-01 -2.97703177e-01 -4.22143549e-01 -5.91899395e-01 -4.06048834e-01 +1.17947519e+00 +1.63774714e-01 +9.43274703e-03 -4.35973927e-02 +1.15170908e+00 -2.60244191e-01 -6.58802539e-02 -6.21306300e-01 +1.95117041e-01 -3.82357180e-01 +5.41857839e-01 +7.07826197e-01 +4.81626868e-01 +7.99016714e-01 -1.70386702e-01 -4.63348478e-01 +1.94622755e-01 -2.97066361e-01 -7.56532252e-02 +3.26346904e-01 -2.97853708e-01 +5.24914086e-01 -2.35279500e-01 -4.68538970e-01 -2.23774940e-01 +4.25824150e-02 +7.38225430e-02 -2.73284733e-01 -1.12522900e-01 -9.97996092e-01 -4.52066690e-01 -8.69495451e-01 -1.15675664e+00 -1.35209367e-01 -3.97816688e-01 +6.25075251e-02 +5.73558033e-01 +8.16184640e-01 -2.02010736e-01 -9.09229279e-01 -7.75555670e-01 -6.06462300e-01 -7.12107241e-01 -7.45096266e-01 +9.92820263e-01 +3.58863398e-02 -3.65563124e-01 +2.87607253e-01 +6.21247947e-01 -1.35943162e+00 -6.76189125e-01 -2.91537307e-02 +6.52173042e-01 -2.77678519e-01 +2.51862347e-01 +6.22042835e-01 +1.33898115e+00 -4.46559221e-01 -5.67957342e-01 +4.05269861e-01 -4.32964087e-01 -6.99743211e-01 -2.58966625e-01 -4.42371845e-01 -1.15223981e-01 +2.48725951e-01 -1.02888562e-01 +1.78827703e-01 +1.25613642e+00 -8.41438547e-02 +4.63996202e-01 +3.91832292e-02 +4.99632239e-01 -5.64440072e-01 -2.28737459e-01 -5.24325728e-01 +2.22543001e-01 +1.24572396e+00 +8.99212599e-01 -2.45510012e-01 +8.38192582e-01 +2.99645305e-01 +3.02602291e-01 +9.18412209e-01 +2.37670004e-01 +9.77789879e-01 -1.98815659e-01 -1.67476088e-02 -1.90165371e-01 -5.98949552e-01 -6.33899793e-02 -8.25497150e-01 +9.82641876e-02 -1.07257617e+00 -3.23887706e-01 -3.30982417e-01 -1.54456958e-01 +1.39130995e-01 +7.05530941e-01 +4.32189167e-01 +7.63554931e-01 +5.12893915e-01 -1.31465942e-01 +2.90197074e-01 -7.14763343e-01 +8.25149417e-02 -4.34339821e-01 -4.80047882e-01 +8.95493478e-02 -6.27047658e-01 -5.25461555e-01 +7.17571974e-01 +6.42492950e-01 -1.19721031e+00 +2.82934099e-01 -9.01099980e-01 +9.59889233e-01 -3.88961256e-01 -4.73897576e-01 +2.20448330e-01 +4.89142001e-01 +4.80429769e-01 -1.57116860e-01 -1.25282840e-03 +5.52877225e-02 +7.07904324e-02 -1.57436833e-01 -2.69968390e-01 -1.82460174e-01 +2.43683249e-01 -2.96717674e-01 +2.15019703e-01 +5.26020646e-01 -8.75594839e-02 +4.50735986e-01 -1.10463992e-01 +3.44015777e-01 +3.97604018e-01 +4.43516493e-01 +2.94591784e-01 -2.31162369e-01 -1.20867684e-01 -4.42875892e-01 +7.21271276e-01 +3.66968870e-01 +4.08059150e-01 -6.22707963e-01 +2.23447427e-01 +1.02893837e-01 +2.13675261e-01 -1.58501461e-01 +6.73941016e-01 -5.49633265e-01 -1.93616711e-02 +1.85155809e-01 +3.32177371e-01 +5.04058957e-01 -1.26895174e-01 +2.35585704e-01 +3.80276084e-01 -3.03321689e-01 -2.59900272e-01 +2.46632658e-02 +5.80081701e-01 -4.87309277e-01 +3.52895319e-01 -2.41741508e-01 -2.93093681e-01 +1.98162571e-01 +3.15706223e-01 +3.16844493e-01 -2.29711235e-01 +3.00208300e-01 +5.05853556e-02 -6.76272035e-01 -3.07907254e-01 +3.17078203e-01 +2.93466389e-01 +4.26307857e-01 -1.13426268e-01 -3.78030419e-01 +2.23039798e-02 -6.04447067e-01 -1.69701397e-01 -7.63550580e-01 -7.98419595e-01 +1.08433807e+00 -5.05171001e-01 -3.66145492e-01 +2.89495230e-01 +3.37414443e-01 +5.32460928e-01 +7.59785295e-01 -1.69032849e-02 +2.40120545e-01 -5.08595943e-01 -3.43184173e-01 -4.17411774e-01 +6.48879170e-01 +5.26182294e-01 +3.88121367e-01 -1.49907589e-01 +9.24217775e-02 +4.07509238e-01 +3.69031765e-02 -1.03113383e-01 +9.80887488e-02 +1.02313459e+00 +2.93553084e-01 +2.16551468e-01 +7.00460672e-01 -3.51165414e-01 -3.62975031e-01 +9.42538083e-01 +3.41776788e-01 +6.45517558e-02 +5.20529270e-01 +4.09629792e-01 +4.71925676e-01 +5.70849925e-02 -3.93800169e-01 -3.00266176e-01 +9.99167711e-02 -2.23037601e-01 +3.29382718e-01 -1.54374063e-01 -8.43303442e-01 +5.89663088e-01 +7.58086920e-01 +7.22104251e-01 +6.01580799e-01 +1.05126403e-01 +5.77698290e-01 +1.46626294e-01 +2.35070199e-01 +3.98822546e-01 +6.02089502e-02 -3.62388372e-01 +2.71521270e-01 +7.01944053e-01 +4.51970339e-01 +1.26853824e-01 +6.18034527e-02 +9.37656239e-02 +2.09438000e-02 -3.13486606e-01 +6.68539941e-01 -2.73942083e-01 +4.25399691e-02 +6.32776558e-01 -2.63975292e-01 -6.34618104e-02 +1.69961244e-01 -4.26768303e-01 -6.79779053e-01 -3.52212489e-01 +8.66181105e-02 -3.06266963e-01 -1.00038874e+00 +9.68689740e-01 +1.96390986e-01 -3.92076612e-01 +5.46463013e-01 +4.08537358e-01 -3.13269198e-01 -2.98513263e-01 +1.79487705e-01 -5.31112492e-01 +7.74119139e-01 +2.98009634e-01 -4.39789444e-01 -9.83895123e-01 +3.06250960e-01 +1.14617491e+00 -4.53667253e-01 -3.92125212e-02 +1.47118950e-02 +9.21027660e-02 +5.45564592e-01 +8.77341092e-01 -2.00807169e-01 +4.93059754e-01 +1.07910410e-01 -5.19903481e-01 -6.69417158e-02 +6.15906477e-01 +2.80587763e-01 +4.20760721e-01 -8.57070863e-01 -7.59915859e-02 -4.82491434e-01 -7.72888720e-01 +1.65368542e-02 +2.23965153e-01 -1.35350391e-01 -5.60896635e-01 -6.27940595e-02 -6.67361975e-01 -2.39140511e-01 -4.81925368e-01 +4.26836777e-03 -1.03114164e+00 +1.29773960e-01 -3.37133370e-02 -8.04902852e-01 -6.05686493e-02 -8.62843692e-01 -3.76671851e-01 +2.67101526e-02 -9.50653493e-01 -4.03407007e-01 -7.27847159e-01 -6.49750233e-01 -2.18038395e-01 +4.93838221e-01 -6.67045295e-01 -7.07969248e-01 -7.19981417e-02 -1.76803559e-01 +3.49271894e-01 +3.98250610e-01 +2.89542317e-01 -2.73537308e-01 +8.34092870e-02 -5.50488904e-02 -4.90920037e-01 +1.02809894e+00 +5.71362197e-01 +5.43699339e-02 +5.64818364e-03 -4.87196306e-03 -9.94369388e-03 +6.20990038e-01 -8.76589790e-02 -2.23987788e-01 +1.94237113e-01 +7.30229676e-01 +7.77204514e-01 +8.46503139e-01 -2.96535939e-01 +1.01232350e+00 +8.36159348e-01 -5.95784932e-02 +1.39953420e-01 -6.29055202e-01 -3.84547055e-01 +1.33846074e-01 -7.65821695e-01 +1.95014887e-02 +2.37899899e-01 +5.30478477e-01 +1.65821046e-01 -2.44644005e-02 +9.09544647e-01 -9.03091371e-01 -3.08732420e-01 +2.22874165e-01 +8.98561537e-01 -2.71298945e-01 +6.07542396e-01 +1.27504975e-01 -2.98361182e-01 -4.75952655e-01 +4.64021057e-01 +2.94119239e-01 -6.96701467e-01 +5.28452873e-01 +8.13440979e-02 +4.70088691e-01 +1.32514285e-02 -1.99234679e-01 +3.44124973e-01 +1.00948977e+00 -7.34535456e-01 +5.95609725e-01 -3.82226646e-01 +3.24610978e-01 +1.69291168e-01 -5.28537035e-01 -2.72366017e-01 -1.82729840e-01 +1.85886383e-01 -3.46632004e-01 +3.42296958e-01 -1.09248474e-01 +1.39350206e-01 -4.50730436e-02 -3.17871332e-01 -2.29135707e-01 -7.21570253e-02 +4.84245628e-01 -1.64383128e-01 +3.27508114e-02 +6.03008687e-01 +3.70467529e-02 +3.53049636e-01 +2.79344499e-01 -1.81910217e-01 +5.10192811e-01 +6.29671752e-01 -1.78399459e-01 +7.02800155e-01 +8.73311460e-02 -2.29310952e-02 +2.62117922e-01 +3.16358924e-01 -2.94995815e-01 -9.43096578e-02 -1.07389428e-01 +6.36116147e-01 +3.38920027e-01 -4.57391798e-01 +3.98149788e-02 +1.58954695e-01 +6.13572523e-02 -5.71986139e-01 +4.54711497e-01 -2.25468516e-01 -1.89884916e-01 -2.63222903e-01 -3.66373546e-02 -1.34109957e-02 +2.40752056e-01 -2.29942679e-01 -1.83765829e-01 +9.70287323e-02 +5.31856894e-01 +4.26233172e-01 +4.92900997e-01 -4.46616739e-01 +3.98069888e-01 -9.24542010e-01 -1.71504587e-01 +4.37117904e-01 +7.65674710e-02 -1.93248808e-01 -4.48281437e-01 +3.52803282e-02 +8.68519396e-02 +6.89642206e-02 +4.27226782e-01 -2.74353415e-01 +4.00243029e-02 +1.21708013e-01 -1.27193391e-01 +8.25637817e-01 +2.23176941e-01 +1.98578209e-01 +5.59219420e-01 -4.41196293e-01 +1.86533973e-01 +1.38265371e-01 -1.49582043e-01 -1.56721741e-01 +1.12415403e-01 +1.73548430e-01 -5.23317993e-01 +4.47084397e-01 -2.77836114e-01 +8.39232355e-02 -1.79780006e-01 -3.43563795e-01 -1.34086180e+00 -3.47836286e-01 +4.14322495e-01 +1.91953763e-01 -2.71313131e-01 -2.17244606e-02 -3.01845670e-01 -8.54419708e-01 -2.32797071e-01 -5.36159426e-02 +1.06517300e-01 -2.35816017e-01 +1.46550983e-01 +3.60123903e-01 -5.92914373e-02 +5.19596338e-01 +7.81181395e-01 -1.46628777e-02 -2.08603427e-01 -2.77067512e-01 +1.68507770e-01 -1.64114803e-01 +4.51390482e-02 -2.19476596e-01 +9.43011269e-02 +3.44726354e-01 +8.59005079e-02 +7.24410564e-02 -3.55260849e-01 -4.50860262e-01 -1.03455269e+00 +1.31231159e-01 +9.44489555e-04 -2.12863877e-01 -6.61990464e-01 +1.65033013e-01 +6.49007186e-02 +1.27228588e-01 -3.42192680e-01 +6.85180068e-01 -9.17602777e-02 -2.50863612e-01 -8.50552738e-01 -4.38627601e-01 +1.10531235e+00 -7.36732662e-01 -2.19376773e-01 +2.88486600e-01 +3.84173870e-01 +3.26541334e-01 -8.94655526e-01 +3.55603188e-01 +3.04278046e-01 -2.27431431e-01 +2.04009444e-01 +2.19349250e-01 -1.49468422e+00 -9.26003829e-02 +1.22864969e-01 +4.08672452e-01 -1.26550615e+00 -1.20566964e+00 -9.81237650e-01 -4.99840647e-01 +5.69272339e-01 -7.30272532e-02 -3.41549665e-01 -7.70378411e-01 -3.04610193e-01 +3.33874553e-01 +2.94799119e-01 -9.55085158e-02 -4.52916831e-01 +8.34139064e-02 +8.38073194e-02 -5.68017960e-01 -9.37085867e-01 +2.28832960e-01 -2.16250066e-02 +9.37642083e-02 +5.34902275e-01 +3.50438029e-01 +6.47058964e-01 -2.53393799e-01 +2.44239926e-01 +3.41240436e-01 -9.20670390e-01 -1.20621182e-01 -2.88256377e-01 +2.02402860e-01 -2.27062196e-01 +2.04510435e-01 +1.09424867e-01 +6.50705993e-01 -1.06395149e+00 +1.34204888e+00 +8.64798188e-01 -4.61086899e-01 -8.91536891e-01 +1.10427417e-01 +1.03966081e+00 +2.08892718e-01 -2.49029472e-01 +7.90262520e-01 +2.06225738e-02 -4.98064235e-02 -2.09579468e-01 +5.83444946e-02 +3.90511304e-02 +5.39838262e-02 -4.08835560e-01 +7.65103698e-01 +3.63757998e-01 +1.19625993e-01 +4.42779452e-01 -4.76087213e-01 +6.94751740e-01 +5.17602444e-01 -3.36789250e-01 -4.23225611e-01 -8.30849886e-01 -2.15682417e-01 +2.86355287e-01 +6.15244269e-01 -5.81741035e-01 -5.91578960e-01 -6.61733389e-01 -6.54699743e-01 -4.57900137e-01 -4.71448064e-01 -9.34506178e-01 -8.35755616e-02 -8.24662030e-01 -8.36996675e-01 -5.89677751e-01 -8.86849880e-01 -2.58030206e-01 -2.97402352e-01 -8.05848539e-02 -5.30803442e-01 -8.75188947e-01 +8.16356003e-01 -6.81638196e-02 +7.31192768e-01 +8.69379640e-01 +1.03667307e+00 +2.90809900e-01 +1.32181188e-02 +1.13025203e-01 -4.54681963e-02 -9.29510444e-02 -3.85418177e-01 -3.58980298e-02 -1.53631955e-01 +1.04712975e+00 -1.53512627e-01 +6.56804815e-02 -1.03003383e-01 -5.03964007e-01 +5.72037220e-01 +4.35097575e-01 -7.63428926e-01 -1.36487257e+00 +4.26694065e-01 +4.20755386e-01 +1.24529906e-01 -2.90196806e-01 +7.18591094e-01 +5.31054974e-01 -6.67526841e-01 -7.26179302e-01 -5.03443003e-01 -4.79870856e-01 -5.59894703e-02 +2.86837101e-01 -1.20946012e-01 +3.04026395e-01 -6.52808547e-01 +9.04754043e-01 +1.92797333e-01 +1.10227227e-01 -1.47495925e-01 +5.63292652e-02 +4.40332353e-01 -5.40737450e-01 -1.01569675e-01 -1.88032955e-01 -2.38542244e-01 -2.64416516e-01 -1.77199125e-01 +3.24700922e-01 -7.12008119e-01 -3.56296338e-02 -5.53637385e-01 -2.48917580e-01 -1.05456419e-01 -1.43169910e-01 -4.38919038e-01 +2.34478489e-02 -1.04398489e-01 -4.19747382e-01 -7.67925501e-01 +7.40042403e-02 +1.44796371e-01 +7.72269443e-02 -4.65582371e-01 +4.88075942e-01 +6.45001292e-01 -1.03889577e-01 -5.23597524e-02 -6.09461628e-02 +2.43911659e-03 -1.31540015e-01 +2.66384464e-02 +4.26117361e-01 -7.85259068e-01 +6.87108636e-02 +2.29081318e-01 -7.74793699e-02 -7.76301265e-01 +3.79705131e-01 +3.02359849e-01 +1.54553458e-01 +6.37919903e-02 -3.14599276e-01 +5.89228511e-01 -3.08234654e-02 -3.20005924e-01 -5.61510980e-01 +3.66331577e-01 +2.28336096e-01 -3.77209246e-01 +1.00805891e+00 -3.18989865e-02 +3.20210516e-01 +1.01646133e-01 +1.46598060e-04 -8.17747653e-01 -3.65384161e-01 -2.18850777e-01 -4.84707467e-02 +1.37528107e-01 +8.17997456e-01 -3.71835023e-01 +4.67121571e-01 -1.30089894e-01 -1.12582481e+00 +1.47523120e-01 -2.90659994e-01 -1.15985677e-01 +6.19047105e-01 +1.47262499e-01 -1.27791166e-02 -6.61527634e-01 -5.09951651e-01 -5.71330607e-01 +2.19975248e-01 -5.91694593e-01 -5.27588725e-01 -5.62427342e-01 -5.87562621e-01 +1.17820174e-01 -4.37960804e-01 -1.32237017e-01 -7.36052155e-01 -1.40093938e-01 -7.03812301e-01 -9.46931243e-01 -4.09629077e-01 +3.85868773e-02 -2.61615545e-01 -4.08447124e-02 +5.86661249e-02 -4.93243605e-01 +5.41552305e-01 -8.18700250e-03 +1.03484280e-01 +1.02957308e-01 -7.35985562e-02 -7.95314550e-01 -1.29485607e+00 -4.96271014e-01 +3.37865382e-01 -7.56763399e-01 -7.04245925e-01 -1.39831632e-01 -2.50867248e-01 -2.00453907e-01 +3.08132395e-02 +3.74133140e-01 -5.80272436e-01 +1.20285578e-01 -1.23331413e-01 +2.64981002e-01 +6.38718233e-02 +3.32331121e-01 +7.21935511e-01 +7.88575336e-02 +6.54594123e-01 -7.82313347e-02 +6.47664070e-01 +3.77887726e-01 +5.80238700e-02 -2.87504941e-02 +1.80142000e-01 +5.48158050e-01 +4.87229347e-01 -6.72475934e-01 +1.56300530e-01 -3.48700434e-02 +7.07076728e-01 -5.61519802e-01 +5.55193067e-01 -3.03183287e-01 -5.24543464e-01 +3.55489738e-02 -6.44272566e-01 -6.99136972e-01 -3.51789832e-01 -6.14549935e-01 +4.07843500e-01 +3.90795469e-01 -5.67121804e-01 +2.20024914e-01 +8.16196680e-01 +3.15858983e-02 -3.66817147e-01 -1.05871402e-01 -4.92264718e-01 +1.25999883e-01 +8.31744075e-01 -1.75130010e-01 -1.10744691e+00 -8.11631978e-01 +6.55191004e-01 -7.85653573e-03 +1.86178207e-01 -2.25157186e-01 -6.30375922e-01 +1.25428033e+00 -3.46764088e-01 -4.21603352e-01 -6.21209219e-02 -1.09858617e-01 -1.07827139e+00 +3.03149819e-01 -5.79763412e-01 +7.58144110e-02 -8.99103224e-01 -3.16271663e-01 +3.36961418e-01 -6.58820808e-01 +1.31689870e+00 +7.73177147e-01 -9.09021735e-01 -2.30028391e-01 +2.54521847e-01 -5.01836956e-01 -1.99531391e-01 +3.53556246e-01 -4.36807841e-01 +8.21970254e-02 +1.15419281e+00 +8.94230977e-02 -2.45841309e-01 -1.17207539e+00 -1.14155740e-01 -2.30584145e-01 -3.89364481e-01 +4.62048978e-01 +1.33918035e+00 -7.82458246e-01 -2.61893589e-02 -1.08768396e-01 -7.47475684e-01 +3.14072907e-01 -4.12804663e-01 -7.25217164e-01 +2.37396061e-01 -1.86301377e-02 -3.28890979e-01 -1.72460184e-01 +4.12283093e-02 -5.88137284e-02 +7.56790519e-01 -7.27838799e-02 -3.86596292e-01 +1.57589957e-01 +1.27362624e-01 +3.41016382e-01 -7.17690229e-01 -4.57597524e-02 -5.77834189e-01 +6.77631557e-01 -4.77511846e-02 -6.53819740e-01 -3.73736948e-01 +3.52188766e-01 -1.33061931e-01 -1.67252406e-01 +2.40401119e-01 -5.79800010e-01 +2.16727659e-01 +7.52243042e-01 +2.45230347e-01 -4.19036448e-01 -3.23952973e-01 -1.55836320e+00 -9.89187002e-01 -5.90130150e-01 +7.35672712e-02 -2.91623205e-01 -3.61578792e-01 -8.94432664e-01 +5.93290031e-01 -6.22247569e-02 -5.66044927e-01 +1.14256966e+00 -1.49744809e-01 +4.44880761e-02 -4.17187393e-01 +3.89431119e-01 -1.05951226e+00 +1.72729164e-01 +7.60089755e-01 -5.34185827e-01 +3.43261927e-01 +1.00373483e+00 -3.20404880e-02 +6.50461018e-02 +1.93342865e-01 +3.13111037e-01 +6.17472008e-02 +1.72226056e-02 +4.35718030e-01 +3.30791622e-02 +5.19495130e-01 -1.29153982e-01 -2.17254326e-01 +4.81105387e-01 +9.05841216e-02 -4.80535239e-01 +3.46929520e-01 +4.60962713e-01 -3.62102449e-01 +5.09487569e-01 +1.98056370e-01 +3.10782511e-02 -1.09066084e-01 -1.94420740e-01 +1.53624550e-01 +2.78207779e-01 +2.74660766e-01 +4.03388917e-01 -1.89371058e-03 +1.27012655e-01 -1.00180946e-01 +2.36754008e-02 -9.90762841e-03 -5.69937050e-01 +3.19282144e-01 +9.82482359e-02 -6.40263222e-03 -5.68249643e-01 +1.60714816e-02 +3.32059979e-01 -8.96448791e-01 +5.32839715e-01 -1.80909559e-01 -2.97798514e-01 -2.83833176e-01 -4.20849025e-01 -2.57000655e-01 +2.59367049e-01 +2.26570368e-01 +1.85942262e-01 -1.84800774e-01 +2.36952648e-01 +2.79714853e-01 +7.98598111e-01 +4.53746438e-01 -2.67329633e-01 -5.82294822e-01 -5.70735753e-01 +6.99079514e-01 +2.04003751e-01 +4.77930516e-01 +3.88578117e-01 +6.69944286e-02 -9.69307348e-02 -5.84771872e-01 -4.59668815e-01 +6.97044134e-01 +4.74467799e-02 -5.44835068e-03 +3.87207955e-01 +5.26154041e-02 +2.90809005e-01 -1.00764878e-01 +2.24288672e-01 -8.26225206e-02 -2.54389234e-02 -2.54963934e-01 -3.05598769e-02 +1.69887960e-01 +6.75811410e-01 -4.59788352e-01 +4.15165760e-02 +2.30309099e-01 +7.80620277e-01 +9.27415907e-01 +6.86395764e-01 +1.48454279e-01 +5.68329692e-01 -4.25991476e-01 -5.18771186e-02 +1.03794706e+00 +1.58506438e-01 -1.06780333e-02 +1.36690927e+00 +4.96937960e-01 -2.32970074e-01 +2.32473657e-01 +4.43022490e-01 +4.68156546e-01 +8.58360231e-02 +4.59867030e-01 +4.90234345e-02 -4.13414955e-01 -2.14653626e-01 +5.00403047e-01 -1.76083237e-01 +4.90628593e-02 +1.95765033e-01 +9.30479288e-01 +1.02811468e+00 +1.52078241e-01 +5.19576311e-01 +4.92128357e-02 +3.00468564e-01 +9.60016370e-01 +8.61442745e-01 +1.84436411e-01 -1.19458094e-01 +2.63799131e-01 +1.11890033e-01 +1.03117597e+00 +2.33984694e-01 -3.76580060e-01 -2.82135963e-01 -1.78385258e-01 -4.34016377e-01 -9.62672770e-01 +2.51491368e-01 +4.03519906e-02 -1.82524949e-01 -2.56558836e-01 -5.80132604e-01 +3.10248751e-02 -6.26059949e-01 -8.70121300e-01 -6.28544569e-01 +4.18637156e-01 -7.38174081e-01 +4.16557401e-01 -1.19522087e-01 -6.64852798e-01 +3.75121832e-02 -6.28540367e-02 -1.97931334e-01 -1.97186485e-01 -2.68600255e-01 +7.74937719e-02 +1.16464943e-01 +7.60277212e-01 +3.59070867e-01 -1.15413356e+00 -7.17407048e-01 +3.86594713e-01 +2.65589505e-01 -4.88112360e-01 +2.06925161e-02 -5.39263971e-02 -4.83476877e-01 +1.79294184e-01 +2.23459080e-01 -2.44908184e-01 +2.43087873e-01 +8.71621221e-02 -3.83006185e-01 +1.48621514e-01 +8.48274648e-01 +3.32924142e-03 +1.35310516e-01 -2.36820310e-01 -8.34458590e-01 +1.69995621e-01 -6.20833099e-01 +3.99663448e-01 +1.53656229e-01 +3.19217026e-01 -1.01410842e+00 -1.37571506e-02 -4.85734582e-01 +2.29175854e-02 -2.60146916e-01 -6.62015557e-01 -1.53162956e-01 -1.58219469e+00 +1.12474583e-01 +2.04785854e-01 +6.57873511e-01 +1.61777318e-01 -5.82552016e-01 +1.14620887e-01 -4.36123937e-01 +9.31247994e-02 -1.55365299e-02 +1.54842526e-01 +6.62557602e-01 +6.53672457e-01 +8.02401066e-01 +7.19767362e-02 -2.09975585e-01 -4.84882370e-02 +3.13560694e-01 -8.14798117e-01 -2.90534377e-01 -4.34803307e-01 -2.22778827e-01 +3.94234136e-02 -5.85720576e-02 +8.18685770e-01 +1.16346717e+00 -1.98819682e-01 -4.64435034e-02 +1.24302603e-01 +6.13440156e-01 +1.28269768e+00 +8.75890329e-02 -1.38610572e-01 -1.29504511e-02 +4.98354793e-01 +7.42630124e-01 -1.13912888e-01 +9.79116917e-01 -1.73584238e-01 +7.93765724e-01 +7.19078302e-01 +9.80533436e-02 -3.95168185e-01 +3.35306853e-01 +7.14260936e-01 -5.10326102e-02 +8.40715766e-01 +7.83622444e-01 -4.20351267e-01 -8.49657599e-03 +3.38913292e-01 -8.39070082e-01 -2.42093205e-01 +1.11725032e-01 +1.12973166e+00 +1.32944608e+00 +1.26526486e-02 -3.84230852e-01 -3.49972785e-01 -2.77703792e-01 -1.89353898e-01 +1.08647847e+00 -2.76536942e-01 -1.69697642e-01 -1.24772751e+00 +4.49776202e-01 +3.20790380e-01 +1.02984637e-01 -7.17736423e-01 -1.06095664e-01 +1.14649683e-01 -7.55744100e-01 -8.67430091e-01 +7.61799097e-01 -9.29756165e-02 +1.18350774e-01 +2.80360013e-01 +4.04189527e-01 -2.10364327e-01 +1.27766103e-01 -2.35051766e-01 -1.11610424e-02 -4.37700838e-01 +1.27904058e-01 +2.83409446e-01 +1.88581005e-01 -2.45026842e-01 -1.90649047e-01 +2.87260085e-01 -1.96542114e-01 +4.65630621e-01 -1.40869498e-01 +4.36337173e-01 -2.33390406e-01 +1.88605294e-01 -2.77562946e-01 -3.63457911e-02 +9.68862712e-01 +1.04928315e-01 +1.73774198e-01 +3.71086389e-01 +2.52665520e-01 +5.46451509e-01 -7.61208907e-02 +1.73403829e-01 +1.35509714e-01 -2.50033826e-01 +2.99819767e-01 -4.60020363e-01 -3.11520308e-01 -4.59880203e-01 -1.40259609e-01 -2.40978040e-02 -2.46934220e-01 +5.49993396e-01 +1.85618103e-01 +7.73695186e-02 +2.90154070e-01 -5.72948456e-01 +5.33535302e-01 +2.56476015e-01 -4.95633483e-01 +6.51002645e-01 -1.67339280e-01 -4.15529639e-01 +4.36353862e-01 -2.91822582e-01 -5.86679161e-01 -2.33848602e-01 -9.57823455e-01 +5.29337406e-01 +6.57950565e-02 -1.68844029e-01 -5.07050492e-02 -8.24491799e-01 +1.27791077e-01 -1.87691584e-01 -2.08787769e-01 +2.00980306e-01 -1.65619720e-02 -1.41957864e-01 -4.68701959e-01 -1.14462130e-01 +5.57394385e-01 +5.45485675e-01 -2.23206833e-01 -8.45542073e-01 +2.61037089e-02 -2.94687629e-01 -9.62770581e-02 -6.92600310e-01 +9.70984995e-01 -4.33724999e-01 +1.66556194e-01 -1.80956423e-01 +3.42593074e-01 -1.95663169e-01 -1.59783468e-01 +3.31945777e-01 -2.30583549e-01 -3.26399863e-01 -6.91285789e-01 -4.46607947e-01 +1.80404395e-01 -6.52333319e-01 +3.50351959e-01 -1.25337288e-01 -2.78377742e-01 -3.31370026e-01 -5.39648712e-01 -3.57409000e-01 -3.04086618e-02 -2.62568146e-01 +5.28615296e-01 +1.31755061e-02 +1.80621520e-01 -2.10731174e-03 -4.15875353e-02 +1.59456268e-01 -6.11222148e-01 -1.34417892e-01 -9.32460845e-01 +3.20901647e-02 -5.57412505e-01 -7.00618863e-01 +1.73256416e-02 -3.56284648e-01 +7.99468681e-02 -3.21958780e-01 -4.25480790e-02 +2.50543207e-01 -2.67342091e-01 +6.43194392e-02 -1.10612023e+00 -2.24628121e-01 +4.51465547e-01 +6.74388111e-02 +3.56519133e-01 -8.84663463e-02 -8.74134749e-02 -4.10369545e-01 -5.50920010e-01 +1.12409607e-01 -2.91460365e-01 -6.98650897e-01 -1.15789123e-01 +4.81646173e-02 +1.82815373e-01 +4.19654280e-01 +7.44693339e-01 -3.60147625e-01 -8.15217793e-01 +9.68870282e-01 +3.86548162e-01 -9.82461870e-01 -2.94923663e-01 +1.44589633e-01 +1.20418623e-01 +4.57001537e-01 -2.54338205e-01 -3.07552218e-01 -7.10294962e-01 -1.62266493e-01 -2.04115540e-01 -8.00095081e-01 +4.37600017e-01 -7.28819892e-02 -4.87829708e-02 -1.32393003e-01 -1.62381649e+00 -2.72674680e-01 -7.20798969e-01 +1.08407721e-01 +1.85592905e-01 +3.00086945e-01 -1.06155741e+00 -7.67142415e-01 +6.71406686e-01 -3.09678204e-02 +3.18475574e-01 +4.21222180e-01 +3.74857247e-01 +6.85143888e-01 -4.18680668e-01 +4.94105965e-01 -5.48748493e-01 -1.07989180e+00 -8.19956720e-01 -2.95298755e-01 +7.19832599e-01 +2.01229870e-01 +2.63385057e-01 +3.93352389e-01 +2.81281888e-01 -8.08731675e-01 +1.20507143e-01 -4.94084358e-02 -7.40540206e-01 -3.34227711e-01 +1.00510812e+00 +1.07337272e+00 +3.54735672e-01 -9.56485212e-01 +3.10387611e-01 +1.18572742e-01 -3.51306617e-01 -1.50593385e-01 +3.17072898e-01 -1.74400672e-01 -1.33464858e-01 +4.57297027e-01 +8.83645356e-01 +4.70355362e-01 +1.08907595e-01 -7.00206697e-01 -1.21123478e-01 +2.40884155e-01 +8.19495041e-03 -6.13828778e-01 +5.77729404e-01 -4.17858869e-01 -1.43067107e-01 +4.37762380e-01 +1.75872341e-01 -3.10013950e-01 +7.49188781e-01 +2.55343854e-01 -1.45988858e+00 -3.70067775e-01 -2.02498153e-01 -3.81472349e-01 -1.88604325e-01 -5.68433881e-01 -2.15510264e-01 -5.31615913e-01 -8.59809577e-01 +6.34320676e-01 +3.42946410e-01 +2.21738756e-01 -1.66291922e-01 +4.25923079e-01 +1.13013589e+00 -2.81605244e-01 +2.91593850e-01 +2.99517184e-01 +3.42676252e-01 +4.11037564e-01 -3.61054331e-01 -4.39958610e-02 -2.42516696e-02 -1.35852367e-01 -7.43854046e-01 -5.39127648e-01 -3.12280953e-01 +4.28791583e-01 +9.23047364e-02 +1.97510153e-01 +1.82065561e-01 -4.93432134e-01 +4.84512687e-01 -9.73550677e-01 -7.83516288e-01 -2.44064435e-01 +8.62854362e-01 +2.15454891e-01 +2.44773731e-01 -1.70245156e-01 +1.10539712e-01 -1.86074287e-01 -8.14243704e-02 -5.18200994e-01 +3.71233493e-01 -3.02997410e-01 +8.39029718e-03 +5.77394009e-01 +2.12185800e-01 +6.29444301e-01 -3.51387322e-01 -3.84760916e-01 -5.81586957e-01 +4.49103117e-01 +8.19608867e-02 -7.13872552e-01 +1.46627024e-01 +3.43135536e-01 -9.71550792e-02 +2.76128680e-01 -9.48409617e-01 -5.66549003e-01 -1.56418175e-01 -2.29288951e-01 +1.57696903e-01 -3.86861265e-01 -9.25095916e-01 -2.61517882e-01 -6.75114334e-01 +2.34940723e-01 +5.69810092e-01 -4.16065454e-01 -5.71492076e-01 -1.99344680e-01 -7.50966296e-02 +1.27099797e-01 -6.15574300e-01 +2.71625787e-01 +2.32089553e-02 +4.53396402e-02 -2.38280386e-01 -7.15152681e-01 +3.22900623e-01 -3.20106328e-01 +9.09543574e-01 -3.42493415e-01 -2.87041128e-01 -2.14745775e-01 -2.51279503e-01 +5.60153723e-01 +3.07944678e-02 +7.54080638e-02 +2.40778085e-03 -8.64998400e-02 +5.69735289e-01 -3.13059956e-01 -2.43776161e-02 +1.53881684e-01 +9.26627666e-02 -2.79423267e-01 +2.81945132e-02 +3.40382695e-01 +1.41827419e-01 +5.09559810e-01 +5.85423529e-01 +2.84212410e-01 +2.53267825e-01 -3.16824943e-01 -1.60385653e-01 
#Parameter# /vanilla-lstm-builder/_1 {256,64} 262145 ZERO_GRAD
