#Parameter# /vanilla-lstm-builder/_0 {200,500} 1600001 ZERO_GRAD
+1.22798793e-01 +8.50894004e-02 +1.54887453e-01 +1.09307945e-01 +3.42683606e-02 -1.47161847e-02 +1.43799543e-01 +5.68999276e-02 -1.53156249e-02 -1.63053982e-02 -9.87525731e-02 -1.60293773e-01 +1.82592526e-01 +9.62044373e-02 +2.43776247e-01 -3.31633538e-03 +4.37930599e-02 -3.03249825e-02 +3.54260206e-02 -5.95242083e-02 +1.29751384e-01 +3.82625125e-02 -1.26276640e-02 +2.21890323e-02 +9.75553542e-02 +2.81289041e-01 +1.89838275e-01 +2.28272513e-01 -8.40891525e-02 -1.29822090e-01 +1.14660710e-01 -1.58603750e-02 +2.13512592e-02 +1.13450244e-01 -1.54759437e-01 -8.22218582e-02 +2.00482830e-01 -1.19642511e-01 +6.81767762e-02 +1.17780499e-01 -5.38834333e-02 -3.31847146e-02 -2.04847939e-02 -8.88344869e-02 +9.79614630e-02 +1.10780075e-01 +5.67494333e-02 +9.79491770e-02 +3.27775270e-01 -9.03967768e-03 +3.35860252e-02 -4.24899459e-02 -1.00955367e-01 -1.73976094e-01 -5.55511490e-02 -1.11514283e-02 -2.14275904e-02 -1.90530255e-01 -4.06754538e-02 -1.12529136e-02 +4.38359752e-02 -1.82991792e-02 +6.81621255e-04 -2.89342329e-02 -7.65117630e-02 -1.17020212e-01 -4.17480385e-03 -1.38870746e-01 +1.50248781e-01 +2.11173967e-01 -4.92653809e-02 -1.07657686e-01 +1.39899924e-01 -5.49881458e-02 -1.51168674e-01 +7.99906328e-02 -1.64066002e-01 -6.76421449e-02 -9.02805179e-02 +7.59852678e-02 -9.11301076e-02 +1.76007170e-02 +1.46849705e-02 -7.08173290e-02 +6.19656257e-02 -1.12368269e-02 -1.14424229e-01 +8.46460238e-02 +6.27948195e-02 +2.17571519e-02 -1.54687360e-01 -1.24074765e-01 +1.86216347e-02 -2.39107348e-02 -3.58159728e-02 +1.15595780e-01 -5.80059662e-02 -7.71423941e-03 +1.37659639e-01 +5.56622967e-02 +3.97252180e-02 -5.40819652e-02 +6.86068833e-02 -1.28480241e-01 -6.26690909e-02 -6.12291507e-02 -1.03726372e-01 -7.79979005e-02 +6.46606609e-02 +1.54464543e-01 -1.29497841e-01 -5.34663238e-02 +2.33231142e-01 +1.47491023e-01 +1.50907412e-01 -9.38500240e-02 -1.22383967e-01 +3.93539754e-04 -2.43015960e-03 -1.90591216e-01 +4.79114652e-02 -4.80268197e-03 +5.90864308e-02 +4.97007463e-03 +1.07338950e-01 +8.17106143e-02 +2.75429726e-01 +8.90477970e-02 -4.84372564e-02 -1.60963148e-01 +3.28392722e-02 +1.53241396e-01 -1.76728647e-02 -1.63655020e-02 +7.94682205e-02 -9.93611515e-02 +5.81859238e-02 +9.07031670e-02 +6.41626865e-02 +2.05812290e-01 -2.96729226e-02 -2.83089653e-02 +6.49278611e-02 -1.18115228e-02 -6.37987033e-02 +5.99134378e-02 -7.84056708e-02 +2.05327068e-02 +2.04942957e-01 +5.12577891e-02 +4.73460518e-02 +7.02605918e-02 +1.69826388e-01 +1.27151832e-01 +1.20745689e-01 -5.77159338e-02 -7.23793879e-02 +2.81422772e-02 -1.00076057e-01 +1.29486946e-02 -9.76438820e-02 +2.15817258e-01 -9.81622115e-02 -7.72218555e-02 -8.30060840e-02 +2.11858690e-01 -1.77695230e-01 -7.97833130e-02 +4.04790819e-01 +1.98136345e-01 -9.42582637e-03 -1.21785492e-01 -6.57524029e-03 +1.11391351e-01 -3.78029197e-02 +5.68050742e-02 -2.44834572e-02 +9.84643027e-03 +8.97181686e-04 -1.14687771e-01 -2.90506822e-03 +9.92348138e-03 -3.80923860e-02 +4.57205460e-05 +6.35939371e-03 -1.01527005e-01 -4.13535498e-02 +4.30652685e-02 -3.06799486e-02 -4.17338349e-02 -1.41469777e-01 -6.96707219e-02 -9.21538845e-02 +1.52073771e-01 -9.68603790e-02 -3.48982774e-02 +3.44575159e-02 -2.15546370e-01 -9.67569202e-02 -1.77852258e-01 -4.42118570e-02 -7.84469619e-02 -1.86105631e-02 -6.47323057e-02 -1.18092246e-01 +3.57521400e-02 -8.15076232e-02 -1.21697247e-01 +8.64123404e-02 -5.18238135e-02 -8.89921486e-02 +9.51576456e-02 +9.22299474e-02 +3.25384475e-02 -2.73425728e-02 +1.27299070e-01 -1.08055830e-01 +9.74496007e-02 -4.33392972e-02 -1.12443879e-01 +8.73841643e-02 -7.25327106e-03 -5.79000488e-02 -3.31110805e-02 -7.44977966e-02 -9.81565192e-02 -2.41403759e-01 -8.42142776e-02 +1.33032701e-03 -1.31003484e-01 +3.91715169e-02 -7.11082444e-02 -2.88237985e-02 -1.73699986e-02 +3.58895399e-02 -1.13691851e-01 +9.10648052e-03 -3.52187157e-02 -3.27061228e-02 -5.87421581e-02 +1.24115616e-01 -1.60845771e-01 -1.34272411e-01 -8.26182142e-02 -1.07646935e-01 -1.63453594e-02 -5.82316145e-02 -1.18687071e-01 +3.28391641e-02 +1.62559245e-02 +2.67792307e-02 +5.69899529e-02 +2.43117625e-04 +9.91249923e-03 -5.29233329e-02 +2.16425527e-02 -5.05459011e-02 +1.40336459e-03 -2.07025986e-02 +5.33972532e-02 +3.95315737e-02 +9.47201774e-02 -7.00845523e-03 +1.27906382e-01 +3.74815427e-02 +8.57407153e-02 -6.20763563e-02 -1.00255884e-01 -2.94956937e-02 +1.14898846e-01 +9.21415631e-04 +5.21865413e-02 -4.58201393e-02 +2.10162755e-02 +8.63944739e-02 +1.01973349e-02 +1.12866417e-01 -2.20096279e-02 +1.32209986e-01 +8.33090916e-02 +1.60875753e-01 +1.23490848e-01 -4.46288399e-02 -4.50858772e-02 -1.14812158e-01 +1.56839434e-02 +1.95425302e-02 -6.16384037e-02 +4.34018224e-02 -5.56503832e-02 -1.09818475e-02 -8.29128735e-03 +7.71219656e-02 +1.17985830e-01 +4.38639782e-02 -8.36158320e-02 +9.17089880e-02 +2.92707253e-02 +3.80601808e-02 -6.74680853e-03 -3.27579789e-02 -8.18170533e-02 -1.35409415e-01 -1.10986948e-01 -3.07807736e-02 +1.18208498e-01 -4.29789349e-02 -8.04015622e-02 -7.89259188e-03 -6.93294853e-02 -4.71296050e-02 -8.86291116e-02 +1.05742559e-01 +7.22535849e-02 -8.43986198e-02 -5.43967588e-03 +1.60372574e-02 -6.59554973e-02 -6.42783269e-02 -8.71115252e-02 -2.78865155e-02 -3.50526236e-02 -1.97057966e-02 -3.03669889e-02 -3.28559466e-02 -1.54323969e-02 -1.39113858e-01 -7.58361146e-02 -1.53254732e-01 +3.91597413e-02 +1.14598289e-01 -6.13532290e-02 +8.06858856e-03 -3.68332043e-02 -9.47146863e-02 -4.31276187e-02 -6.39483109e-02 -5.76816052e-02 -4.27842736e-02 +9.89522561e-02 +8.95084292e-02 -4.01403829e-02 -7.94252828e-02 -1.76546901e-01 -2.11855590e-01 +4.57823612e-02 -9.80807561e-03 +5.29970862e-02 +2.69683241e-03 -3.48537788e-02 -8.14451277e-02 +7.36552402e-02 -4.90561835e-02 -2.15566047e-02 -3.96485068e-02 +6.57256246e-02 -5.86319715e-02 -2.17352081e-02 -5.39522804e-02 +4.37268652e-02 -3.49633815e-03 -8.61237645e-02 +4.82861511e-02 +2.17692666e-02 -3.66078806e-04 -6.70869499e-02 +5.18670157e-02 +4.36038524e-02 +7.35165179e-02 +2.59187203e-02 +3.79666798e-02 -7.83278421e-02 -1.29553908e-02 -8.36764462e-03 -1.16063371e-01 -1.39447851e-02 +4.65740375e-02 +2.59226281e-02 +6.05660938e-02 +9.88559984e-03 -7.02150464e-02 +2.71874443e-02 +7.93550238e-02 -4.01508100e-02 -4.52188170e-03 -6.25337511e-02 +7.08448067e-02 +1.13531873e-02 -1.65579356e-02 -4.00427096e-02 -2.33048126e-02 +3.95976715e-02 -6.71065971e-02 +8.13226402e-03 -1.80298556e-02 -4.66296002e-02 -5.53859919e-02 -2.13012900e-02 -4.13447060e-02 -1.21055162e-02 -2.38701962e-02 -6.92916214e-02 -1.56190217e-01 -3.69105185e-03 +1.71959713e-01 +6.17506690e-02 +1.70852579e-02 -6.58869296e-02 +4.35042707e-03 -6.62770122e-02 -3.98787297e-03 -9.61046293e-02 +1.37434587e-01 -2.09369473e-02 -1.19968064e-01 +7.20388489e-03 -4.87789139e-02 +6.96290880e-02 +7.55457282e-02 +4.62427102e-02 +7.82324225e-02 -6.14756793e-02 +1.30158618e-01 +3.25431973e-01 +1.02370717e-02 -3.29741202e-02 -2.36452799e-02 +1.16165683e-01 +8.10219068e-03 -1.69937804e-01 -1.72054991e-02 -5.05127851e-03 -6.58633411e-02 +4.95332293e-02 -1.24909528e-01 -1.43435419e-01 -1.00927517e-01 -1.14350066e-01 -2.61657573e-02 -3.59351076e-02 -5.88340536e-02 -6.71156198e-02 +6.95623979e-02 -1.43801346e-02 -1.02028444e-01 +3.15369517e-02 +6.84966147e-03 -7.19476715e-02 -1.12553172e-01 -2.03366846e-01 -3.33385207e-02 +1.56600595e-01 -2.26899430e-01 -2.42549963e-02 +1.90669354e-02 +4.65884209e-02 +3.12731564e-02 +1.21056996e-01 +5.20963874e-03 -1.43657461e-01 -3.55995968e-02 +9.69474837e-02 +2.64469031e-02 +1.48277907e-02 +8.59054271e-03 -4.04372625e-03 -2.22764030e-01 +1.38829663e-01 +1.87513977e-02 +1.27977468e-02 -7.84605276e-03 +9.05343965e-02 +9.30545256e-02 -3.94935533e-02 -5.59355430e-02 -7.37583488e-02 -1.72595173e-01 -8.38943347e-02 -7.47833177e-02 -5.09010218e-02 +1.63571715e-01 -1.72573850e-01 -7.81032369e-02 +9.19416547e-02 -2.51358569e-01 -1.45514533e-01 -7.92239681e-02 +5.81167489e-02 +1.03511617e-01 +1.13426251e-02 +7.18950704e-02 +6.23634495e-02 -1.73365980e-01 +8.54732543e-02 +4.69912600e-04 -5.32001667e-02 +2.85053760e-01 +1.04243435e-01 +1.00071110e-01 +9.11720395e-02 +6.06164224e-02 -2.84267571e-02 -1.15185723e-01 +2.69804329e-01 +1.60913467e-02 -9.72680561e-03 -2.00067356e-01 -9.50621441e-02 -5.53829484e-02 +2.35601157e-01 -2.19254866e-01 -4.20914451e-03 -8.85393769e-02 -4.05886434e-02 +5.40153421e-02 +1.00232683e-01 +9.10168365e-02 +1.33121192e-01 +6.07680455e-02 -1.49867237e-02 +4.03195769e-02 +2.69633122e-02 +1.18796960e-01 +1.27779201e-01 +9.17312428e-02 -1.21734217e-01 -1.04595914e-01 +7.74718523e-02 +7.56306127e-02 -9.17670429e-02 -2.10039634e-02 +1.30159438e-01 -4.57560383e-02 +1.49478414e-03 -2.35039055e-01 -1.14760689e-01 -1.55895293e-01 +6.01152703e-02 +1.29165500e-01 -1.55681074e-01 -3.63745093e-02 +2.54101167e-03 +6.65293112e-02 +4.53563891e-02 +4.19208072e-02 +2.98013818e-02 -1.05481662e-01 -1.66395038e-01 -7.66716823e-02 +1.28274322e-01 +6.56024292e-02 -3.18865813e-02 +2.72184890e-02 -3.15136574e-02 +7.67074972e-02 -6.66338950e-02 +1.11983061e-01 -4.80652303e-02 -4.09601741e-02 +5.32808602e-02 -1.05253562e-01 -1.87028974e-01 -1.06841452e-01 +8.51151347e-02 +8.97303298e-02 +1.36001498e-01 -1.32715896e-01 +7.81899542e-02 -1.09340705e-01 -9.24057066e-02 -5.08287437e-02 +2.73559131e-02 -1.17647819e-01 -9.69317406e-02 -1.04105406e-01 +3.49623635e-02 +9.34111420e-03 -1.60786867e-01 -1.89468786e-02 -6.94928318e-03 +7.94756114e-02 +6.27816841e-02 -9.17236581e-02 +3.78254913e-02 +1.54988572e-01 +5.32081574e-02 -1.71664402e-01 +1.55429512e-01 +5.99973947e-02 -9.95236821e-03 -9.10734236e-02 +1.25729695e-01 -6.30654488e-03 -1.98178306e-01 +2.29327604e-01 -2.02865303e-02 -2.50112778e-03 +1.17907837e-01 -1.42310932e-01 -6.67861328e-02 +5.67518547e-02 +4.79877032e-02 -8.93179104e-02 -2.26091668e-02 -9.84280556e-03 -1.05778044e-02 -6.21722452e-03 +2.53277016e-04 -3.21672782e-02 +8.17564130e-03 +3.86135578e-02 -1.64871246e-01 -9.21376124e-02 -3.86180244e-02 +5.37624117e-03 +2.64616944e-02 -9.86345578e-03 +8.16869363e-02 +7.77634559e-03 +8.87541398e-02 +9.18139443e-02 -1.24312542e-01 -1.20669276e-01 -1.85585767e-01 +1.52402567e-02 +3.32165882e-02 -7.66176134e-02 +5.88411130e-02 -4.86917458e-02 -3.21849138e-02 -4.71126251e-02 +7.08642676e-02 -5.77939823e-02 +6.60211891e-02 -1.79394335e-01 -3.26704085e-02 +3.27067152e-02 -2.46554147e-02 +1.26697242e-01 -2.35969462e-02 -7.44687021e-02 +1.21938825e-01 -1.51548281e-01 +1.64816976e-01 -1.00979961e-01 -5.98105229e-02 +5.22244014e-02 -3.52382176e-02 +1.74375996e-01 -1.21569559e-01 +6.18098602e-02 +5.56798130e-02 +1.03031844e-01 +3.28016356e-02 +1.06107563e-01 +3.87574150e-03 +7.58652687e-02 +1.33904144e-01 +2.97199842e-02 -8.38050395e-02 +7.57193342e-02 +4.17224318e-02 +7.65462443e-02 +2.76870038e-02 -4.94559854e-02 +4.64975201e-02 -6.50045574e-02 -1.75313652e-02 +1.14742957e-01 +8.00809637e-02 -1.49882855e-02 +2.10287943e-02 +5.94265200e-02 -7.19998702e-02 -3.98270693e-03 +7.15688020e-02 -2.84180064e-02 -1.00115631e-02 +1.30950883e-01 +9.96334702e-02 +1.77932624e-02 +1.22656882e-01 -2.88568474e-02 +1.80410855e-02 +1.19049229e-01 -2.18371917e-02 +9.01768170e-03 +2.07607776e-01 -1.11372888e-01 -9.04956907e-02 +1.26800165e-01 +1.60123616e-01 +5.30699566e-02 -3.05965096e-02 +1.64636090e-01 +4.88397740e-02 -1.90659836e-01 +1.47980839e-01 -1.05828587e-02 -9.83703285e-02 -8.94181207e-02 +5.04351445e-02 +8.56990069e-02 +1.85024902e-01 -2.67410912e-02 -4.00670171e-02 -1.36984214e-01 -8.70830119e-02 +7.19059929e-02 -4.03446704e-02 +2.11057648e-01 -6.11423105e-02 -9.07471627e-02 +1.25926286e-01 -4.14257497e-02 -6.03450388e-02 -9.83069930e-03 +9.46423635e-02 +7.47898966e-02 -9.83931348e-02 +1.39742773e-02 -6.71424493e-02 -1.22785550e-02 -1.38637260e-01 -8.86825938e-03 +1.06049366e-01 -1.49518415e-01 -7.95493647e-02 +6.80810073e-03 +1.10933714e-01 -2.79057026e-03 +1.61182672e-01 -9.17423703e-03 +5.33089675e-02 -7.59696215e-02 -5.85038550e-02 +2.82159597e-01 +5.74878454e-02 +8.06396604e-02 -1.75281540e-01 -1.07360706e-01 +6.97107017e-02 -1.88252360e-01 -1.18541941e-01 -7.48117862e-04 -2.03216538e-01 +8.72304887e-02 -2.65873829e-03 +2.23882347e-01 -7.33546913e-02 +4.32587899e-02 -3.94186638e-02 -2.01532766e-02 -9.12626684e-02 -9.12932828e-02 -7.86434710e-02 +1.78198531e-01 +6.94803968e-02 -1.12801060e-01 +1.62200339e-03 -7.80142918e-02 +8.37034807e-02 -1.05724022e-01 +3.92219238e-02 -7.88411200e-02 -1.37366548e-01 +3.01391426e-02 +2.75318790e-03 +8.77547264e-02 +1.46694183e-01 +6.21871315e-02 +7.70912170e-02 -1.68844968e-01 +3.03824078e-02 -7.86810219e-02 +3.63549194e-03 -4.78419289e-02 +4.15311046e-02 +4.98625189e-02 -1.22577980e-01 -7.36673537e-04 -2.66133118e-02 +4.06587049e-02 +3.66603509e-02 +8.16361792e-03 +4.51862253e-03 -5.70619665e-02 -5.42532727e-02 +6.74563274e-02 +3.76028977e-02 +6.77767321e-02 +6.76446557e-02 -6.49696663e-02 +1.46499857e-01 +5.55669367e-02 +3.29924785e-02 -9.46290791e-02 -8.03078488e-02 -3.54595445e-02 +9.54975784e-02 -2.84974240e-02 +1.01321489e-01 +3.02216783e-02 -2.47796662e-02 +7.51218647e-02 +1.34911984e-01 -2.87129413e-02 +1.98467344e-01 +2.03649572e-04 -9.03198570e-02 +2.27730256e-02 +5.07545955e-02 +2.95160152e-02 +1.60021439e-01 -3.84132601e-02 -4.77925390e-02 +8.91316906e-02 +1.25995204e-01 +6.10127486e-02 -1.74049363e-01 +1.29514590e-01 -8.98418948e-02 -1.48062810e-01 -2.86871791e-02 +1.24719016e-01 +1.25309844e-02 -1.09954357e-01 -1.95436165e-01 -1.33258983e-01 +4.75344658e-02 +1.51573773e-02 +9.61342305e-02 -6.11623116e-02 +2.12555110e-01 +6.47851899e-02 -7.59002641e-02 +1.54372618e-01 -5.53701408e-02 -7.77263269e-02 +2.17134282e-02 -1.05655016e-02 +2.35840641e-02 -1.09507918e-01 -2.16294035e-01 -4.71123308e-02 -1.04873031e-01 +5.20836338e-02 +9.99661684e-02 -4.63854261e-02 +3.48985121e-02 +4.68686298e-02 -4.30202037e-02 +8.64717066e-02 +3.84907387e-02 +5.65704480e-02 -4.06182371e-02 +4.52274503e-03 +6.65391088e-02 -1.57957599e-01 +9.35581401e-02 -1.19116180e-01 +3.55228893e-02 -6.22631609e-02 +1.30913462e-02 -2.96952818e-02 -3.92310768e-02 -3.71800400e-02 +4.94814152e-03 +3.68444552e-03 +5.33208903e-03 +2.59906780e-02 -1.45002693e-01 -6.63599595e-02 -1.11320503e-01 -6.01729304e-02 -1.10438734e-01 -1.64652262e-02 +7.40870610e-02 +8.54095817e-02 -6.97056577e-02 -1.94627240e-01 +2.48179257e-01 -7.84455612e-03 +3.38654630e-02 -4.92584594e-02 -1.05164059e-01 -2.90063880e-02 +2.79057503e-01 -4.48500700e-02 +1.07821703e-01 -9.33553949e-02 -7.66178817e-02 +1.86576489e-02 +1.80904239e-01 +2.25136712e-01 +7.65144750e-02 +1.45017896e-02 +3.33871022e-02 +1.32956058e-01 -9.33400691e-02 -8.09762813e-03 -5.89168444e-02 -4.57163006e-02 -5.64671867e-02 -3.11526023e-02 +5.20155281e-02 +1.34115452e-02 -6.16806420e-03 -1.33864596e-01 -2.08831117e-01 +1.09921247e-01 +7.71981180e-02 -5.78920543e-02 +3.29612941e-02 -2.09154654e-02 +5.63638359e-02 +1.07807770e-01 +1.12941675e-01 +1.12259820e-01 +2.19877763e-03 -5.00472449e-02 +1.54681727e-02 +1.88671108e-02 +2.48485766e-02 +1.15846895e-01 +2.05971710e-02 -4.38815653e-02 -1.41037270e-01 -9.29628499e-04 +4.71363328e-02 -1.25915959e-01 -3.61398049e-02 +1.07753254e-01 +1.16060019e-01 -1.81077269e-03 -2.68752351e-02 +1.01376511e-01 +6.18754104e-02 -7.69237950e-02 +2.88274214e-02 +1.67047307e-02 -8.28244984e-02 +1.91690288e-02 -3.15160677e-03 -1.27721569e-02 -3.89131270e-02 -7.03601679e-03 +3.07799280e-02 +1.14577934e-01 +6.34444207e-02 -1.06692024e-01 -5.34782447e-02 -2.56109592e-02 +8.31963588e-03 +1.61842331e-02 -4.17283084e-03 -4.42901738e-02 +6.61040023e-02 -2.35728458e-01 -6.24759682e-02 -9.36494023e-03 -6.79903626e-02 -3.97456773e-02 -1.46701336e-01 +3.47855780e-03 +2.75826566e-02 +1.21008687e-01 +1.84959605e-01 +5.54810166e-02 -5.51870726e-02 +1.36206654e-04 +1.39079122e-02 +7.91712292e-03 +3.90390903e-02 -4.42683697e-03 +5.43945320e-02 -9.46335029e-03 +2.58579254e-02 -3.15132812e-02 -9.44491625e-02 -7.82330483e-02 -6.30885214e-02 -1.40299469e-01 +1.12512276e-01 -3.10981534e-02 -4.96405065e-02 +5.54109626e-02 -2.79787481e-02 +9.30091292e-02 +6.55707344e-02 -9.20954272e-02 -7.43584409e-02 -2.78214389e-03 +1.63239643e-01 -1.05537744e-02 -1.53743505e-01 -8.51328745e-02 +3.75279710e-02 -2.22569667e-02 +2.05114931e-02 -6.39196783e-02 +3.12971999e-03 -1.44358069e-01 -3.36961150e-02 -3.00527550e-02 +1.68219786e-02 +9.96136963e-02 -6.94275498e-02 +6.62831068e-02 -6.05529174e-03 -3.66708497e-03 -6.11962602e-02 -2.74013188e-02 +3.61680128e-02 -4.97154780e-02 +1.63492575e-01 +1.04564324e-01 +1.38094530e-01 +4.32780720e-02 -7.86733776e-02 -6.94267871e-03 -5.11845127e-02 -1.42657846e-01 -1.03016421e-01 -9.78203118e-02 +1.53385550e-01 +5.66248931e-02 -2.78683096e-01 -2.43490022e-02 -2.15180427e-01 +1.18752599e-01 +8.25966671e-02 +1.27604706e-02 -2.17762649e-01 +1.57138884e-01 -8.64167660e-02 -1.07711129e-01 +2.72021964e-02 +6.66310731e-03 -1.10002272e-01 -9.78828669e-02 -1.04037069e-01 -1.27360508e-01 +1.05586261e-01 -2.70208955e-01 +1.26690805e-01 -6.52169734e-02 +4.11285460e-02 +8.34131166e-02 -7.22481608e-02 +6.02061488e-02 -3.93231101e-02 -7.00583085e-02 +1.29307792e-01 +1.38397977e-01 +6.95666373e-02 -1.12770259e-01 +1.31393582e-01 -2.34998744e-02 +9.14460570e-02 -7.33860210e-02 +8.64730701e-02 +2.71879621e-02 +3.43704177e-03 -2.21664719e-02 +1.04688406e-01 +3.87364114e-03 -2.69017536e-02 +1.33500382e-01 +2.30904333e-02 +7.11923465e-03 +1.94347024e-01 -1.61200482e-02 +5.64480051e-02 -1.16348155e-02 -6.51965886e-02 +9.59939673e-04 +2.83695817e-01 -1.62840962e-01 +1.08668819e-01 +9.14533511e-02 -8.80007669e-02 -8.68807063e-02 +9.87154767e-02 -1.19735032e-01 +9.15103406e-02 +2.02809826e-01 +1.33040128e-03 -5.70642687e-02 +1.12456389e-01 -1.03908926e-01 +1.29886717e-01 -2.25446466e-02 +1.20000668e-01 -3.78071330e-02 +1.00646600e-01 +1.76667869e-01 -2.21226066e-02 +1.14767835e-01 +3.60717997e-02 -3.34257782e-02 +8.55189376e-03 -1.45886183e-01 +2.29253899e-02 +6.38538692e-03 -7.13953301e-02 +3.23283374e-02 -1.37253245e-02 -1.21302838e-02 -2.84199696e-02 -1.82320938e-01 -1.07770585e-01 +4.52424213e-03 -1.02677932e-02 -7.85526447e-03 +3.05675697e-02 -1.17511023e-02 -9.15312544e-02 +1.51123181e-01 -3.12408544e-02 +2.60824654e-02 +4.07141261e-02 -1.89942956e-01 -1.14512565e-02 -1.48085117e-01 +1.21040411e-01 -1.06772333e-01 -4.57375646e-02 -5.46837412e-03 -9.50769857e-02 +6.02776445e-02 -7.02878237e-02 -1.44281074e-01 -2.55740434e-02 +1.84470098e-02 +4.70812917e-02 +3.69546972e-02 -5.55412807e-02 +1.69069648e-01 -8.75267908e-02 -6.01345710e-02 +1.51670277e-02 -3.20625417e-02 -2.79200524e-02 -1.64890438e-01 -1.78438276e-01 +6.00293316e-02 -1.70399189e-01 +7.57094380e-03 -1.34156212e-01 -4.25025858e-02 -1.85963623e-02 +7.88515434e-02 +7.60366842e-02 -1.90049589e-01 -6.59105927e-02 +1.33825839e-02 -8.35103393e-02 -1.71160117e-01 -9.00363550e-02 +1.85720045e-02 +2.09821761e-02 -6.16855454e-03 +5.64453192e-02 -3.81042212e-02 +6.57590851e-02 -1.50238082e-01 +9.17227715e-02 +1.09737046e-01 -5.15889265e-02 +7.36520044e-04 -3.07428446e-02 -2.69328244e-02 +1.80129528e-01 -1.57674506e-01 +3.92265245e-02 -4.81827855e-02 +2.31842119e-02 +1.04061991e-01 +4.00157087e-03 -3.00959367e-02 -3.38342190e-02 -4.07555774e-02 +2.18061893e-03 -6.30448759e-02 +1.47200853e-01 +3.52265947e-02 -9.11963433e-02 +2.60497369e-02 +1.06022261e-01 -1.73812639e-02 +7.77769610e-02 +7.08700866e-02 +1.10328896e-02 -8.51915404e-02 -1.29818097e-01 +6.32445700e-03 +6.53816760e-02 +2.98576187e-02 +6.83070868e-02 -3.79094630e-02 +1.59526333e-01 -2.53503714e-02 +9.67771336e-02 -8.71952623e-02 -8.23925808e-02 +1.54317424e-01 -5.43816276e-02 -7.59524927e-02 +3.85714509e-02 -8.33964646e-02 -1.04944564e-01 -7.49568120e-02 +5.26709631e-02 -8.56194869e-02 -2.45550293e-02 +7.91178644e-02 +1.01734094e-01 -8.50344077e-02 -1.11465529e-01 -1.08612731e-01 +4.51588444e-02 +2.49594264e-02 -2.16223113e-02 +3.42905335e-02 -1.31832957e-01 +1.74891472e-01 +8.49264562e-02 -7.59127131e-03 +7.00623468e-02 -6.72515407e-02 -7.92670250e-02 -7.00396374e-02 +1.74888968e-02 -2.58215386e-02 +7.45696872e-02 -1.53884459e-02 -9.08112153e-02 -3.94863747e-02 +1.00022018e-01 +3.52087766e-02 -1.45714194e-01 -5.12622930e-02 -2.00113170e-02 +5.44955321e-02 -5.70993721e-02 +1.68934017e-01 +1.23177633e-01 -2.39218492e-02 +7.75025189e-02 -8.15521479e-02 -8.87447074e-02 +2.12110505e-02 -1.02375988e-02 -5.25348410e-02 -1.01947961e-02 +2.79436465e-02 +8.44011828e-02 +9.69271958e-02 -6.88272268e-02 +1.57154500e-01 +9.13477167e-02 +1.78256378e-01 +9.42763388e-02 -1.26788706e-01 -5.08190207e-02 -3.90371159e-02 +1.15188599e-01 +8.98314342e-02 -2.26166882e-02 +6.85647577e-02 -1.22595709e-02 -1.33301571e-01 -6.68365881e-03 -3.05467434e-02 -5.62459696e-03 +1.84939176e-01 +8.70196074e-02 -5.78260161e-02 -1.04089066e-01 -1.50190026e-01 +1.02004945e-01 +1.42508835e-01 -4.84896041e-02 -1.78975046e-01 +1.27011538e-03 -1.04884803e-02 -2.54822195e-01 -3.77198867e-02 +2.30422262e-02 -1.57855198e-01 +1.91868171e-01 +1.26236632e-01 +4.01681289e-02 -6.82204729e-04 +1.62132338e-01 -9.80441496e-02 +2.57986900e-03 -1.59388050e-01 +8.28565434e-02 +7.00903758e-02 +1.75731659e-01 +2.38663182e-02 -5.18231979e-03 +6.19912148e-02 -8.60619918e-02 +2.61952788e-01 -3.21133025e-02 +1.71958804e-01 -1.07973099e-01 +4.61693406e-02 +8.99720863e-02 -9.20911059e-02 +2.12752428e-02 +6.89681694e-02 +2.74015665e-02 +1.11576468e-01 -8.49280320e-03 -5.50221140e-03 -1.83993787e-01 -2.27638155e-01 +7.95402601e-02 +5.65482527e-02 -3.00668161e-02 -7.62975588e-02 +1.41824752e-01 +9.97238308e-02 -1.56660184e-01 -4.02520895e-02 +1.84945062e-01 -1.63907632e-01 -2.05036670e-01 +4.47123684e-02 +1.24335647e-01 -1.91906523e-02 -2.06091389e-01 +5.61509095e-02 -1.39057199e-02 -3.76778506e-02 +4.66616005e-02 -8.13258961e-02 -2.19677120e-01 +4.14306261e-02 -2.37326566e-02 -3.38899642e-02 -8.37898403e-02 +9.90062207e-02 +1.07629627e-01 +3.69510688e-02 +2.18118746e-02 -4.75490391e-02 +5.76581247e-02 -1.06696285e-01 +1.93961635e-01 +1.24905020e-01 -7.47624561e-02 +2.77901571e-02 +6.67345673e-02 -7.87648931e-03 +1.16686903e-01 +8.97608548e-02 +1.83889195e-02 -4.80220653e-03 -5.60275055e-02 -1.66064754e-01 -3.97760123e-02 -2.17722878e-02 -6.35765120e-02 +1.92809999e-01 -1.54656574e-01 +2.36959867e-02 -9.67444256e-02 +1.03761986e-01 -1.36246026e-01 +3.93103287e-02 +7.51391724e-02 -8.72485787e-02 +2.06293851e-01 +3.93167771e-02 +1.00834452e-01 -1.94557399e-01 -1.46908551e-01 +4.28769290e-02 +1.50564700e-01 -6.04152456e-02 -1.84519783e-01 -6.77840337e-02 +9.43882763e-02 +5.38704917e-03 -1.07368883e-02 -1.15037477e-02 +1.22226208e-01 -1.81325451e-01 +1.19258583e-01 +9.88348573e-03 +2.59572212e-02 -2.15610932e-03 -1.99627906e-01 +1.55488746e-02 +1.09640136e-01 +1.15085796e-01 +8.23395401e-02 +2.56328154e-02 +1.79264620e-01 -5.69915287e-02 +6.68286607e-02 -5.20297587e-02 -1.27546564e-02 -6.45714849e-02 -8.95371959e-02 -5.74685559e-02 -4.35563140e-02 +9.59010515e-03 -2.04116330e-02 +3.45215984e-02 -1.24932965e-03 +4.75645810e-02 +1.64450094e-01 +3.74718420e-02 -8.98922700e-03 -8.00702628e-03 -6.37743771e-02 -3.72729488e-02 +1.20588191e-01 -3.14658172e-02 +6.54836604e-03 +7.04911128e-02 -8.54032114e-02 +1.36960745e-01 -1.63617343e-01 +1.08717561e-01 -1.88416559e-02 -1.31225614e-02 -3.24255154e-02 +2.42412537e-02 +1.04194209e-01 +1.34845138e-01 +3.13579775e-02 +9.41471532e-02 -8.46566558e-02 -8.09579194e-02 +6.43431917e-02 +2.66584661e-02 +1.00848563e-01 +1.45309836e-01 +2.42904007e-01 +1.30754858e-01 +4.10524346e-02 -4.06139717e-02 +9.84479189e-02 +1.65899284e-02 -5.08332774e-02 +7.02061579e-02 +3.11096013e-02 +2.43247360e-01 -3.99684235e-02 +2.28873584e-02 -2.03989401e-01 +9.96172428e-02 +8.53399858e-02 -8.09204951e-02 -4.27264534e-02 +2.66293865e-02 +7.84973428e-02 +4.07374874e-02 +9.79418308e-03 -1.20970830e-01 -4.34315838e-02 -4.46193330e-02 -7.93292560e-03 +7.35392720e-02 +8.32618847e-02 -1.78263620e-01 -7.00152516e-02 -7.42975855e-04 +7.75406323e-03 -4.81305011e-02 +6.04699738e-02 +8.38602111e-02 +5.21710403e-02 -5.52915148e-02 +9.67170447e-02 -2.44257033e-01 -1.16238460e-01 +5.25403544e-02 +1.19240329e-01 +8.95211548e-02 +7.45299309e-02 -7.88384452e-02 +5.89080453e-02 -1.00367762e-01 +5.38072176e-02 +8.95855576e-02 -1.20468482e-01 +1.55379539e-02 -3.38152633e-03 -9.98118743e-02 -3.86132263e-02 +1.06207818e-01 -1.68330848e-01 +8.64760056e-02 +8.65121558e-02 +1.19919628e-01 +1.98853225e-01 +2.84208786e-02 -1.38966832e-02 -1.39885116e-02 +9.00097340e-02 -7.72762746e-02 -1.06255502e-01 -8.60532671e-02 +9.85780954e-02 -1.26476184e-01 -6.38653561e-02 +8.70713815e-02 +3.24222781e-02 +6.01340309e-02 -1.37469724e-01 -1.03766017e-01 +4.75228280e-02 +6.47843927e-02 +2.09035017e-02 +2.52972376e-02 +2.31616432e-03 +1.17444605e-01 -9.11332667e-02 +1.49119213e-01 -1.72958132e-02 +1.99625473e-02 +5.17110005e-02 +1.51332378e-01 +1.21593773e-01 +3.70909013e-02 -7.10369945e-02 +6.87891319e-02 -7.50309154e-02 +8.40303674e-02 +3.13073322e-02 +1.07256122e-01 -4.25172485e-02 +7.46654943e-02 -6.18501450e-04 -1.41629260e-02 +8.31284449e-02 +1.46642804e-01 +3.82417329e-02 -1.12558613e-02 +6.25903532e-02 -5.57351597e-02 +2.89470870e-02 +6.35984987e-02 +9.52344313e-02 -4.45550047e-02 -5.55673465e-02 -1.94677785e-01 +5.35894260e-02 +9.66406092e-02 +3.30995433e-02 -6.04436547e-02 -1.88462599e-03 +3.76232108e-03 +1.81562081e-02 +5.83334006e-02 +1.02884501e-01 -6.31536618e-02 -9.47062746e-02 -1.68744281e-01 -5.04494458e-02 +5.14280461e-02 +9.55232829e-02 -1.31329685e-01 +4.60368209e-02 -9.01878104e-02 +7.23369867e-02 +2.88548600e-02 +4.52334099e-02 -2.73412913e-02 -1.50457229e-02 +2.45182822e-03 +3.39774825e-02 -5.96397258e-02 -3.73147503e-02 -3.65282185e-02 -9.00963768e-02 -1.44089274e-02 -1.56676688e-03 -3.92617285e-03 +6.98629022e-02 +5.84308989e-02 +8.20136815e-02 -6.00587167e-02 +1.34317920e-01 +4.46916707e-02 -5.53182252e-02 -4.20193560e-02 +3.71800810e-02 +8.72461498e-02 +1.32342964e-01 -1.31681487e-01 -3.98214199e-02 +1.11361921e-01 -3.18937562e-02 +7.59807378e-02 -6.06704280e-02 -7.39268586e-02 -1.50792152e-01 +1.61571786e-01 -2.40195580e-02 +1.70176432e-01 +3.04936841e-02 +2.26538405e-02 -2.85986308e-02 -9.42269117e-02 -3.96234766e-02 +8.44249129e-02 -8.20915550e-02 +1.20934598e-01 -1.26028255e-01 -1.03777029e-01 +1.42624989e-01 +2.48309877e-02 +1.07306227e-01 -6.95741773e-02 +2.57831300e-03 -1.70439556e-01 +2.81518213e-02 +1.03652805e-01 +4.50611524e-02 +1.13600254e-01 -9.37448964e-02 -5.31751895e-03 -1.72756940e-01 +1.25489198e-02 +2.12362800e-02 +1.71867199e-02 -7.22992346e-02 +3.91124487e-02 +5.14497980e-02 +1.76819991e-02 +7.91009516e-02 -2.99310945e-02 +6.71281815e-02 +1.09894373e-01 -5.55464625e-02 +1.67186484e-01 -1.16550606e-02 -1.07840709e-01 +6.70953840e-02 +3.41774896e-02 +2.27490049e-02 -5.34572229e-02 +1.58251133e-02 -3.69470231e-02 -2.57432442e-02 +5.65898605e-02 -1.01143733e-01 +1.67765573e-01 -2.43358940e-01 +8.96690320e-03 -1.54850811e-01 +1.28918756e-02 -1.17633902e-01 +1.29571021e-01 -5.30027226e-02 -7.68043008e-03 -9.51800644e-02 +7.10911527e-02 +1.27589881e-01 -6.99694082e-02 -8.49600285e-02 +6.06807284e-02 -6.22652378e-03 +2.81232204e-02 -6.09913245e-02 +9.98883508e-03 -8.15610066e-02 -9.37253907e-02 -5.52862696e-02 -4.83111618e-03 -1.50841683e-01 +8.64918977e-02 +1.69639051e-01 -2.24637147e-02 +1.35242850e-01 +1.74929559e-01 -7.17691854e-02 +5.19073643e-02 -1.22383490e-01 +9.28745195e-02 +1.91951077e-02 +1.86417744e-01 +7.78572215e-03 -1.18209280e-01 -3.71111818e-02 -9.68523920e-02 +4.99945991e-02 +2.93716900e-02 -1.98173717e-01 -1.23623222e-01 +1.08566456e-01 -5.68088591e-02 -8.61132666e-02 +6.44721463e-02 +4.59075905e-02 -3.29077020e-02 -8.75327289e-02 +1.22798495e-01 +1.04342345e-02 +3.36315893e-02 -2.59981165e-03 +2.39869431e-02 -1.00386500e-01 +3.70856933e-02 +3.98378894e-02 +1.42162114e-01 -1.45301163e-01 +4.18473519e-02 -2.25165978e-01 -1.20120041e-01 -1.86423510e-01 +7.39330947e-02 -9.19978786e-03 -4.59743775e-02 -4.48433571e-02 +4.19426039e-02 +9.62347984e-02 +4.86807115e-02 -5.30488566e-02 -4.85131219e-02 +6.01761788e-03 -1.10529840e-01 +1.10107496e-01 +1.75279491e-02 +2.39132762e-01 +1.39152994e-02 -1.27345726e-01 +1.17846720e-01 -1.49481408e-02 +1.66618824e-01 -6.67180568e-02 +5.77570312e-02 +1.71212852e-01 +5.92526123e-02 -8.78683254e-02 +1.25943229e-01 -1.39690891e-01 +6.83461130e-02 +3.93867791e-02 -1.97454795e-01 +5.13727218e-02 +4.05632183e-02 -4.62566428e-02 -3.65477353e-02 -2.04309518e-03 -6.12002276e-02 -2.20113015e-03 +6.75951391e-02 +8.41230229e-02 -7.25661740e-02 +1.08697906e-01 +7.75568485e-02 +1.02330633e-01 +4.05649422e-04 +8.89705122e-03 -1.11846767e-01 -1.27882913e-01 +3.99724022e-02 -2.16108095e-02 -1.94502726e-01 -8.98823589e-02 -2.23376200e-01 -9.70058900e-04 -2.32948378e-01 -8.11238140e-02 -9.39863771e-02 +6.61066473e-02 +1.08475015e-01 -2.99364049e-02 +4.33137529e-02 -2.25862730e-02 -1.42831705e-03 +2.06475463e-02 +5.34528457e-02 +2.05577295e-02 +5.98222204e-02 +1.18867248e-01 +1.46072591e-02 -7.03983530e-02 +2.14679763e-02 +9.06926692e-02 +1.68332204e-01 -1.08190916e-01 -2.92747375e-02 -8.35358799e-02 +1.27596900e-01 -1.65511817e-02 -2.43371464e-02 +8.89185220e-02 -2.44291909e-02 -2.04418883e-01 +5.21991514e-02 -4.47753221e-02 -8.70868191e-02 -3.12802792e-02 +7.99018815e-02 -2.11334042e-02 -6.40374869e-02 +6.09982125e-02 +2.80373935e-02 +1.41776562e-01 -7.93252140e-02 -9.78969503e-03 -1.62392631e-02 +4.34674323e-02 +6.63908049e-02 +3.65512595e-02 -4.88519333e-02 -5.37992194e-02 +1.19096234e-01 +7.81664029e-02 -8.31252635e-02 +1.00095071e-01 +7.39650577e-02 -1.87141970e-02 +3.76312472e-02 -1.60653010e-01 +9.95259359e-03 +1.35358468e-01 -8.55572224e-02 -1.11457407e-01 -4.36425209e-03 -1.96834639e-01 +2.83136636e-01 +1.58516675e-01 +8.12531710e-02 +1.40619397e-01 -8.07323381e-02 +8.43990669e-02 +4.65404242e-02 +7.25552812e-02 +4.90442589e-02 +1.22954845e-01 +1.88094437e-01 +1.13701671e-02 -1.98744386e-01 +1.12330699e-02 +1.30184755e-01 -1.13590047e-01 +1.47066033e-02 +5.74219786e-02 -5.91558181e-02 -9.08431411e-03 -2.62391958e-02 +1.04031913e-01 -6.89804778e-02 -1.37636095e-01 -1.16116777e-01 +6.57292977e-02 +1.07492402e-01 -8.10673982e-02 +6.88008219e-02 +8.37989375e-02 -1.05498947e-01 -7.56987929e-02 +3.82259325e-03 +1.34341434e-01 -5.67104667e-02 +1.44916877e-01 -9.46943909e-02 -1.22877941e-01 -7.59661272e-02 +1.60746515e-01 +2.95609478e-02 -4.01951633e-02 +6.97239488e-02 +7.23113790e-02 -7.76092634e-02 +2.98604779e-02 +3.69967669e-02 +5.75303026e-02 -6.89273998e-02 -1.00267783e-01 +7.17530921e-02 -1.37258023e-01 -7.59506375e-02 -5.81077039e-02 -1.11141354e-01 +5.73718026e-02 +3.18427645e-02 -9.85633358e-02 +1.75392285e-01 +1.08423762e-01 +1.03161130e-02 -4.49821912e-02 -4.17894535e-02 +7.14960415e-03 +6.99164271e-02 +2.68517043e-02 +8.36969540e-03 -5.96272461e-02 +2.32065871e-01 +5.58045767e-02 -9.30831209e-02 +1.03189632e-01 +7.26516843e-02 -1.29083440e-01 +1.23100162e-01 -6.04375303e-02 -7.14944154e-02 +1.60456404e-01 -3.28192003e-02 +1.45231280e-02 -8.63384008e-02 -1.18883997e-01 -1.96268827e-01 -1.76271908e-02 -1.18923761e-01 -4.18956168e-02 -8.92958790e-03 +2.63529360e-01 -1.54471815e-01 +4.56970409e-02 +7.91436657e-02 +7.08966255e-02 -2.12495610e-01 -2.39305988e-01 -3.42927105e-03 +1.51274160e-01 -3.68940122e-02 -4.77097705e-02 -2.95625185e-03 -2.01960132e-01 +1.91732645e-02 -6.14354247e-03 +7.56338704e-03 +6.69786008e-04 -2.57998943e-01 +4.12968546e-02 -1.16490155e-01 -2.15949178e-01 -7.47784041e-03 +2.50098743e-02 +5.44338115e-03 +9.35772900e-03 +3.29396054e-02 -8.84367302e-02 -1.28646106e-01 -5.09341471e-02 +4.63448949e-02 -3.54259796e-02 +7.66569301e-02 +1.36667565e-01 +2.93736365e-02 +4.36794236e-02 -4.51428480e-02 -2.54134107e-02 -2.16666758e-02 -1.40209258e-01 +6.25414550e-02 -5.45352884e-02 -7.98756182e-02 -4.50158790e-02 +6.14521354e-02 -1.14855267e-01 -2.23718323e-02 -1.03509203e-01 +1.03817180e-01 +1.06638029e-01 -2.47320056e-01 -3.19232345e-02 -1.24683967e-02 +8.50395933e-02 -4.65348102e-02 -1.82131961e-01 -3.88033465e-02 -1.74738113e-02 -9.27261189e-02 -1.52987972e-01 -8.93993676e-02 +1.59578905e-01 +2.23135754e-01 -3.15640457e-02 -2.13843957e-02 -1.36861252e-03 +9.01891887e-02 +1.29385367e-01 -1.08967796e-01 +1.08385645e-01 -5.52646331e-02 -1.26181379e-01 +7.87683800e-02 -1.30685285e-01 +2.81581972e-02 +2.62705088e-02 +9.43802372e-02 +7.54475594e-02 -7.77318254e-02 +1.10611999e-02 -3.13996635e-02 +1.42898753e-01 +2.32304372e-02 -5.84789179e-02 -1.44208325e-02 +1.43805705e-02 -8.52800459e-02 -3.88486162e-02 +1.14984959e-01 +2.95196138e-02 -5.76282032e-02 +5.26932180e-02 -7.66720548e-02 +1.07216455e-01 -5.30310757e-02 -2.32881363e-02 +5.54179139e-02 -7.08462298e-02 -4.85405661e-02 -2.40441058e-02 -1.54193491e-01 -8.42511561e-03 +6.99225720e-03 -9.09391716e-02 +2.84654461e-02 -2.72289906e-02 -9.39615294e-02 +6.84626549e-02 +2.71045249e-02 +2.23621915e-04 -2.36994904e-02 +4.73753735e-02 -2.56398618e-02 +4.80884239e-02 -3.45775448e-02 +4.85871844e-02 +3.70438211e-02 +2.19817981e-02 +1.32413685e-01 +2.45453287e-02 -4.87730652e-03 +6.20691739e-02 -1.33193657e-01 -5.02728811e-03 -2.05776673e-02 -1.14286296e-01 +2.60727871e-02 -8.54742900e-02 -1.21321343e-02 -1.00784980e-01 +6.01345040e-02 -7.41886199e-02 -4.53900471e-02 +2.64952723e-02 -3.18880491e-02 +9.37932506e-02 -3.19651812e-02 +6.23504585e-03 +4.66915593e-02 +1.97235234e-02 +4.31195088e-02 -1.85156278e-02 +5.18321432e-03 -4.20473740e-02 -6.69407472e-02 -1.32927403e-01 -2.39655990e-02 -3.42031941e-02 -2.94842068e-02 -3.44814034e-03 +6.83377264e-03 +3.20590846e-03 -6.79411143e-02 -1.34858582e-02 +8.22317079e-02 +4.38016839e-02 +7.16508925e-02 +3.84373255e-02 +8.05004239e-02 +2.00316682e-02 +8.01749807e-03 +1.69160180e-02 -1.00954503e-01 +6.73329085e-02 +1.39423132e-01 -4.22349274e-02 -1.90334748e-02 +5.69588505e-03 -1.42682530e-03 +1.59838587e-01 -1.72725037e-01 -5.91211021e-02 -1.32536842e-02 -5.24930842e-02 +1.82360522e-02 -6.34071976e-02 +5.67726828e-02 +2.57479902e-02 -1.24937417e-02 +1.00041397e-01 +5.56240194e-02 -1.43524885e-01 +1.34270877e-01 -1.06787629e-01 +1.23288743e-01 -1.64530124e-03 +5.21008596e-02 +7.69945681e-02 -3.14146164e-03 -4.91800457e-02 +2.41878461e-02 +8.31527710e-02 +1.79092158e-02 -9.69103351e-02 +7.70398155e-02 +6.23486191e-02 +1.90140437e-02 -7.29235262e-02 -5.24676815e-02 -5.15943803e-02 -3.76787782e-02 +5.07981144e-02 -1.19637892e-01 +3.25111933e-02 +6.58680126e-02 +4.83463742e-02 +7.25047812e-02 +5.90849519e-02 +7.76989385e-02 -4.07395922e-02 -1.61225379e-01 +9.24736559e-02 +1.68436598e-02 +2.01169983e-03 +9.72027332e-02 -3.91223580e-02 +2.22057533e-02 -2.62500439e-02 +2.71982211e-03 -1.55160546e-01 +9.30547267e-02 +3.36762331e-02 -1.00278668e-01 -5.94591312e-02 -6.73593730e-02 +1.40033690e-02 -1.42105808e-02 +3.92129971e-03 +6.51267171e-02 -2.02406999e-02 +3.73905934e-02 -3.56862992e-02 -1.47300893e-02 +5.00178970e-02 -1.03942379e-01 +1.95218027e-02 +5.38040884e-02 +8.74997601e-02 +4.23308872e-02 +1.18026631e-02 +5.02694994e-02 +8.67233574e-02 -1.84410010e-02 -2.90496685e-02 -1.71202514e-02 +1.02128508e-02 -4.08245437e-03 +6.16391599e-02 -7.74762928e-02 -1.35800457e-02 +8.84611011e-02 -9.42071453e-02 -2.36980524e-02 -9.95910633e-03 -3.47236469e-02 +5.56046329e-02 +3.50499935e-02 -1.31104626e-02 +1.84827782e-02 -2.02883407e-02 -2.27271337e-02 +7.10023418e-02 +1.78205427e-02 -5.69293536e-02 -1.80369187e-02 -8.73711407e-02 +1.15260610e-03 -4.56845686e-02 -3.74406055e-02 -4.68172645e-03 -8.90925303e-02 +3.89967905e-03 +1.42381638e-02 +1.02133490e-01 -3.96537371e-02 -4.81002219e-02 -3.94933484e-02 +3.37038897e-02 +9.80018172e-03 +8.00881833e-02 -7.24709546e-03 -4.19508852e-02 -3.83974090e-02 +3.37187573e-02 -1.03956703e-02 -1.42414257e-01 +1.57080535e-02 -6.25799522e-02 -1.55551927e-02 -1.86071619e-01 +1.23060666e-01 -7.85946622e-02 +2.96143703e-02 +2.45544314e-01 +7.34962448e-02 -7.92747885e-02 +2.64266338e-02 +4.28737700e-03 +1.22104645e-01 -1.71636343e-01 +1.58996910e-01 -1.16353199e-01 +5.41489013e-02 -9.66817066e-02 +1.60954550e-01 -1.67312577e-01 +8.44655037e-02 +5.29829264e-02 +1.43254995e-01 +4.90585342e-03 +1.18056126e-01 +5.24796583e-02 -1.50829911e-01 +7.19475746e-03 +2.99483865e-01 +4.24951687e-02 +1.39546320e-01 +1.73527300e-01 +1.89692482e-01 +8.98652747e-02 -4.79559973e-02 +1.22309193e-01 -1.45857818e-02 +1.10483058e-01 +1.67148843e-01 +4.66522053e-02 +5.23549020e-02 -1.00219510e-01 -3.38589549e-02 -4.66490723e-02 -1.20702110e-01 -1.11768685e-01 -3.02414540e-02 -1.53068393e-01 -9.33397412e-02 -2.88956817e-02 -7.54066855e-02 -1.99571550e-01 -4.84101586e-02 -2.44200174e-02 +5.56981601e-02 +9.77035388e-02 +5.12180142e-02 +8.95130858e-02 +6.38594553e-02 -1.49168307e-02 -1.61510147e-02 +2.48304539e-04 +8.26726705e-02 +9.73699242e-02 -7.31202811e-02 -1.62836816e-02 -2.77085956e-02 -5.45837544e-02 -1.15343839e-01 +8.59924778e-02 -1.53045192e-01 -6.55842423e-02 +2.56863665e-02 +3.83122787e-02 +8.95917565e-02 -1.15366906e-01 +7.00381845e-02 -1.79251265e-02 +6.97418228e-02 -2.36810427e-02 -2.19242975e-01 +9.40244496e-02 -7.03323781e-02 +1.80596709e-01 -1.55484667e-02 +5.36212027e-02 -6.35434911e-02 -1.11138657e-01 -1.53439557e-02 +4.40198183e-02 +4.22177417e-03 -2.61264443e-02 +1.13817297e-01 +8.37076306e-02 -8.19511116e-02 -6.53508157e-02 -8.58189762e-02 +9.23856068e-03 +3.13810110e-02 -5.43966331e-02 +1.51645616e-01 -3.26008014e-02 +8.24081376e-02 -6.40431195e-02 -9.60109662e-03 +1.63429454e-01 -4.18177024e-02 +1.59862801e-01 -7.67889097e-02 -2.97981314e-05 -2.76262276e-02 -5.25721572e-02 +1.85886562e-01 -1.00036979e-01 -2.46699564e-02 +3.23278247e-03 -7.91383982e-02 -4.10055332e-02 +3.62148397e-02 -1.44085646e-01 -1.22969955e-01 +3.78216282e-02 +1.89746439e-01 +1.13234306e-02 +7.67112002e-02 -1.35065034e-01 +1.91209778e-01 -9.08695161e-02 +1.13899693e-01 -1.07121043e-01 -1.06878512e-01 +5.73311672e-02 -1.34850785e-01 +1.16914481e-01 +1.11929113e-02 -1.05878189e-01 -4.37240750e-02 +5.42985946e-02 +1.46174625e-01 -2.08431166e-02 +1.26631586e-02 -1.09504253e-01 -6.98835626e-02 -2.10757673e-01 -1.94358274e-01 -1.05684437e-01 -3.85387763e-02 +2.25017890e-01 +8.59934464e-02 -2.06745323e-02 +1.21661462e-01 -9.79855098e-03 -1.43951118e-01 +5.32390401e-02 +1.44756377e-01 -1.32237032e-01 +3.51500101e-02 -9.34634432e-02 +3.13125849e-02 +6.70623360e-03 -7.88811371e-02 +2.05652565e-02 -5.89547679e-02 +2.15866626e-03 -1.28887892e-01 +3.94005589e-02 +8.18917230e-02 +8.19656327e-02 +2.63300948e-02 -8.00311714e-02 -7.50024915e-02 +5.36207072e-02 -7.21339602e-03 -7.72922188e-02 +7.67750442e-02 +1.58426106e-01 +4.45333198e-02 -7.62813538e-02 +3.55939716e-02 -4.19723475e-03 +1.16374739e-01 -4.53741755e-03 +7.47758970e-02 +8.41361284e-02 +1.71685770e-01 -1.16545349e-01 +7.30804652e-02 -1.35359734e-01 +1.06409244e-01 -1.81946874e-01 -6.16915636e-02 -3.64127271e-02 -2.34928839e-02 +9.02468488e-02 +1.43980542e-02 -2.32596137e-02 -4.03509103e-02 +1.46904871e-01 -9.25379805e-03 +8.82829949e-02 -4.48459126e-02 -1.65467858e-01 +6.51887655e-02 -1.07167780e-01 +8.85933489e-02 +1.56781882e-01 +6.27469793e-02 +5.67210987e-02 -2.47235857e-02 -7.05788806e-02 +2.77808458e-02 +5.98053969e-02 +1.99692845e-02 -4.06170450e-02 -7.54282326e-02 +1.03537932e-01 +8.48809183e-02 -9.33410600e-02 -7.37418830e-02 -3.29031199e-02 +3.10829002e-03 -1.24001503e-01 +2.82766838e-02 +1.14520207e-01 -4.22559865e-02 -8.13852102e-02 +4.63300496e-02 +1.21601291e-01 +4.09904607e-02 -1.66167133e-02 +1.15696937e-01 +2.11573802e-02 -2.32801363e-02 -9.39003378e-03 -7.95836896e-02 +2.67823320e-02 -5.14287464e-02 -9.60438792e-03 +1.60323590e-01 +4.31217141e-02 -1.40993536e-01 -5.94548956e-02 +1.58593684e-01 -1.37152895e-02 -9.77007076e-02 -2.41906829e-02 +6.45809993e-02 +1.11299001e-01 +1.85228698e-02 -9.82353613e-02 -2.84277592e-02 -1.31101325e-01 +4.18107025e-02 +1.41271800e-01 +5.08003403e-03 +4.43002060e-02 +4.34458349e-03 +1.25561297e-01 +2.26733889e-02 -1.03713974e-01 -1.91973262e-02 -1.59624498e-02 -7.08712935e-02 -6.79992139e-02 -1.79966800e-02 -1.63975388e-01 +6.17704131e-02 +9.03758332e-02 +6.82148859e-02 +6.81578591e-02 +8.82325545e-02 +5.59011996e-02 +5.22952639e-02 -8.44906736e-03 -7.36150742e-02 -1.44161209e-01 +3.02840676e-03 +8.15769359e-02 -2.03379206e-02 +1.32224234e-02 +3.16008814e-02 +6.42561913e-02 +8.71454850e-02 +3.70117836e-02 -1.34401964e-02 +9.36576203e-02 +4.27561589e-02 +3.56854461e-02 -1.96891606e-01 +8.71558189e-02 -1.37914822e-01 +1.02511585e-01 +4.57389131e-02 +1.05914436e-01 +1.28941350e-02 -1.45282879e-01 +1.52389435e-02 -3.85229550e-02 -3.44828703e-02 +7.93307424e-02 -3.66330519e-02 +1.42275365e-02 -2.40386301e-03 +2.56256014e-02 -7.79654458e-02 +2.69215226e-01 +1.20992092e-02 +7.63127282e-02 -4.66537662e-02 +7.51347793e-03 +6.65781721e-02 -9.35342237e-02 +1.50386314e-03 +1.76252536e-02 -6.34261072e-02 -9.60799307e-02 -5.06561622e-02 -9.15886238e-02 +3.41438986e-02 +1.87341675e-01 -7.69376010e-02 -1.29326195e-01 +1.25982119e-02 +2.30008569e-02 +4.85824933e-03 -9.41336676e-02 +4.47755009e-02 +7.32202306e-02 -7.22054839e-02 +5.89500591e-02 +9.97720361e-02 -4.33657803e-02 -6.69389218e-03 -4.98497747e-02 -3.17511521e-02 -1.41802862e-01 -5.21663055e-02 +1.05373085e-01 -1.78003032e-02 +1.38374910e-01 +1.75474547e-02 +2.40154099e-02 +1.36422087e-02 +9.79605597e-03 +6.39060289e-02 -1.35408407e-02 -1.52971614e-02 -5.23312539e-02 +5.51835597e-02 -1.01796212e-03 -7.71284774e-02 +7.65585974e-02 -1.54244125e-01 +8.64713918e-03 +1.08600423e-01 -1.25575662e-02 -1.43868521e-01 +9.82798752e-04 -2.40462869e-02 -2.10433151e-03 +2.18293183e-02 +3.51044945e-02 -1.26422243e-02 +4.80142497e-02 +1.06233153e-02 -1.42016768e-01 -4.90195714e-02 +2.34580040e-02 -7.05250427e-02 +1.23973340e-02 +4.77314601e-03 +1.12890098e-02 +4.36743014e-02 -1.60183117e-03 -8.02348182e-02 +2.34512426e-03 +2.57462543e-02 -5.30669913e-02 -2.51118150e-02 -2.16268133e-02 -3.12387347e-02 +8.24759081e-02 -6.66102767e-02 -6.67795911e-02 -1.51998261e-02 +9.61492285e-02 -5.89529313e-02 +5.70355542e-02 -5.89729287e-03 +2.33700816e-02 +7.09421709e-02 +8.50762427e-02 -1.25050433e-02 +7.70402178e-02 +1.29478695e-02 +8.88206810e-02 +2.85033677e-02 +3.83257307e-02 -8.54082555e-02 -5.27499691e-02 -1.89146399e-02 -1.35546878e-01 -1.01498544e-01 -1.83163747e-01 -2.43985485e-02 -2.03494325e-01 -1.23789668e-01 -1.52043223e-01 -7.25047141e-02 -1.12102829e-01 -8.11273828e-02 -1.40457749e-01 -9.54609960e-02 +5.03379758e-03 -1.18171312e-01 -6.23974688e-02 +7.34365061e-02 -1.89133137e-02 -4.62940149e-02 -1.20758846e-01 -1.92768425e-01 +4.08850983e-02 -1.23764157e-01 -1.52608797e-01 -6.48386329e-02 -8.85906965e-02 +9.29970294e-02 -1.15913503e-01 +8.04448575e-02 +2.56839469e-02 +1.39159128e-01 +1.34059459e-01 -9.39484313e-02 -6.00238517e-02 -2.28511188e-02 +1.73808753e-01 -9.96101871e-02 +4.38388586e-02 -3.69888395e-02 -2.28666544e-01 -8.00939128e-02 -9.28585231e-02 -4.96083051e-02 +3.48880142e-03 +1.64126113e-01 +8.55406746e-02 -1.48023413e-02 -1.64274983e-02 +8.28478858e-02 +6.84085414e-02 +3.41798253e-02 -3.95099744e-02 +2.08694756e-01 +1.54200941e-01 -1.75717965e-01 +1.29543602e-01 -2.22775750e-02 +1.04020983e-01 +2.43838839e-02 +4.71368106e-03 +6.35224581e-02 -5.57785891e-02 -6.17855527e-02 +6.55761883e-02 +5.05137630e-02 +4.07593027e-02 -3.01067214e-02 -9.17243510e-02 +2.44361926e-02 +1.12382218e-01 -2.60265097e-02 -1.05047785e-01 +1.25266314e-01 +1.12465240e-01 +6.15560710e-02 +7.00288042e-02 -9.43432655e-03 +2.01762244e-01 +1.15527600e-01 -2.55781449e-02 +4.08539809e-02 +1.12052336e-02 +2.11464800e-02 -5.71835637e-02 +4.43020649e-02 +4.26543318e-02 +5.96905686e-02 +6.91791996e-02 -2.78597083e-02 +6.70921952e-02 +1.50342926e-01 +1.02928534e-01 -2.44098619e-01 +1.33182257e-01 -9.22773406e-02 +1.46465689e-01 +7.54551589e-02 -2.59395808e-01 +2.22363826e-02 -1.27608314e-01 +9.54820961e-03 +1.79255396e-01 +6.58802316e-02 -5.06366529e-02 +2.26190284e-01 +7.78432339e-02 -7.51084462e-02 -2.03452960e-01 +2.03686897e-02 -6.27960935e-02 -1.26352042e-01 -9.19017270e-02 -8.74011219e-02 -4.04655300e-02 -1.26048237e-01 -6.54295087e-02 +1.76980764e-01 +1.06126823e-01 -1.17412582e-02 +8.73943120e-02 +2.15137172e-02 -7.42783248e-02 -1.13395162e-01 -1.54774234e-01 -8.52400586e-02 -6.00693971e-02 -1.76411066e-02 +8.00891686e-03 +1.41178071e-01 +9.10732523e-02 +6.04982823e-02 -2.49369331e-02 -1.10827930e-01 -1.04249232e-02 -4.08351906e-02 +1.06015261e-02 +3.35063972e-02 +6.96318820e-02 -2.07030028e-01 -1.50255365e-02 -1.02755114e-01 -9.31859165e-02 -1.08945668e-01 +8.79846662e-02 -1.82486415e-01 +1.22364223e-01 -1.11814495e-03 +6.09833747e-02 +1.11219533e-01 -6.99592456e-02 -5.48372567e-02 +1.30042851e-01 -4.44252118e-02 -5.18248715e-02 -1.86637267e-01 +1.34046882e-01 +1.21508628e-01 +3.86329293e-02 -6.34154156e-02 +7.03723431e-02 -1.68366218e-03 +3.29044908e-02 -3.63500901e-02 +6.54406995e-02 +8.52086470e-02 -4.94602844e-02 -5.89749543e-03 +2.60707992e-03 +9.33089331e-02 +1.09404856e-02 -5.72150899e-03 -2.15507783e-02 -5.69454283e-02 -6.84839161e-03 +4.34582271e-02 -1.14663973e-01 +7.44815962e-03 +6.85623363e-02 +2.49496296e-01 -3.57039981e-02 +1.47108898e-01 -6.27900064e-02 -5.60388193e-02 -5.23042642e-02 -1.91975106e-02 +4.96744663e-02 -1.43106759e-01 +5.71894608e-02 +8.94133672e-02 -1.05355002e-01 -8.64432529e-02 -3.73797938e-02 +2.26367176e-01 +4.42376249e-02 +1.41430506e-03 -1.41731426e-01 -9.09747034e-02 +9.53061581e-02 -2.50178622e-03 +2.03555003e-01 -6.64992779e-02 +2.26818267e-02 +2.31664032e-02 +1.00715391e-01 +7.36928592e-03 -4.00066301e-02 -4.92129382e-03 -2.50259731e-02 +1.63786784e-02 +1.69428177e-02 +3.70175275e-03 +6.02582693e-02 +3.42198908e-02 -6.39852211e-02 +1.72655955e-02 +1.18721902e-01 +5.80828264e-02 +8.39640200e-02 +1.17887244e-01 +8.84770826e-02 -2.63316161e-03 -2.10026816e-01 +1.69439446e-02 +8.43096450e-02 +1.21219844e-01 +2.46830808e-04 -5.98585084e-02 +9.33754072e-02 +6.29427657e-02 +5.12231551e-02 -1.50260665e-02 -7.73960426e-02 +9.99011248e-02 +5.13362139e-03 +5.88093810e-02 -1.02051377e-01 +3.94230410e-02 +8.71972367e-02 +5.03266156e-02 +1.55749004e-02 +3.39434482e-02 -1.36750579e-01 +3.52358706e-02 +6.19824305e-02 -2.88644864e-04 +5.88150695e-02 +1.28689855e-02 +2.52803545e-02 +5.88902682e-02 -1.54463783e-01 +1.04858570e-01 +2.63214502e-02 +9.12612081e-02 +2.83332113e-02 -4.06340882e-02 -3.49132158e-02 -9.73503813e-02 -1.03330854e-02 -7.63326436e-02 -3.36808478e-03 +1.03188977e-01 -8.52103531e-02 +1.47200212e-01 -1.43602297e-01 +2.55634546e-01 +4.51045856e-03 -2.82897353e-02 -1.76730648e-01 +1.03681013e-01 +2.82959715e-02 +7.03131184e-02 -8.93309265e-02 +1.82870105e-01 +1.68008626e-01 -3.22992168e-03 +8.18518922e-02 -1.37811407e-01 +3.18549871e-02 -3.11094187e-02 -2.96267308e-02 -5.26717640e-02 +3.01026609e-02 +1.67380899e-01 -4.59113112e-03 -2.28250585e-02 +1.51722413e-02 -1.26679903e-02 +3.12615465e-03 -1.84453430e-03 -1.29578933e-01 -9.17317346e-02 -9.25126076e-02 -8.08026344e-02 -2.45919507e-02 -1.47860020e-01 +2.72245333e-02 -1.11651294e-01 -7.00368583e-02 -1.76275358e-01 +1.81556255e-01 +3.14470194e-02 -3.16392146e-02 +2.16866538e-01 +2.27467977e-02 +8.70713405e-03 +1.23750316e-02 +3.73964943e-02 -1.39924269e-02 +1.97455347e-01 +8.52447897e-02 -5.46928421e-02 -1.23602264e-02 -8.79118815e-02 -2.22652644e-01 +1.21434569e-01 -3.18939127e-02 +7.43307695e-02 +1.54855862e-01 +7.96425119e-02 -3.45854498e-02 -3.96702858e-03 -1.30244168e-02 -7.41133392e-02 +2.70564053e-02 +9.82352942e-02 -6.84800223e-02 +3.94928791e-02 +3.16481702e-02 +4.05245423e-02 +2.77975947e-02 -9.09010023e-02 -8.47520009e-02 +9.34384689e-02 +7.27362484e-02 -1.31999657e-01 +4.15077023e-02 -2.13260241e-02 -1.07661290e-02 -7.57233202e-02 -1.22003064e-01 +4.00904380e-03 +1.38555747e-02 -7.82813132e-02 +1.10881671e-01 -1.06097758e-01 +8.27645659e-02 +4.42925282e-02 +4.31551486e-02 +1.83138251e-02 -7.99354538e-02 -1.77817717e-02 +7.15946034e-02 +7.87502602e-02 +7.03758821e-02 -4.59031388e-02 -3.40244994e-02 -7.52239348e-03 +6.23320900e-02 +7.82664791e-02 +9.11135599e-02 -4.25599962e-02 -1.82507727e-02 -1.48162646e-02 +3.33052650e-02 +9.27809700e-02 -1.12120854e-02 -3.24246995e-02 +5.13921715e-02 -1.55914903e-01 -3.64233628e-02 +5.03084064e-02 +7.29252724e-03 +1.60898402e-01 +3.75119485e-02 +1.04406156e-01 -1.11610331e-01 -9.29237902e-02 -2.57485118e-02 -6.61994219e-02 -4.85970899e-02 +4.67261672e-02 +9.54014156e-03 -8.07284713e-02 -8.63745138e-02 +7.04896599e-02 +1.59680739e-01 +4.26383549e-03 -2.82355845e-02 +7.91222230e-03 -1.34266168e-01 +5.85761853e-03 -1.05823740e-01 +1.68345362e-01 +6.29497087e-03 +5.54909855e-02 -9.58044976e-02 -1.02006793e-01 +2.47344021e-02 -2.74158400e-02 +3.47617939e-02 -3.14575247e-02 -7.50352144e-02 +4.67933714e-02 -4.42699268e-02 -6.00935705e-02 -1.49215544e-02 +3.50871086e-02 -1.36928871e-01 -2.30164267e-02 -1.52137741e-01 -6.61132857e-02 -8.43742341e-02 -1.27072945e-01 -2.33776867e-02 -2.24379171e-02 -1.09674156e-01 +2.60831732e-02 -2.65181269e-02 -1.15760826e-01 -1.18363693e-01 +7.87219927e-02 -2.65840262e-01 -2.36915648e-01 -4.74454910e-02 -1.01960100e-01 +2.68479176e-02 -3.11392304e-02 +4.36382852e-02 +4.64037135e-02 -9.52426493e-02 +4.52062823e-02 -1.19787022e-01 +1.72041118e-01 +1.56913102e-02 +5.18620983e-02 -1.49387717e-01 -2.50101238e-02 -4.47051600e-02 -1.83177695e-01 -2.00717345e-01 +1.77319534e-02 -1.54371381e-01 -9.71229747e-02 +4.05464545e-02 -1.43036947e-01 -1.13262787e-01 +1.00233154e-02 +2.92846770e-03 -5.17500266e-02 -4.87608947e-02 +6.78542182e-02 -1.81648554e-03 +2.98020318e-02 -6.79282546e-02 -3.40084769e-02 +9.42690596e-02 -5.44142723e-02 +8.73764604e-02 +2.78871786e-03 +6.99848384e-02 -1.95229426e-02 -9.68188979e-03 +1.90608636e-01 -2.63224170e-02 -2.04132851e-02 +1.01363726e-01 -9.45581123e-02 +4.57012430e-02 +1.11812875e-02 -2.86506210e-02 +5.70554174e-02 +9.28617865e-02 +5.86937517e-02 +3.32959667e-02 +1.10149115e-01 +1.95182055e-01 +3.71595509e-02 +1.07417367e-01 -7.54417852e-03 +4.89543676e-02 +1.02132492e-01 +5.66402338e-02 +9.47653353e-02 +1.10010266e-01 -2.11581644e-02 +7.56338015e-02 -8.06983411e-02 +9.01891962e-02 +3.38246897e-02 +1.21026680e-01 -2.81232130e-02 +9.34750289e-02 +1.58238458e-03 +6.43302500e-02 -6.07807785e-02 -4.26573679e-02 -1.36381879e-01 -2.06268635e-02 -7.92235732e-02 +1.86536424e-02 -1.57827124e-01 +4.99390252e-03 +9.45866015e-03 -4.27536070e-02 +3.10944067e-03 -1.69252232e-02 -7.06072152e-02 -4.60741147e-02 -5.56281209e-02 +2.44340254e-03 -2.32508361e-01 +4.15601321e-02 +2.66375467e-02 +5.26133403e-02 +8.33450407e-02 -5.57949245e-02 -4.27732728e-02 -8.45413283e-02 -2.35685170e-01 -1.14726938e-01 -2.02659909e-02 -7.90091231e-02 -9.95083153e-02 +3.57196815e-02 -1.01337485e-01 +1.96744595e-02 +1.27409071e-01 +1.20572618e-03 -3.60880345e-02 +2.31198631e-02 -7.79773593e-02 -8.03970098e-02 +3.75688896e-02 -6.00228719e-02 -1.00552551e-01 -1.42932042e-01 +6.76727369e-02 -1.44447282e-01 -1.14756823e-01 -2.30156735e-01 -1.23695806e-01 +9.92617756e-02 -5.03899343e-02 -3.38291824e-02 -3.45818661e-02 -7.72611648e-02 -7.16338083e-02 +8.23170394e-02 -3.62097919e-02 -1.29680429e-02 +1.29228234e-02 +8.71705860e-02 -5.67057729e-02 +2.99309194e-02 -8.21960494e-02 +7.53524676e-02 +3.54283676e-02 -3.86531241e-02 -2.57840939e-02 +7.96514470e-03 +6.16510678e-03 -5.74240871e-02 -2.86680888e-02 +1.73655078e-01 -3.70334350e-02 +3.72896567e-02 +5.65098077e-02 -1.00358191e-03 +3.04157808e-02 -8.34686588e-03 -8.17552134e-02 +6.57322407e-02 +4.40246947e-02 +2.72820629e-02 -8.84756166e-03 -2.13772170e-02 -1.54916346e-01 -3.54257636e-02 +1.56940706e-02 +4.77457084e-02 -7.83311501e-02 +5.87629713e-02 -9.86997411e-02 +2.79477704e-02 +5.62883578e-02 -4.25249003e-02 -1.51174754e-01 +7.61906104e-03 +1.98950674e-02 -8.84664506e-02 -7.90715739e-02 +9.21547711e-02 -5.40869646e-02 +1.42997596e-02 -4.84183244e-02 +3.98287103e-02 +1.37549825e-02 +5.00047989e-02 +4.85143475e-02 +8.05372223e-02 +1.55913159e-01 +1.07755452e-01 +1.64110139e-01 +2.27282763e-01 -5.86167015e-02 +1.82124436e-01 -1.26459934e-02 +2.01791316e-01 +2.01850936e-01 +4.30579409e-02 +1.79648742e-01 +1.91323292e-02 +9.52007100e-02 +1.82279870e-01 -5.50801679e-02 +9.63982195e-02 +1.33004755e-01 -6.53259084e-02 +7.54282698e-02 +7.90801942e-02 -2.78488752e-02 +2.05161095e-01 -1.88908856e-02 +8.09576362e-02 +4.28897254e-02 +2.40134425e-03 +1.47707596e-01 +9.31370035e-02 +1.20199593e-02 +4.48439717e-02 +6.41006678e-02 -1.14684016e-01 +1.96666539e-01 -1.13360219e-01 +2.56945007e-03 +1.29599348e-01 +1.85138583e-01 +7.75476322e-02 +1.05860807e-01 -4.29327637e-02 -5.94087988e-02 +7.94718857e-04 +4.46722880e-02 +1.29273966e-01 +4.12581116e-02 +3.97367068e-02 -1.86656006e-02 +1.58455800e-02 -6.63995072e-02 -3.44139636e-02 +8.57449546e-02 +4.40557264e-02 +5.56907095e-02 +5.00340350e-02 +1.12596832e-01 -2.35849425e-01 -5.60556874e-02 -3.37054580e-02 -1.32523477e-01 -6.38220832e-02 -2.66055651e-02 +2.40818337e-02 -1.60422012e-01 +1.12697138e-02 -3.30843367e-02 -1.86996274e-02 -8.22840258e-02 +4.68461737e-02 -7.67990351e-02 +2.31390838e-02 +4.62921076e-02 +2.11139321e-02 -1.16088681e-01 -4.80241403e-02 -1.04600541e-01 -2.97750328e-02 -8.52522478e-02 -2.08681636e-02 -3.65327932e-02 +2.55545974e-02 +8.00103024e-02 -1.26856104e-01 -7.74933547e-02 +2.21652146e-02 -1.43039629e-01 -4.75073699e-03 -2.57079024e-02 -1.92197040e-01 -1.20076075e-01 -1.81928987e-03 -1.81083232e-02 +1.10907860e-01 +4.11306284e-02 -2.03262806e-01 +3.52956206e-02 -3.85777913e-02 -5.23808748e-02 +2.16949061e-01 +4.76098321e-02 +1.25884831e-01 +6.24411702e-02 -5.27930856e-02 -5.35356142e-02 +1.42671958e-01 +8.06207582e-02 +7.79058337e-02 +1.67024046e-01 +2.69647520e-02 +9.35641378e-02 +2.42819055e-03 +1.14972726e-01 +7.28437528e-02 +1.08345486e-02 +5.90264611e-02 -3.75213474e-02 -1.69332400e-02 +8.61893520e-02 +8.94723237e-02 +1.18059978e-01 +1.90660253e-01 +8.09704736e-02 +8.07064772e-03 +5.77298962e-02 -1.36683844e-02 +1.72002181e-01 +3.15358303e-02 +1.74436886e-02 +1.79780141e-01 +4.18370590e-02 -2.39988454e-02 -3.21490839e-02 -3.79678234e-02 +1.14091367e-01 -2.11022142e-02 +4.30686027e-02 +9.21425149e-02 +1.34464905e-01 +2.43586451e-02 +1.93063110e-01 +5.21451198e-02 +1.40300035e-01 +1.83585770e-02 +9.33249593e-02 +8.46444815e-02 -5.25916032e-02 +1.71240807e-01 +5.01574725e-02 -5.64797670e-02 +5.19530522e-03 -6.71292096e-02 -5.44142164e-02 +5.60710169e-02 +1.16311453e-01 -4.39535826e-02 +2.24849395e-02 -2.52558924e-02 +4.90473844e-02 +1.83027203e-03 +8.20662305e-02 -7.78794363e-02 +1.21628009e-02 -1.00425482e-01 +4.24853712e-02 +8.50320235e-03 -1.04682572e-01 -4.71537858e-02 -9.61284339e-02 +7.37162456e-02 -3.03877667e-02 -1.06465481e-01 -5.06755635e-02 -4.69922833e-02 +1.94110826e-01 +2.79629119e-02 -1.48886621e-01 -9.11638066e-02 +7.80341104e-02 -2.88487524e-02 +3.03598773e-02 +2.08027344e-02 -1.83052212e-01 -2.08253581e-02 -6.35439306e-02 -1.20935934e-02 -2.04614010e-02 -6.00801893e-02 -2.75572091e-02 +5.01947589e-02 +9.57392082e-02 +1.80833086e-01 +9.36866701e-02 +1.39643848e-02 +5.03453352e-02 +7.31277913e-02 -9.30433348e-02 +8.06096010e-03 -2.51422240e-03 +1.51344612e-01 -7.60172904e-02 +1.66666627e-01 +1.56619132e-01 +1.58898160e-02 +2.18683645e-01 +2.20254108e-01 +2.53471881e-02 -1.08169816e-01 -1.97966397e-01 -8.99768546e-02 +5.11337519e-02 +2.10359737e-01 +5.88154085e-02 +1.49660274e-01 -2.12485231e-02 +8.10272321e-02 +2.16067374e-01 -5.27768433e-02 +2.10444465e-01 +1.04083441e-01 +2.64397502e-01 -1.71967924e-01 -2.28060838e-02 +4.63962443e-02 -5.06365262e-02 +1.37120113e-01 +1.50381938e-01 -8.24224576e-02 +8.31446052e-02 +5.74138947e-02 +2.20726997e-01 +3.69942561e-02 +1.74310699e-01 +5.67155294e-02 +2.15805764e-03 -4.09211665e-02 -3.07284798e-02 -6.39702901e-02 +4.63289581e-02 +1.17542543e-01 +1.22654498e-01 -4.68841307e-02 +5.73066510e-02 +1.23158716e-01 +6.72128284e-03 +9.59684923e-02 +8.42060745e-02 +6.73613325e-02 -8.90672952e-02 +3.01106665e-02 -1.12357503e-03 +8.10702704e-03 +4.21631262e-02 -8.67472216e-02 +1.39082566e-01 -1.56479165e-01 -9.94671136e-02 +8.04080516e-02 +2.70271152e-02 +5.59875667e-02 -9.24241245e-02 +1.51152397e-02 +6.09253682e-02 -3.07608210e-02 +6.72060698e-02 -1.02099389e-01 +7.73668569e-03 +6.53765425e-02 +2.48602107e-02 -3.05320602e-03 -6.77787811e-02 +6.08371906e-02 +1.04954623e-01 +2.68489830e-02 -5.73550500e-02 +1.61115322e-02 -7.68300593e-02 +1.31980136e-01 +7.15237930e-02 +8.26983228e-02 -7.67960697e-02 +5.57126887e-02 -1.13053188e-01 +1.08178496e-01 +9.97530743e-02 +4.87034321e-02 +7.76741132e-02 -3.94166484e-02 -1.11209437e-01 -3.35676931e-02 -1.11709625e-01 -1.73420534e-02 -1.07003935e-01 -5.53400405e-02 +2.91540679e-02 -7.37846866e-02 -2.06650719e-02 +1.45891070e-01 -1.86567269e-02 -4.26350385e-02 +6.58149198e-02 +7.85245150e-02 +3.60330716e-02 -6.15669042e-02 +2.11531781e-02 +8.54967386e-02 -6.87780306e-02 -1.52300775e-01 -7.69631863e-02 -7.34622926e-02 +8.39330703e-02 +1.17409967e-01 +1.15363799e-01 +1.31841719e-01 +1.54216230e-01 +2.98463041e-03 +2.65311040e-02 +4.95199375e-02 -5.11026941e-02 -9.38355848e-02 +7.90306851e-02 -8.16001967e-02 +1.18595138e-01 -5.25270663e-02 -4.63904376e-04 +2.40230426e-01 +9.39520672e-02 -1.13651961e-01 -4.28059772e-02 -3.74330878e-02 +4.53307815e-02 -2.73762178e-02 +9.14681703e-02 +5.66036031e-02 +9.51184556e-02 +1.52092442e-01 +2.27488615e-02 +6.27147034e-03 +4.28173766e-02 +1.24645419e-01 +2.13148773e-01 +9.53186527e-02 +1.46335006e-01 -1.12648010e-02 +2.43054647e-02 +6.63564131e-02 +1.94837060e-02 +3.38328932e-03 +1.13752052e-01 -1.26635551e-01 -3.98908230e-03 +1.36073241e-02 -8.18756297e-02 -6.64454922e-02 -3.85809243e-02 +6.64460734e-02 -8.87039676e-02 +2.43867934e-03 -1.51375048e-02 +2.82543413e-02 +1.04164198e-01 -8.64246190e-02 +7.74784088e-02 -2.64263470e-02 +8.22149217e-02 +1.22253656e-01 -4.07601073e-02 +1.22917570e-01 +7.98031390e-02 -3.40249273e-03 +2.57106926e-02 -2.29944587e-02 +1.68677829e-02 -5.11680208e-02 -4.11710031e-02 -3.03272605e-02 +1.46793742e-02 -8.79618004e-02 +4.15404662e-02 +7.92846382e-02 -2.21860692e-01 -4.98484671e-02 -6.22075014e-02 -8.06940570e-02 +3.17504741e-02 -2.55290978e-02 -3.92948464e-02 +3.34265195e-02 +3.42702456e-02 -3.65111493e-02 -7.72147924e-02 -1.06545061e-01 -4.69707884e-03 -7.35765919e-02 -2.99585313e-02 -3.86401042e-02 +8.17487091e-02 -9.00188833e-02 -5.29001541e-02 +1.10487640e-01 -4.54216488e-02 +1.94330633e-01 +3.60884331e-02 -5.11476658e-02 -3.35936099e-02 -1.71722069e-01 -2.01868638e-02 +6.32929131e-02 +1.20978735e-01 +1.04377335e-02 +5.13652666e-03 +1.34205192e-01 +6.36262596e-02 +1.35623053e-01 +1.62189037e-01 +1.48129910e-01 +1.98461115e-01 -1.05141759e-01 +4.92785871e-03 -4.67019482e-03 -8.92922096e-03 +1.24099739e-01 -4.97206766e-03 -4.61273380e-02 +6.18361421e-02 -4.86747734e-02 -7.95119256e-02 +1.70532808e-01 -9.07141715e-02 -7.36581162e-02 +1.39227673e-01 -8.87096226e-02 +2.06019968e-01 +5.73492050e-02 +2.37097722e-02 +9.44544151e-02 -5.75279035e-02 -2.60039559e-03 +1.52477827e-02 +4.57572751e-02 -3.63843590e-02 +1.20337173e-01 -4.90264371e-02 -1.65522456e-01 +1.13625653e-01 +1.31304964e-01 +1.32030146e-02 -2.32680421e-02 -2.23478470e-02 -1.24175176e-02 +1.42309234e-01 +1.40744098e-03 +6.47725537e-03 -5.61620332e-02 -6.76593781e-02 +4.03996520e-02 +3.02667599e-02 +1.58597678e-01 +8.58913660e-02 -4.15840186e-02 -6.28319755e-02 +1.84366211e-01 +6.48597302e-03 +1.41180217e-01 +5.31644747e-02 -5.05655967e-02 -1.12761304e-01 -3.25947627e-03 -1.65374745e-02 +3.54629047e-02 +2.54140515e-02 -1.97024848e-02 +1.56027600e-02 -1.52194157e-01 +1.00670859e-01 +1.54957604e-02 -1.87818694e-03 -6.28863554e-03 -7.33442977e-03 -1.26595199e-01 -3.27681117e-02 +1.05272964e-01 +6.46581277e-02 +7.88973123e-02 +1.54081002e-01 +6.73189387e-02 +5.22822030e-02 +3.64769064e-02 +4.04961733e-03 +1.05268121e-01 -8.84901211e-02 -3.22941989e-02 +1.06273316e-01 -9.44787636e-02 +5.38197309e-02 +2.18394026e-01 +8.63403752e-02 -1.73503831e-02 -7.03252852e-02 +9.29515809e-03 -2.24709287e-02 -7.69523019e-03 -2.62431875e-02 +8.61146823e-02 -9.37220231e-02 -9.40204710e-02 -3.25204059e-02 +8.56095254e-02 +1.11439526e-01 -9.75672454e-02 -1.24274731e-01 -7.42428703e-03 +4.69257347e-02 +3.51915769e-02 -2.85052345e-03 +5.81067652e-02 +1.55997649e-01 +8.74913558e-02 -2.35130694e-02 +1.52777955e-02 -7.67744780e-02 -1.07384592e-01 +6.67628646e-02 +1.01889901e-01 +1.38556948e-02 +9.38674156e-03 -9.83256996e-02 +1.05641678e-01 +1.03664011e-01 +3.36686894e-02 -3.84372622e-02 +8.37023556e-02 +2.07754180e-01 +1.44644216e-01 +6.48066700e-02 -4.21204716e-02 +6.37206733e-02 +5.39328791e-02 +7.42815956e-02 +3.82842161e-02 -5.58299534e-02 -4.08207736e-04 -3.00560594e-02 -2.31797785e-01 +1.23337671e-01 -1.56012718e-02 -1.03035279e-01 -2.49326393e-01 +3.49422581e-02 -1.03292707e-02 -3.33659947e-02 -7.14759082e-02 -1.97345042e-03 -6.70195594e-02 +6.94116056e-02 -3.07714809e-02 +7.24158213e-02 -7.94158131e-02 +1.25507591e-02 -1.64887607e-01 +1.04762241e-01 -1.37242779e-01 -2.93272035e-03 +1.06987525e-02 +7.73884729e-02 +1.17118254e-01 -8.31033215e-02 -4.20743264e-02 -6.05076924e-02 +2.68974062e-02 +1.23040996e-01 -3.76194157e-02 +4.61603142e-03 -1.20038375e-01 -1.20856442e-01 -4.84316945e-02 -1.98699487e-03 -1.30848857e-02 -5.16921515e-03 +3.50144356e-02 +1.34843349e-01 +7.94166327e-02 +6.72983900e-02 -9.18598697e-02 +4.26262990e-02 +1.27140179e-01 -1.19256005e-01 +3.15868109e-02 +5.83154820e-02 +3.00545115e-02 -2.39315815e-02 -3.67501937e-02 +1.25381529e-01 +6.16061762e-02 -1.56030938e-01 -5.90777099e-02 +3.39402854e-02 +4.67979861e-03 -3.93899530e-03 +1.15603775e-01 +7.86045566e-02 -4.09836583e-02 +1.47745823e-02 +3.75529565e-02 +9.02423039e-02 -3.27276476e-02 -2.24764016e-03 +6.22344762e-03 +8.42091367e-02 -5.92886098e-02 -1.39102831e-01 +3.73902582e-02 +3.08177937e-02 -4.45239469e-02 +8.40322450e-02 -8.93066451e-02 -1.77971032e-02 +9.33991149e-02 -1.40830979e-01 -1.18274300e-04 -3.11985170e-03 +7.20068887e-02 +1.69523619e-02 +9.14249048e-02 +1.46784648e-01 +5.61512150e-02 +3.55779566e-02 +3.30296904e-02 -6.07120469e-02 +1.19515732e-02 +7.32042864e-02 -6.05489127e-02 +7.22489459e-03 -1.38987359e-02 +5.18772528e-02 +1.06919922e-01 -2.86822654e-02 -5.32348938e-02 -1.59695856e-02 +3.75438780e-02 -6.53389022e-02 +2.03722576e-03 +8.16252530e-02 +7.17794672e-02 +4.93823886e-02 +5.83295338e-02 -8.69461000e-02 -3.27630602e-02 +2.27410793e-02 -1.15193009e-01 -8.75058249e-02 -1.60201490e-02 +8.77604783e-02 -3.73926423e-02 +2.91273072e-02 -7.68737271e-02 +4.63906303e-03 +9.75210294e-02 -5.86733315e-03 +5.98483309e-02 +2.51112133e-02 -1.31225616e-01 -9.92524102e-02 -3.17488313e-02 -1.97128523e-02 +6.45232350e-02 +7.54860276e-03 -9.44805518e-03 +7.77774379e-02 -9.91323143e-02 -4.11270745e-02 +9.14873928e-02 +6.24901131e-02 -4.75670174e-02 +3.87333073e-02 +4.68449742e-02 -7.34152347e-02 -5.20821065e-02 +8.30939636e-02 -3.88735486e-03 -7.02706352e-02 +1.44297630e-02 -1.99319366e-02 +1.95182003e-02 -9.20460075e-02 -1.54135553e-02 -5.49763404e-02 -2.90295724e-02 +2.97342651e-02 +4.19876352e-02 -6.56750659e-03 +2.54172962e-02 -4.74309362e-02 +5.41629680e-02 -1.23480238e-01 +1.95503663e-02 +8.03301483e-02 +1.01700355e-03 -2.09716968e-02 -3.63044590e-02 +7.36276805e-02 -3.75306606e-02 +6.19472787e-02 +1.68822575e-02 +5.98979853e-02 +4.91526239e-02 +7.80845657e-02 +7.21342191e-02 +8.63970071e-03 +8.31363797e-02 +6.49051964e-02 +1.32278740e-01 -2.91644353e-02 +5.29860221e-02 -1.11574978e-01 -2.55336370e-02 -3.95608991e-02 +1.14130257e-02 -7.80162066e-02 +6.37076348e-02 +3.06614377e-02 -2.50888942e-03 +5.24555072e-02 +3.42921913e-02 +8.25124010e-02 +1.76795274e-02 +5.26268817e-02 +4.89318445e-02 -4.15709801e-02 +2.89604086e-02 +4.68758233e-02 +7.21218139e-02 +1.28672510e-01 -3.67349349e-02 +4.88448553e-02 -3.20900278e-03 -9.51025784e-02 -7.14458302e-02 +4.28985246e-02 +9.74986926e-02 +1.52513105e-02 +1.24372102e-01 +8.35854188e-02 -2.18549464e-02 -4.74808253e-02 -1.08192354e-01 -7.99162015e-02 +2.42064018e-02 +6.01083003e-02 -5.02250344e-02 -4.49468270e-02 +1.19257970e-02 +5.40026575e-02 -8.32368955e-02 +5.51706925e-03 -2.27163211e-02 -5.68536259e-02 -6.82116449e-02 +5.79875335e-03 -4.43631075e-02 +3.94775607e-02 +1.53313586e-02 -4.07952704e-02 +1.03543222e-01 -2.98845004e-02 -8.98512360e-03 +6.14503212e-02 +1.06466841e-02 -2.54899170e-02 +4.88236286e-02 -2.66112685e-02 -9.86216310e-03 +5.51167913e-02 +6.58285990e-03 +2.81686764e-02 -7.74135366e-02 -4.85867169e-03 +1.50669282e-02 +1.37727866e-02 -6.45131394e-02 -5.87234348e-02 -9.44751501e-02 +7.31624104e-03 +6.25810176e-02 +7.19900802e-02 -4.99647968e-02 -6.67041242e-02 +9.24212784e-02 +6.36322349e-02 +1.31821772e-02 -4.54568565e-02 -1.34044057e-02 +2.28032991e-02 -2.73073055e-02 +5.04231527e-02 +4.85511087e-02 +1.36104291e-02 -4.62278686e-02 +2.68715099e-02 -3.81233208e-02 +4.62819822e-02 -7.19835684e-02 +2.50020251e-02 -8.67497921e-02 +3.39680947e-02 +1.05648190e-01 +9.25433338e-02 +1.50860742e-01 +1.15854658e-01 -3.51903141e-02 -1.28363252e-01 -3.30439545e-02 -8.07875488e-03 +1.18122716e-02 -1.12720415e-01 +5.42009585e-02 -2.63539404e-02 +2.58753728e-02 +1.22289658e-01 +1.12537526e-01 -5.33999084e-03 +8.53975937e-02 +6.29872084e-02 +4.90810834e-02 +2.18720399e-02 +5.73484972e-02 +5.11568338e-02 +7.81859457e-02 +3.11127361e-02 -1.14659131e-01 -3.53558064e-02 +2.00940426e-02 +9.76917073e-02 +8.29602703e-02 +7.75543898e-02 +5.15543558e-02 +2.22515799e-02 -8.62234235e-02 +1.15692973e-01 +4.40492071e-02 +5.82280308e-02 -2.60781264e-04 +2.65936814e-02 +1.95523873e-02 +6.22575767e-02 +1.82979316e-01 +1.37606576e-01 +2.35968735e-02 -2.40535904e-02 -9.08500478e-02 +4.42252308e-02 +6.89055212e-03 +1.64223630e-02 -1.18124492e-01 -1.28642365e-01 -9.50497687e-02 -7.92630613e-02 +8.09933767e-02 +5.09387478e-02 +1.00589171e-02 -4.23872061e-02 -9.23928618e-02 +6.86117709e-02 +2.31511388e-02 -9.61708650e-02 -2.76136808e-02 +5.68622947e-02 -2.51228306e-02 +1.71498537e-01 -1.06873877e-01 +3.34027931e-02 +1.71024036e-02 -3.31270285e-02 -1.11203313e-01 -1.48873433e-01 -6.48117885e-02 +9.96212438e-02 +6.37351535e-03 +5.14107570e-03 -7.30164424e-02 +2.77010701e-03 -8.23063105e-02 -3.52837853e-02 +1.09402113e-01 +5.90286478e-02 +3.24235074e-02 -8.48581791e-02 -7.15646595e-02 -1.31617226e-02 +1.44561986e-02 +6.24886788e-02 -1.07245157e-02 -2.31045157e-01 -1.29690692e-01 +3.78244705e-02 +4.79000919e-02 +2.33768020e-02 -9.45533346e-03 -1.34938201e-02 -5.05876727e-02 +1.52651757e-01 +4.81499806e-02 +3.19830589e-02 -1.79573372e-02 +1.31888762e-01 -8.22926313e-02 -8.21188092e-02 +1.32445246e-01 +9.55514982e-02 -7.42807891e-03 -1.05470754e-02 -5.72896302e-02 +3.13407101e-04 +1.80878658e-02 +1.14267476e-01 +9.16518196e-02 +1.51819214e-01 +5.28713167e-02 -7.27218715e-03 -6.73944652e-02 -7.08535165e-02 +9.59402844e-02 +3.16547826e-02 -8.89017656e-02 +1.74644172e-01 +5.71765862e-02 +2.10186634e-02 +1.21506490e-01 -8.11321735e-02 -5.09388931e-02 +4.11324427e-02 -9.85764265e-02 +1.12890735e-01 -3.56200971e-02 +1.03013642e-01 +1.17327027e-01 +3.68986209e-03 +5.80662861e-03 -5.09307124e-02 -1.32178543e-02 +4.24595363e-02 -8.58835056e-02 +3.72869372e-02 +4.83276770e-02 -1.16922319e-01 -1.05899777e-02 +3.39825936e-02 +2.44726632e-02 -2.82909479e-02 -6.91309199e-02 -3.36536355e-02 -4.27807570e-02 -4.15861756e-02 -1.39360316e-02 +2.00455785e-02 -6.31724745e-02 +1.13915894e-02 +7.95113482e-03 -1.36401402e-02 +6.73622638e-02 +3.21560353e-02 +2.97881872e-03 -5.20901047e-02 +8.28774348e-02 -5.12208678e-02 +1.39101893e-02 -5.57049997e-02 -3.30005400e-02 +4.18503955e-02 -6.44146055e-02 +4.77708615e-02 +2.64641698e-02 +3.52377333e-02 +5.74038886e-02 -5.00696525e-02 -3.80144194e-02 +6.88607693e-02 -3.97170149e-02 +5.18021621e-02 +6.12189844e-02 +6.50006011e-02 +4.35150377e-02 +3.06094671e-03 +3.30154435e-03 -9.40768495e-02 +3.86462286e-02 +3.11347805e-02 +2.96746027e-02 +4.67102714e-02 -2.45189443e-02 +5.88837005e-02 -3.91699448e-02 -3.06687504e-02 -9.14017786e-04 +3.04309987e-02 -3.50316353e-02 -5.42702675e-02 +5.33503555e-02 +4.96172234e-02 -3.03803515e-02 +1.20563507e-01 +6.88030869e-02 +2.52006855e-02 -4.50484231e-02 +6.74324343e-04 +1.23135895e-01 -3.94233176e-03 +1.37936011e-01 +7.87322372e-02 -3.17975283e-02 +7.27644861e-02 +8.27420875e-02 +6.19545579e-02 -1.41138256e-01 -2.95793116e-02 -1.63973391e-01 -6.54491559e-02 +1.07723668e-01 +2.11891718e-02 +1.95735116e-02 +5.53964637e-02 +1.86819911e-01 -5.22907190e-02 +1.74576923e-01 +1.36134103e-01 -8.14776272e-02 +1.06687859e-01 +6.95056468e-02 +1.68032587e-01 +1.19068220e-01 -3.72448564e-02 +4.51000296e-02 +8.97875428e-02 -2.98547558e-02 -5.65234870e-02 -2.27845423e-02 +1.12877950e-01 -8.69307108e-03 -1.08517654e-01 +8.22307989e-02 +1.08287372e-01 -2.08844468e-02 +3.92469503e-02 +1.05310671e-01 +9.40269455e-02 +2.14465946e-01 +3.87111790e-02 +5.96501939e-02 -1.89390406e-02 -7.40180090e-02 -3.49840447e-02 -1.41274985e-02 +1.05741397e-01 -1.10527001e-01 +6.16131946e-02 -7.70899579e-02 -2.91126743e-02 -1.08130403e-01 +2.69504208e-02 -7.44098276e-02 -1.92314103e-01 -1.01068631e-01 +1.53926194e-01 -4.55843769e-02 -6.29163301e-03 +6.35053217e-02 -1.11113247e-02 +5.55402972e-02 +1.00570679e-01 -1.55367211e-01 -2.25216690e-02 -8.19073990e-02 +1.17709301e-01 +4.99031842e-02 -5.92050776e-02 +3.76257598e-02 -2.36091256e-01 -1.08625837e-01 -1.17722690e-01 -1.36731237e-01 -5.94040230e-02 +1.16737507e-01 +1.60626516e-01 -2.29149349e-02 -4.57376204e-02 +5.40790670e-02 +1.51973311e-02 -5.81443571e-02 -3.23494487e-02 -1.77339632e-02 -8.31641704e-02 -7.65135214e-02 -9.24763158e-02 -8.35541561e-02 -9.57368594e-03 -6.28894474e-03 -1.41552955e-01 -1.35474280e-01 +7.78796757e-03 +2.30555870e-02 +1.22702671e-02 +8.15015063e-02 +1.72124982e-01 +1.00324780e-01 -4.59795967e-02 +2.14535102e-01 -2.58905161e-02 +1.37396827e-01 +5.11950701e-02 +1.18624521e-02 +4.60429443e-03 -3.90030555e-02 +9.18974169e-03 +3.96029325e-03 -3.67205441e-02 -1.14170834e-01 -3.52433883e-02 +2.12128293e-02 -8.39241520e-02 -2.21388459e-01 +4.99142855e-02 +4.30755243e-02 +1.30447656e-01 -1.13732312e-02 +3.43246870e-02 -2.30691787e-02 +6.38319850e-02 +6.65071188e-03 +8.86807777e-03 +1.02938831e-01 +7.05860630e-02 +5.71918637e-02 +1.32074982e-01 +1.60131320e-01 +2.50274446e-02 +5.88128939e-02 +5.58162704e-02 -4.60888743e-02 -3.12628709e-02 +8.59982744e-02 -7.64887035e-02 +1.63373768e-01 +5.35264537e-02 +2.26346753e-03 +2.50966661e-02 +4.31358181e-02 -9.84151363e-02 -1.39033511e-01 +1.42221183e-01 +1.60664041e-02 +3.14324163e-02 +2.28220187e-02 +3.75688784e-02 -8.11490566e-02 +1.66141503e-02 +2.44505312e-02 +1.04825787e-01 -3.49929705e-02 +3.15650441e-02 -2.60644816e-02 +3.89343314e-02 +1.08110197e-01 +5.95917068e-02 -7.86823332e-02 -8.12238529e-02 +1.08327838e-02 +9.55384746e-02 +4.22981083e-02 -1.26287239e-02 +5.48836142e-02 -2.29883101e-02 -7.24974871e-02 +7.00442493e-02 +2.71778600e-03 +6.26131594e-02 -2.26452965e-02 +4.19834293e-02 +9.70216766e-02 -5.57531677e-02 +2.64893584e-02 -6.46817759e-02 -2.37569655e-03 -2.15249672e-03 -4.20722030e-02 +4.66170833e-02 +7.99417775e-03 +1.74901355e-02 +1.43148527e-01 -3.43266949e-02 +1.24822594e-01 -5.22706769e-02 -9.74748060e-02 +7.01877400e-02 +5.82143106e-03 -5.55624254e-02 +1.28530823e-02 -9.51668099e-02 -1.08268879e-01 +1.09443642e-01 +4.72536031e-03 +1.11502655e-01 -7.38113187e-03 -2.25899648e-02 -7.81400874e-02 -2.34259758e-02 -3.79505530e-02 +1.04199611e-02 +7.88524896e-02 -9.24634039e-02 -5.01173362e-02 +2.06644416e-01 +1.46837637e-01 -1.08853672e-02 +2.87700128e-02 +7.49799162e-02 +2.46278998e-02 +1.04204841e-01 -9.18993801e-02 +3.25597972e-02 +9.78453755e-02 +5.76869305e-03 -5.97995035e-02 -5.58102988e-02 +2.43362002e-02 +1.75251514e-01 -1.55066764e-02 -1.64739508e-02 +2.11982038e-02 +4.84958962e-02 +8.59534591e-02 -1.49221579e-02 +1.10604167e-01 +1.37334857e-02 +1.04661770e-01 +9.54546481e-02 -5.34801707e-02 +4.01140600e-02 +7.29910582e-02 -1.85655244e-02 -1.91079322e-02 -1.94920823e-02 +6.00966848e-02 +5.82079887e-02 +1.27870459e-02 +1.29236445e-01 +1.87929478e-02 -4.29241508e-02 +8.98542032e-02 +8.28232840e-02 +6.87649921e-02 -1.09038115e-01 -1.85131878e-02 -5.51666729e-02 -2.34818533e-02 +7.15473806e-03 +8.72593299e-02 +3.86011675e-02 -1.58633351e-01 -5.12912869e-02 -1.23812370e-01 +6.88807666e-02 -9.22075361e-02 -1.17300972e-01 -1.01107366e-01 -1.06382146e-02 +2.88923346e-02 -1.31286019e-02 -8.53968710e-02 +5.80823347e-02 -1.41995370e-01 -5.34709655e-02 +4.54339199e-02 -8.72263238e-02 -8.84511173e-02 -8.54545757e-02 -4.19352017e-02 -1.55576125e-01 -9.33333207e-03 -4.35417285e-03 +6.32023662e-02 -2.89975218e-02 -7.26246089e-02 +1.90221891e-02 -3.54623757e-02 -1.71399161e-01 -6.95622340e-02 +4.67350632e-02 +7.02573061e-02 +3.54626924e-02 -4.92561869e-02 +5.67704886e-02 -8.51835832e-02 -4.70888168e-02 -3.95703912e-02 +5.11729978e-02 +1.45225525e-02 +3.70158255e-02 -4.51713502e-02 -4.04942706e-02 +7.28610232e-02 -3.17618856e-03 -4.50204164e-02 +5.68645187e-02 +5.86380586e-02 +7.46816918e-02 +1.01480410e-01 +4.72238436e-02 -4.38157171e-02 +4.39325435e-04 -5.72640747e-02 +8.10390487e-02 -1.33537240e-02 +5.62701337e-02 -4.44358168e-03 +8.74932408e-02 +2.22754665e-02 +7.12032244e-02 +3.66922580e-02 -3.22432220e-02 -7.14283343e-03 +1.11211993e-01 -1.45007968e-02 -5.18973283e-02 +1.86141711e-02 +2.32111309e-02 +1.06751397e-01 +1.32890046e-01 -6.94752559e-02 -5.64511046e-02 -3.18432860e-02 +1.59128293e-01 +2.67075580e-02 +6.20540641e-02 -2.55398303e-02 -6.85971081e-02 +1.58859387e-01 -5.14582777e-03 +1.32015022e-03 +1.39773726e-01 +1.46339554e-02 -3.61755374e-03 +1.47576079e-01 +7.74496868e-02 -3.27059552e-02 +6.27191272e-03 -2.79078502e-02 -6.40434399e-03 +6.15836196e-02 +2.60115284e-02 -6.20393753e-02 -2.76470538e-02 -1.01024695e-02 +5.63031156e-03 +8.31590220e-02 -1.44727563e-03 +8.33668336e-02 +8.62929896e-02 +6.73265085e-02 +5.91524951e-02 +7.61199892e-02 +2.91426312e-02 +4.78220917e-02 +4.91932593e-02 -3.71041708e-02 +6.59862235e-02 +7.15528205e-02 +2.35379785e-02 -3.49108735e-03 +1.43827070e-02 +5.85003644e-02 -3.65234353e-02 +6.90830201e-02 +9.41973180e-02 -2.02067234e-02 +3.23540866e-02 -5.02866395e-02 -7.35663548e-02 +3.07581574e-03 -8.01187456e-02 -2.02107821e-02 -6.64493591e-02 +1.33614212e-01 -8.29801485e-02 +5.00978343e-02 -5.53421229e-02 +4.18924130e-02 +3.00393291e-02 -6.40163720e-02 +6.69512451e-02 +6.77536875e-02 +1.64088104e-02 +9.13617387e-02 +5.11196405e-02 -5.87848984e-02 -8.19038749e-02 +2.84082349e-02 -1.77968498e-02 -4.49598767e-02 -1.03619441e-01 +1.26119807e-01 -5.58517082e-03 +6.29323423e-02 -7.19572231e-02 -2.73832288e-02 -5.72015047e-02 +3.68193202e-02 -4.12125997e-02 -7.60490224e-02 -2.32517980e-02 -8.81368890e-02 +8.04677382e-02 -1.02781110e-01 -7.27213034e-03 +7.14270100e-02 -6.27552345e-02 +2.57628448e-02 +4.07580808e-02 +6.05440624e-02 -7.51769170e-02 -2.98517141e-02 -1.79547876e-01 -6.92407191e-02 -8.59589651e-02 +4.75496091e-02 -6.75877780e-02 -7.37262741e-02 +3.29254195e-03 -3.38230431e-02 +1.36006270e-02 +1.66441217e-01 +5.82833178e-02 -1.02023236e-01 -2.00261567e-02 +6.25953525e-02 -5.52883297e-02 +3.75612751e-02 -1.41562223e-01 +6.07033595e-02 +1.39462845e-02 -8.02628249e-02 -5.46837710e-02 -1.07737437e-01 -2.38770731e-02 -1.66731495e-02 -1.04373202e-01 +9.78750736e-03 +9.26929563e-02 +4.44906428e-02 +2.83979271e-02 +5.94385527e-02 +1.40096366e-01 +6.63257837e-02 +7.44822025e-02 +6.95652887e-02 -1.99847110e-02 +4.29279953e-02 +2.02867351e-02 +8.00616667e-02 +5.92748541e-03 -1.26512041e-02 +2.25748438e-02 -6.44954666e-02 +2.82115694e-02 +4.66238260e-02 +6.57308176e-02 -4.25287597e-02 +1.05238982e-01 -5.32625206e-02 -4.06452790e-02 -1.37067651e-02 +2.40697004e-02 -4.61211540e-02 -1.50047215e-02 +9.24355909e-03 +1.75364465e-01 +4.79712896e-02 +2.23519221e-01 -5.99472150e-02 -5.04819378e-02 +3.21109295e-02 +2.32837256e-02 -2.69712042e-02 +7.40074664e-02 -6.70503825e-02 -9.06477123e-02 -2.24193605e-03 +7.48993903e-02 +1.74420565e-01 -1.18421391e-02 +7.29601085e-02 -9.59484354e-02 +5.49603999e-02 +9.91950259e-02 -1.08765215e-01 -7.83777013e-02 +8.85398611e-02 -3.40986401e-02 +9.58024412e-02 +1.45485550e-02 +1.12626150e-01 -6.41853586e-02 -2.94517241e-02 -2.26750337e-02 +1.05694905e-02 +1.33577660e-01 -7.45311975e-02 -9.73498374e-02 +1.02063380e-01 +9.76008177e-02 -2.24684784e-03 +3.66999060e-02 -1.10876493e-01 -1.06002241e-01 +7.13287964e-02 -6.15172796e-02 +7.92861506e-02 +1.03221938e-01 +6.82540685e-02 +1.00778788e-02 -1.18253238e-01 -1.92384556e-01 -1.50898919e-02 +2.34181955e-02 -7.31866807e-03 -6.58007860e-02 -1.58431128e-01 -4.18341011e-02 -2.64320225e-02 -1.58896558e-02 +2.15155203e-02 -6.98390305e-02 -1.14262477e-01 -1.48147028e-02 -7.21254274e-02 -6.00005239e-02 +2.48389959e-04 -1.08343745e-02 -1.71769217e-01 -4.18633930e-02 -1.15462638e-01 -2.47084007e-01 -5.08161522e-02 -1.20468944e-01 +1.57338440e-01 -6.00636639e-02 -3.80690284e-02 -1.26347328e-02 -3.65365259e-02 -1.33288234e-01 -1.77368924e-01 -2.91008055e-02 -3.52776120e-03 +5.63755818e-02 +9.16531906e-02 +2.02528294e-02 +9.11125541e-02 +6.89836368e-02 -2.72649992e-02 -3.18262912e-03 -1.06769077e-01 -2.66864058e-02 +1.36205619e-02 +8.77385661e-02 +8.52309726e-03 +2.28845030e-02 +1.58946379e-03 +1.08048528e-01 +2.43689021e-04 +9.58460793e-02 -7.58466274e-02 -1.23036809e-01 -1.95142184e-03 +1.43192792e-02 +9.38203111e-02 +6.59895018e-02 +8.23007971e-02 -1.72163084e-01 -1.14758268e-01 -1.46004274e-01 -7.08387569e-02 -9.75771919e-02 +8.63139331e-02 +8.23690593e-02 +5.71396127e-02 +4.33683172e-02 -7.73583800e-02 +1.03671268e-01 +2.82813162e-02 -8.54487717e-03 -3.98306213e-02 -1.66182533e-01 -1.73031806e-03 -7.01354593e-02 +2.74506677e-02 +9.03279409e-02 -1.34778827e-01 +6.69047311e-02 +7.18420297e-02 +5.19144488e-03 -1.10687830e-01 +1.37505289e-02 -1.39512509e-01 -6.82541654e-02 +2.21186057e-02 +7.45418593e-02 -8.89962763e-02 +6.35867119e-02 -1.74147591e-01 +1.63491681e-01 -1.98773712e-01 +2.35623140e-02 +5.12761548e-02 -9.61698964e-02 -2.17380688e-01 -3.70149948e-02 +1.91139895e-02 +2.03604773e-02 -1.38320893e-01 +5.42206541e-02 +5.54224439e-02 +2.23945063e-02 -9.47577134e-02 -7.59080499e-02 -1.66653365e-01 -1.25799835e-01 -2.04159040e-02 -1.00610092e-01 -1.60879865e-01 -3.49531285e-02 -1.29180877e-02 -1.20808840e-01 -1.49374157e-01 -1.36011407e-01 -8.54279473e-03 +1.06533347e-02 +7.39746615e-02 -9.80337337e-02 -2.32615396e-02 +4.53981496e-02 -9.26388353e-02 +1.49996713e-01 -1.11204393e-01 +2.00104430e-01 -1.02018386e-01 +1.15993202e-01 +3.75765935e-02 +4.06563133e-02 +7.09314365e-04 -1.04772963e-01 +1.30671943e-02 +2.58054912e-01 +7.34371766e-02 +2.79595461e-02 +6.76962510e-02 +4.09886464e-02 +9.69374850e-02 +1.04667194e-01 +2.79497318e-02 -4.72127758e-02 +1.63284451e-01 +7.48446863e-03 +9.21598971e-02 -6.68151900e-02 +1.16691820e-01 +1.01242721e-01 +6.81494037e-03 -1.32013276e-01 -6.88131526e-02 +8.89082551e-02 +9.54524577e-02 -3.42293680e-02 +1.71630513e-02 -7.01141730e-02 +2.01979298e-02 +1.11618035e-01 -8.21099356e-02 +5.09552918e-02 +1.02184556e-01 -2.69360859e-02 +1.55689552e-01 +7.96081200e-02 +9.13576856e-02 +4.77145277e-02 +8.02084729e-02 -9.39536691e-02 +5.30578643e-02 +4.55575995e-02 +1.07020579e-01 -1.15268536e-01 +8.84383768e-02 +3.62516083e-02 -1.33188702e-02 +9.67557430e-02 -1.99910887e-02 +3.98011878e-02 -3.37410383e-02 -3.26778218e-02 +3.04403920e-02 -4.85280007e-02 -1.00322813e-01 +1.28384322e-01 -1.75269380e-01 +4.34475057e-02 +1.74897328e-01 -3.69506031e-02 -7.07875639e-02 +8.55723768e-02 -9.46401805e-02 +1.98322639e-01 -7.06230998e-02 -3.41848880e-02 +4.88511734e-02 -6.22400939e-02 -5.60078993e-02 +5.86139746e-02 +7.15905949e-02 +1.26553560e-02 -1.82746127e-02 +1.23121232e-01 +6.92143440e-02 -1.36823505e-01 -1.08100444e-01 -2.37585708e-01 -3.35247554e-02 +7.14639500e-02 -1.85102403e-01 -2.78609127e-01 -4.18491624e-02 -7.73396790e-02 -5.45410626e-03 -1.11500934e-01 -1.28222555e-01 -3.80844511e-02 +1.41731396e-01 +6.13257773e-02 -2.37645097e-02 -2.77688235e-01 -1.04327589e-01 +6.96626678e-02 -4.45219353e-02 +6.89312965e-02 +2.60499697e-02 +1.24330401e-01 -6.79588541e-02 +4.79478799e-02 +1.60668090e-01 +1.38738930e-01 -7.94118047e-02 -2.90555805e-02 +3.95061187e-02 +8.83893147e-02 -1.43842194e-02 -4.92464267e-02 -5.75156184e-04 +7.45095164e-02 -1.05987918e-02 +1.60799641e-02 -1.96421742e-02 +4.09467481e-02 -4.65476029e-02 -5.66403493e-02 +2.71188784e-02 -3.71724218e-02 -1.41191810e-01 +7.83761367e-02 -1.86029840e-02 +5.18527292e-02 +5.55002391e-02 -2.86317542e-02 +9.32447836e-02 +3.86468954e-02 -2.47653527e-03 +5.59650362e-02 +3.22334841e-02 +8.95802006e-02 +9.75014418e-02 +1.45150637e-02 -3.18301022e-02 -1.33849466e-02 -5.36313914e-02 +4.87965681e-02 +5.11629432e-02 -3.19047570e-02 -3.18746343e-02 +6.39408007e-02 -1.11191794e-01 +2.22619320e-03 +5.10625504e-02 -1.31433159e-01 +9.40199569e-02 -1.55469738e-02 +1.20518476e-01 +1.37321400e-02 +1.03707008e-01 +7.88704667e-04 +8.23300630e-02 -1.43168848e-02 +2.12851930e-02 -2.42854096e-02 -1.33046843e-02 +1.17994547e-01 +9.59425047e-02 +8.93182121e-03 -4.08687629e-02 -1.20374579e-02 +1.79621223e-02 -5.61547205e-02 -2.97372881e-02 +4.22445759e-02 +1.29465282e-01 -5.83154056e-03 -5.99716529e-02 -3.33557539e-02 -1.27049923e-01 +2.58160625e-02 +3.64525802e-02 -7.91647360e-02 -6.43959194e-02 +6.82419389e-02 -3.19243409e-02 -2.55774837e-02 -9.85693112e-02 -5.74547276e-02 -2.55003292e-02 -8.85574669e-02 +1.05221579e-02 -3.94984782e-02 +4.36648913e-02 -9.72163826e-02 +1.88246127e-02 -3.32168192e-02 -3.91277112e-02 +1.62240397e-02 -3.71708684e-02 -4.14833091e-02 -1.48408249e-01 +6.93771765e-02 -7.09042400e-02 -8.01134333e-02 -8.38067010e-02 -8.16930458e-03 -1.45508267e-03 -1.06234737e-02 +7.65471309e-02 -9.15675238e-02 -6.29081801e-02 -8.83688554e-02 -8.14701617e-02 +5.42724058e-02 -6.62484765e-02 +2.12131664e-02 +2.85351053e-02 +2.67789531e-02 +6.06711768e-02 -9.75032744e-04 +5.66772334e-02 -4.16727178e-03 +4.75321151e-02 -7.28543922e-02 -6.31340444e-02 +3.56508754e-02 -7.03440905e-02 -5.76046109e-02 +1.19285099e-02 -2.29675919e-02 +7.63872638e-02 +8.58222097e-02 +3.84798981e-02 +2.98948251e-02 +4.83966284e-02 -4.66450527e-02 -5.30355833e-02 -5.67707829e-02 -4.41796966e-02 +1.92035135e-04 +1.70007721e-02 +4.09995057e-02 +3.53167485e-03 -2.18058769e-02 +6.85842857e-02 +7.69431069e-02 +8.91923904e-03 +3.34333740e-02 -1.09860499e-03 +1.37918472e-01 +1.48919150e-01 +7.59445578e-02 -3.57543118e-02 +2.19420772e-02 +3.78520228e-02 -6.88695386e-02 +1.80543680e-03 -1.00453630e-01 -7.51842707e-02 -7.47521967e-02 +8.05672482e-02 -2.63799671e-02 +6.80776313e-02 +5.44131035e-03 -1.00430856e-02 +7.99257122e-03 +1.02560557e-01 -3.86721827e-02 -6.01264685e-02 -3.42675149e-02 +3.08260862e-02 +4.84873308e-03 +6.75388873e-02 -4.50250134e-02 -3.08642220e-02 +3.29065360e-02 -7.40662068e-02 +8.41656327e-02 -8.40508342e-02 +4.12946083e-02 -1.08154804e-01 -9.27641019e-02 +6.52230382e-02 -6.39995486e-02 +3.46154324e-03 -1.66384086e-01 -1.40695110e-01 -5.01244962e-02 +1.02391273e-01 -8.44341218e-02 -4.59324718e-02 -1.87846683e-02 +6.00846633e-02 -7.39041790e-02 +6.97210878e-02 +2.94734840e-03 -5.17055988e-02 +1.02091171e-01 -1.93360122e-03 -5.06872684e-02 -1.21148825e-02 +4.89707366e-02 -3.32832225e-02 -3.44597432e-03 -8.41304734e-02 +2.69136764e-02 -8.83206818e-03 +1.55103067e-02 -3.52862738e-02 -5.59678650e-04 +2.83674728e-02 +4.52997684e-02 +2.32297871e-02 -2.17089579e-02 -5.80460802e-02 -1.55685181e-02 -1.88887643e-03 +3.60704549e-02 +1.91393681e-02 -2.11270284e-02 +4.61250171e-02 -3.43263596e-02 +4.78637852e-02 +4.85576354e-02 +5.26489243e-02 +4.10568677e-02 +3.89339030e-02 -5.63751860e-03 +7.50965998e-02 -4.03947830e-02 +1.31514773e-01 -3.34096476e-02 +1.38722118e-02 +7.02248812e-02 +2.88153253e-02 +5.13572339e-03 +6.72416463e-02 -6.45869374e-02 -8.98005068e-03 +4.29587401e-02 -4.94176708e-02 -3.03184744e-02 +4.53955829e-02 -1.78677272e-02 -1.92507710e-02 +8.86924937e-02 -3.11215445e-02 -5.03717773e-02 -1.79444328e-02 +9.92510542e-02 +3.57987285e-02 -4.74597153e-04 +8.17989036e-02 +6.53657317e-02 -4.52254973e-02 +1.74822621e-02 -5.79945892e-02 -4.90751443e-03 -3.45846638e-02 -7.98795000e-02 +4.03070301e-02 +4.59571145e-02 +1.94402933e-02 -6.20487519e-02 +2.98433840e-01 -4.40907069e-02 +2.40013942e-01 +1.73953213e-02 +7.39308074e-02 +6.43312335e-02 +1.92288846e-01 -9.60238725e-02 +9.91864353e-02 -1.13467142e-01 +7.61887878e-02 +3.54848206e-02 +2.26330519e-01 +1.91250429e-01 -2.75232680e-02 +6.45824671e-02 -8.29978734e-02 -2.96144933e-02 -4.53257151e-02 +5.68405204e-02 -1.63444266e-01 -2.08476908e-03 +2.79776044e-02 +8.65277946e-02 +1.29601896e-01 -1.68427527e-01 -8.27179402e-02 +2.93493122e-02 +1.83878690e-02 -1.93021242e-02 -7.54367188e-02 +2.23013952e-01 -2.09147260e-02 +1.73742965e-01 -3.25377770e-02 +1.44813247e-02 +1.69413984e-02 +1.11572057e-01 -1.13452179e-03 -1.16865290e-02 +6.58796281e-02 +3.72440889e-02 +7.05669820e-03 -1.74654141e-01 +9.59224906e-03 -4.65374477e-02 +1.46890834e-01 +2.55644601e-02 +4.25653085e-02 +5.08956462e-02 +5.44097554e-03 +6.77537322e-02 +9.21761990e-02 +6.51626512e-02 +6.09660670e-02 +1.09015271e-01 -3.85743454e-02 -2.24986561e-02 -3.94300185e-02 -9.02376026e-02 -9.78121012e-02 +6.82302713e-02 +1.63094923e-01 +9.65363383e-02 -5.51666543e-02 +7.06986189e-02 +2.58307010e-02 +7.12787583e-02 +4.46292423e-02 -1.13341734e-01 -3.99082527e-02 -4.24030349e-02 +1.03826776e-01 -1.46002695e-02 -6.66055363e-03 +3.67472172e-02 -7.53575638e-02 +1.23771302e-01 -1.72478314e-02 -1.39884338e-01 -5.76681271e-02 -1.59905553e-01 -5.77041470e-02 +4.70444076e-02 -4.63993810e-02 -4.00414988e-02 +6.44615665e-02 +1.51494863e-02 -1.32427216e-01 -5.93138635e-02 -2.26146560e-02 -4.75495160e-02 +2.48016194e-02 -1.92575529e-03 +8.49777833e-02 -1.95466474e-01 +2.99474155e-03 +1.38708623e-02 -7.78198913e-02 -3.87379248e-03 +1.83206133e-03 +8.10940226e-04 +6.31508930e-03 -4.67344858e-02 -1.23118281e-01 +5.73957013e-03 -4.48541567e-02 -3.23817432e-02 +2.73371600e-02 +1.38799474e-01 +9.64292064e-02 +3.44225466e-02 -3.10685486e-03 -1.42713394e-02 -1.38694391e-01 +2.28353906e-02 -2.82542463e-02 +1.35314509e-01 +6.11289293e-02 +7.34123066e-02 -5.88247143e-02 -1.56511962e-02 -1.71491019e-02 -1.16536863e-01 +7.27882460e-02 -1.64883152e-01 +1.39919028e-01 +1.05785310e-01 -9.59525183e-02 -1.51603520e-01 +1.95705429e-01 +1.00425184e-01 -4.75818887e-02 +2.78534386e-02 +1.35468930e-01 +1.55705571e-01 +1.62817195e-01 -1.53500453e-01 +2.41021905e-02 +1.13997042e-01 -2.43391935e-03 -1.46415681e-02 +1.77761301e-01 -4.27168570e-02 -1.77929610e-01 -1.77082896e-01 +8.35470036e-02 -1.26638799e-03 +1.06789321e-01 -3.27047147e-02 +9.36464146e-02 +1.66363567e-01 +3.71814482e-02 +6.61037788e-02 -1.09819449e-01 +4.93270112e-03 -3.67370844e-02 +5.42496331e-02 -4.78841625e-02 -1.20247193e-01 +3.62150408e-02 +6.95732757e-02 +2.33137179e-02 +4.84355055e-02 +4.06976491e-02 -3.50011960e-02 +7.85753652e-02 -7.83586409e-03 -1.13771126e-01 +4.47167978e-02 -4.17575247e-05 +8.13338459e-02 -3.59628722e-02 -1.15979575e-01 +7.09266961e-02 -3.97758819e-02 -6.41355515e-02 +5.53274192e-02 -5.43394610e-02 +8.98564681e-02 +8.94339085e-02 +1.58164755e-01 -5.98274246e-02 +1.95621569e-02 +1.01947866e-01 +9.72706266e-03 -9.66208056e-02 -1.86813492e-02 +1.45478949e-01 -9.62443054e-02 +1.22817807e-01 +1.49053717e-02 -3.28431092e-02 +5.71758822e-02 -3.03060580e-02 -1.77434176e-01 +7.64198750e-02 -5.29306866e-02 +5.01100086e-02 -1.24835379e-01 -4.10277769e-02 +5.89294024e-02 -8.29852596e-02 -3.29083912e-02 -5.81419617e-02 -1.44657999e-01 -7.11693913e-02 +5.85698187e-02 -2.77334750e-02 -3.79509144e-02 -1.04389928e-01 -2.16774851e-01 -4.29765806e-02 +5.71488403e-03 -8.26862641e-03 -1.27144530e-01 -1.65251598e-01 +7.65794590e-02 -3.28553952e-02 -3.47950845e-03 +9.31034759e-02 -8.27271491e-02 +3.03872805e-02 -3.07395458e-02 -1.28798977e-01 -1.09708130e-01 -1.94612108e-02 -1.15106842e-02 +1.50037203e-02 -2.52362136e-02 -1.05152406e-01 -3.47377211e-02 -1.14544049e-01 +1.70348044e-02 +2.53980719e-02 -1.42517358e-01 -7.03118965e-02 -6.43341839e-02 -2.43977755e-02 -1.25458717e-01 -9.54519138e-02 +1.22011043e-01 -2.72861958e-01 -3.42698097e-02 -1.16090260e-01 +8.47197324e-02 -4.99473177e-02 +1.34471476e-01 -1.50577992e-01 -3.29281688e-02 +1.45352095e-01 +1.63145572e-01 +1.16242049e-02 +5.80890961e-02 -5.69656398e-03 +4.32562381e-02 +1.58667043e-01 -1.56458896e-02 +6.88768029e-02 +4.47101630e-02 +2.48422563e-01 -6.33418858e-02 +2.23588515e-02 -8.86917710e-02 +6.24616481e-02 +1.95649993e-02 -1.37053415e-01 -4.95647192e-02 -5.94681576e-02 -3.53598483e-02 +2.04340424e-02 +6.94465935e-02 +4.81361113e-02 -2.91249761e-03 -1.33820757e-01 +1.13676623e-01 +1.07766293e-01 +8.56917799e-02 -2.92788949e-02 +1.76337510e-02 +7.25762472e-02 +1.93784207e-01 +7.55962506e-02 -4.32770960e-02 +3.56634296e-02 +1.08783469e-01 -3.09163406e-02 +1.17039438e-02 -2.32244730e-02 +3.43685783e-02 +2.79969033e-02 -6.63330704e-02 -3.94032747e-02 -6.67602047e-02 -9.86982416e-03 +1.91907976e-02 -6.92129210e-02 -6.56526610e-02 +8.72059688e-02 -1.63966510e-02 -1.15605332e-01 +1.10094406e-01 +6.15690164e-02 +8.53104219e-02 -1.61622331e-01 -1.73334420e-01 -6.73559830e-02 +5.51264919e-03 -5.06588668e-02 -1.38532817e-01 -8.14031661e-02 +9.83219873e-03 +1.03220530e-01 -1.06417432e-01 -4.61597703e-02 -6.75373897e-02 +2.75127739e-02 -3.20082866e-02 -5.51409945e-02 +8.00559483e-03 -7.36379880e-05 -7.00085610e-02 -3.94824892e-02 -2.70377379e-02 -1.10983580e-01 -8.86023790e-02 -6.36450714e-03 -2.21596822e-01 +2.19396707e-02 -9.80835035e-03 -1.15445703e-01 +7.99316466e-02 -5.62867001e-02 -1.16726175e-01 -1.13492422e-01 -7.05671087e-02 +1.52954804e-02 +6.11355565e-02 +3.66016105e-02 -4.50891629e-02 +1.31759495e-02 -3.23665738e-02 -7.93499127e-02 -1.00775465e-01 -1.26298130e-01 -4.68333671e-03 +2.18276083e-02 -9.76709649e-02 -1.00215077e-01 -1.52440533e-01 -2.29815505e-02 +3.54362577e-02 +3.38436812e-02 +1.12164855e-01 +9.36378688e-02 -4.92883734e-02 -9.77726579e-02 -1.08025968e-01 +8.95197615e-02 -1.07307523e-01 +2.16250941e-02 +3.37321162e-02 +1.07802689e-01 -4.32673283e-02 +4.33796942e-02 +2.44752467e-02 -1.85937807e-02 +5.91674820e-02 -1.27460420e-01 +7.79689196e-03 +2.81515680e-02 -4.64613996e-02 +3.93247902e-02 +3.11334189e-02 -2.50062067e-02 -6.49417266e-02 -3.62147428e-02 -2.12060884e-02 -2.61021163e-02 +1.62478501e-03 -1.01269737e-01 -6.43157810e-02 -4.57963683e-02 +3.35204192e-02 +6.29217327e-02 +7.61754066e-02 +6.88862056e-02 +8.32114369e-02 +5.14116697e-02 -5.03118634e-02 -9.37556028e-02 +1.22775463e-02 -1.00407839e-01 +1.76463136e-03 -1.71155017e-02 +4.73957993e-02 +1.01545721e-01 -6.35440573e-02 +3.80177796e-02 +1.40216082e-01 +3.64936180e-02 +2.85490770e-02 -3.05517837e-02 +1.57921314e-01 +8.30516592e-02 +9.99951214e-02 +6.11234494e-02 -3.51139791e-02 -6.04057536e-02 +1.56742051e-01 +1.44113421e-01 -3.89141887e-02 +1.08195893e-01 +1.80739924e-01 -1.30171590e-02 +1.62854165e-01 -2.06139386e-02 +7.65515342e-02 -1.19506806e-01 +2.03101989e-02 -8.62086862e-02 +4.45930697e-02 -7.54819484e-03 +1.54841810e-01 +9.37170684e-02 +1.38170302e-01 +5.28716249e-03 -3.13111767e-02 +2.77468022e-02 -9.36081260e-02 -2.33197082e-02 -8.01873300e-03 +9.00058895e-02 +6.96165934e-02 -5.51066287e-02 +8.48070234e-02 -4.85530868e-02 -2.74561085e-02 -1.33619979e-01 +2.58638710e-02 +1.09020872e-02 -9.64938402e-02 +3.64774503e-02 -6.06278032e-02 +1.26806185e-01 +1.11282645e-02 -2.09364519e-02 +1.14255780e-02 -1.00033516e-02 +1.69604775e-02 +1.19698234e-01 +6.88903555e-02 +1.40771613e-01 +1.04716709e-02 -9.12875235e-02 +2.44710557e-02 -6.80248020e-03 -4.05455232e-02 -6.05939105e-02 -1.00637957e-01 -4.58384603e-02 -6.27034828e-02 -7.04085454e-02 +3.32982168e-02 -2.98299845e-02 -1.56225652e-01 +9.11226794e-02 -1.00925751e-01 +1.40677005e-01 -5.69394678e-02 +1.48159981e-01 -4.32936773e-02 -4.69306260e-02 -7.13748336e-02 +5.07215336e-02 -5.57754636e-02 -6.99434951e-02 -6.68031573e-02 +1.44395409e-02 -3.51440012e-02 +2.18740571e-03 +5.62037081e-02 -2.41450891e-02 -1.91591606e-02 +1.15630731e-01 -3.57107222e-02 +6.56457245e-02 -4.49492447e-02 -6.43343329e-02 +1.73614942e-03 -4.84080873e-02 +7.05334991e-02 +2.40847711e-02 -4.55081314e-02 -2.65328889e-03 +1.24656549e-02 +8.70671794e-02 -7.02432618e-02 -2.02793106e-02 +1.14801787e-01 +1.81856379e-02 +5.31021133e-02 -4.50911522e-02 +1.21187001e-01 +3.06740459e-02 -4.16567624e-02 +1.52115613e-01 +2.59681530e-02 -6.78051263e-02 +7.96290785e-02 -1.64689794e-02 -1.30177317e-02 +3.40854935e-02 +1.12777121e-01 -5.15214019e-02 +1.85244396e-01 -9.35012251e-02 +1.25699714e-02 -4.93158549e-02 -8.26802105e-02 -9.88499150e-02 +1.43423438e-01 -2.05265395e-02 +7.44479075e-02 +1.39677733e-01 +1.04361936e-01 +2.04340309e-01 +7.72161856e-02 -2.40412708e-02 -1.03037462e-01 +1.52766585e-01 -1.81714743e-02 +1.11199550e-01 -2.05976721e-02 -8.01112652e-02 -5.21584824e-02 +1.16124131e-01 -4.67073917e-02 -9.57684293e-02 +6.72109202e-02 +1.16844229e-01 +5.23932427e-02 -4.74653393e-02 +1.39333725e-01 -3.59785818e-02 +1.16807045e-02 -1.14358691e-02 -6.10990189e-02 -1.00112140e-01 +2.61729266e-02 +4.18898351e-02 +5.04355691e-02 -2.67165657e-02 -3.58177647e-02 +8.02178755e-02 +4.19906061e-03 -5.35789728e-02 -1.63278282e-02 +2.19761059e-02 +1.28458347e-02 -4.02978994e-02 -2.68790647e-02 -9.81240124e-02 +7.76820183e-02 -2.83664204e-02 +4.59618270e-02 +2.40770187e-02 +3.79140303e-02 +7.05979690e-02 +3.79414968e-02 +2.43048668e-02 -1.50845610e-02 -7.23436549e-02 +5.30568808e-02 +6.78325221e-02 -5.58446757e-02 +4.47862074e-02 -7.28182215e-03 +3.32674347e-02 -2.83060800e-02 +6.46678880e-02 -4.28707413e-02 +7.40059093e-02 -3.26847881e-02 -5.20810932e-02 +1.32450564e-02 +5.54486029e-02 -7.34843016e-02 -1.44565422e-02 -9.68451612e-03 -3.17883044e-02 -6.58718646e-02 -5.18526249e-02 -4.34368737e-02 -4.34047617e-02 +2.09284518e-02 -8.07389803e-03 +3.21419686e-02 -9.62091461e-02 +1.44841015e-01 -3.09180498e-01 +1.07796788e-01 -3.20402086e-02 -2.07970664e-02 +6.82589561e-02 +2.71602292e-02 +4.97198217e-02 +1.27118230e-02 +5.97457662e-02 -7.63555467e-02 -8.45840259e-04 +1.39715418e-01 +1.65305942e-01 +1.08359076e-01 -1.35001227e-01 +9.61749852e-02 +2.78763156e-02 -1.01784244e-01 +4.01613042e-02 +1.07643172e-01 -4.09348495e-02 +2.91415174e-02 +5.67498691e-02 +8.48465115e-02 -4.50261720e-02 -1.69145867e-01 +1.38714607e-03 -3.88334170e-02 +5.78642897e-02 +1.59648269e-01 -9.78190154e-02 +7.54167959e-02 +4.54884879e-02 +1.38604566e-01 +6.87882453e-02 +1.22194458e-03 +5.60679846e-03 +9.51421782e-02 -2.98794191e-02 +2.56124586e-02 -9.42582339e-02 -7.52955303e-02 -1.31237283e-01 +1.71755061e-01 +5.38250171e-02 +6.25580102e-02 -8.18146914e-02 -1.75359268e-02 -8.72193649e-02 -2.00250726e-02 -2.22728532e-02 -6.73030466e-02 +7.85738826e-02 +1.39059141e-01 +4.48463149e-02 -2.31985990e-02 +2.15862524e-02 -8.15343752e-04 -3.33174691e-02 +1.51077639e-02 -8.95351022e-02 -3.76919769e-02 -1.07116044e-01 -4.19299044e-02 -1.83274858e-02 -2.54571680e-02 +6.80489615e-02 -7.95624331e-02 +3.27575346e-03 -6.52584285e-02 +1.98316835e-02 -1.12822220e-01 +4.22090702e-02 -4.37234007e-02 +1.23165838e-01 -5.14317006e-02 +5.75361997e-02 -2.35528853e-02 -5.62138259e-02 +1.60693780e-01 +1.05886862e-01 +7.42693394e-02 +3.63097675e-02 +8.02870318e-02 +1.83389802e-02 +1.38049215e-01 +2.41386145e-01 +4.60743234e-02 +1.04096802e-02 -1.15642129e-02 -1.50721427e-02 -7.62290042e-03 +1.03929363e-01 +1.38125777e-01 -1.76566169e-02 -9.75234061e-02 -1.64516382e-02 -6.36252388e-02 -1.87532842e-01 +3.18078697e-03 -1.09853663e-01 -1.44607015e-02 +5.20906597e-02 +1.66692540e-01 +7.40371272e-02 -5.47826290e-02 +1.30089428e-02 -4.03808616e-02 -9.38172936e-02 +1.60004124e-02 -5.51245883e-02 +1.02590911e-01 -3.27218436e-02 +7.27310851e-02 -1.18256241e-01 +1.61604509e-01 -1.60705931e-02 -1.73336759e-01 -1.29649211e-02 +1.54401944e-03 -1.07575729e-01 -3.06098349e-02 +4.23336551e-02 +1.11914322e-01 +5.50994948e-02 -8.55421126e-02 -5.57757765e-02 -2.30705086e-02 -5.69959655e-02 +6.85751140e-02 +5.16961589e-02 -4.71732765e-02 -5.73906265e-02 +2.37761419e-02 -4.60483506e-02 +7.64606893e-02 -8.57098028e-02 +9.42181945e-02 +9.55578461e-02 +7.82271326e-02 -5.51614463e-02 -6.13758788e-02 +5.58772571e-02 +6.45253062e-02 -9.97545496e-02 +1.17052533e-01 +7.74761615e-03 -1.23320431e-01 +1.05296314e-01 -9.55332667e-02 +9.23659131e-02 +5.40546849e-02 +6.97117075e-02 -1.87052697e-01 -4.92400415e-02 +9.60940421e-02 +1.44305779e-02 -1.35026172e-01 -6.76830411e-02 +2.95003485e-02 -4.80807722e-02 -2.62090638e-02 -1.49959046e-02 +1.28023103e-01 -1.65947944e-01 +4.51633299e-04 +2.39924658e-02 -9.22080828e-04 -4.84584086e-03 -7.97953606e-02 +1.11027621e-02 -7.14517161e-02 -5.28207757e-02 +1.00062519e-01 -1.00222901e-01 +8.56228024e-02 -3.39252762e-02 +4.68258858e-02 +9.66226831e-02 -6.19112477e-02 -1.39238629e-02 -1.84272509e-02 -4.54612449e-02 -2.05030143e-02 -2.76294630e-02 -1.84901040e-02 -1.64482612e-02 -1.10489829e-02 -1.54304072e-01 +3.54889152e-03 +6.18899986e-02 +8.98491517e-02 -5.60625084e-02 +6.85213059e-02 -7.54809123e-04 +1.04245745e-01 +8.55621975e-03 +9.47299674e-02 -1.17802091e-01 +3.51124294e-02 +4.88364920e-02 -1.02677003e-01 +7.41619989e-02 +6.55947328e-02 -6.57677054e-02 +1.15147278e-01 +5.86788207e-02 -3.06403954e-02 -1.20929122e-01 +2.41051033e-01 +5.96944131e-02 +1.63076922e-01 -2.63673998e-02 +1.15100376e-01 -3.04078739e-02 -5.62917441e-02 +6.37266636e-02 +3.68929580e-02 +1.36842400e-01 +4.80665267e-02 +9.07664374e-02 -1.89736620e-01 +1.83836278e-02 +3.98556590e-02 -8.29548091e-02 +6.66844621e-02 +1.43151343e-01 -1.55981863e-02 -1.13694780e-02 -1.07688196e-01 -3.50800413e-03 +1.30691543e-01 -4.75040190e-02 +2.18948871e-01 -6.28262758e-02 -8.12738985e-02 +6.23844787e-02 +1.46673992e-01 -1.50184380e-02 +3.35590951e-02 +2.14300640e-02 -3.67041007e-02 +7.53036663e-02 -1.63488567e-01 +1.89074397e-01 -4.68585044e-02 +4.97618131e-03 +1.69193909e-01 -2.83775702e-02 +1.15746684e-01 +3.74360643e-02 +1.23113893e-01 +7.28027448e-02 +1.27702564e-01 -3.45894061e-02 -8.00104390e-05 +5.52639961e-02 +2.26404257e-02 -5.67653738e-02 -1.41648829e-01 -2.44097859e-02 -2.43037567e-02 +1.36779658e-02 +6.03137026e-03 +1.93389744e-01 +3.34904678e-02 +1.25955656e-01 -1.27271995e-01 -1.02987133e-01 +7.46834204e-02 +2.98122130e-02 -1.13325641e-01 +4.54274826e-02 +7.60954572e-03 -8.75049904e-02 -1.26697838e-01 -1.46469399e-01 +6.84034778e-03 -1.70601364e-02 +4.58560511e-02 +3.68479788e-02 -1.38186902e-01 -9.55004245e-02 +8.09624940e-02 -2.45818421e-01 -4.47255513e-03 -6.34069890e-02 +9.38042626e-02 +9.92652997e-02 +8.08412507e-02 -1.63978800e-01 -3.63160558e-02 -2.19253957e-01 -7.25118294e-02 +4.04754058e-02 -1.38767168e-01 -6.46767765e-02 -1.00621015e-01 -1.44618511e-01 -6.58131391e-02 +6.72601238e-02 +1.96737781e-01 -4.47914116e-02 -1.53388008e-01 +1.11240953e-01 +3.17548476e-02 +2.77001131e-02 +1.08284824e-01 -2.99100101e-01 +1.03042334e-01 -7.27122799e-02 +7.70067470e-03 -1.03165857e-01 +6.34805635e-02 -5.28118312e-02 -1.16678864e-01 +7.34428391e-02 -3.45659703e-02 +1.38023600e-01 +1.24565519e-01 +1.14670217e-01 -1.84291303e-01 +8.20034519e-02 -1.05711199e-01 +1.27095699e-01 +6.76704794e-02 +5.88854291e-02 +8.53620172e-02 +2.12471336e-01 -1.10125348e-01 -1.44129479e-02 +9.24367979e-02 +7.87162315e-03 +1.06887423e-01 +6.35348260e-02 +8.18504468e-02 -1.87032670e-02 -8.31787437e-02 -4.47354764e-02 +4.43091840e-02 -1.17779821e-02 +8.72398242e-02 -1.10324346e-01 -1.26503885e-01 -1.79164857e-01 -1.33689642e-01 -2.43931916e-02 -6.34639636e-02 -1.81706458e-01 +1.32481143e-01 +4.70849983e-02 +1.00982815e-01 +2.56653260e-02 -8.84580687e-02 -2.61955913e-02 +5.26180454e-02 -1.66740850e-01 -5.58208078e-02 -1.32421926e-01 +1.44596651e-01 +4.77003269e-02 +9.79207009e-02 -7.92579353e-02 +1.50624156e-01 -1.40028179e-01 +4.85281795e-02 +7.32892975e-02 +1.00441463e-02 -1.30427063e-01 -6.07019328e-02 +1.58481803e-02 +8.43970180e-02 -4.09549214e-02 +3.31666805e-02 -2.56058592e-02 -1.33010950e-02 -4.08822484e-02 +5.81005262e-03 -6.48094490e-02 -1.07018948e-01 +1.55830523e-02 +2.67910302e-01 +4.19134088e-02 +1.04824692e-01 +4.63217720e-02 -7.99247157e-03 +3.35580632e-02 -2.49283612e-01 +8.86050798e-03 +5.76179512e-02 +3.00799832e-02 +1.34029649e-02 +1.01911193e-02 -5.47463959e-03 +8.45355541e-03 -7.56422803e-02 -1.02272227e-01 +4.06895317e-02 +1.47916218e-02 +8.57998710e-03 +2.03176811e-02 -5.14012612e-02 -6.07866906e-02 -4.97545004e-02 +4.03607599e-02 +1.15394458e-01 +7.27288574e-02 +4.86113317e-02 -1.20341986e-01 -8.88491422e-03 -4.97984029e-02 +2.88491081e-02 +2.95533128e-02 -8.56692120e-02 -3.18207294e-02 -6.47116005e-02 +1.49001986e-01 +2.53653079e-02 -5.46999201e-02 -1.52899297e-02 +4.94256653e-02 -1.42915606e-01 -1.43241584e-01 -9.42381918e-02 +7.70346168e-03 -4.50281464e-02 -5.52039780e-02 +4.02286015e-02 +9.57823247e-02 +8.58802274e-02 +6.01571500e-02 +4.71515320e-02 -7.55563155e-02 +3.73331644e-02 -1.17082149e-01 -1.02298431e-01 +7.84982517e-02 +4.85044159e-02 +3.98897789e-02 -6.05511293e-02 +5.80337793e-02 -1.35743260e-01 +6.45631626e-02 -1.62648167e-02 