#Parameter# /vanilla-lstm-builder/_0 {200,500} 1600001 ZERO_GRAD
+9.13160667e-02 -3.70608792e-02 +1.82277039e-01 +4.88631008e-03 +1.86221987e-01 +1.61587030e-01 -1.82631671e-01 -1.86090067e-01 +1.63987256e-03 +2.76800524e-02 +9.81663465e-02 +9.18735266e-02 -6.95547462e-02 +1.68853894e-01 +7.00836331e-02 +1.34882450e-01 +2.11569890e-01 +7.15515343e-03 -2.98591368e-02 -1.67552948e-01 +8.70636490e-04 -1.06880493e-01 -1.70247518e-02 -5.71004339e-02 -5.67152090e-02 +1.98923782e-01 +1.28990218e-01 -4.40886505e-02 +1.59541920e-01 -1.75795838e-01 +1.95454136e-01 +1.30009741e-01 +3.86815220e-02 -3.35657671e-02 +1.03282571e-01 +5.82145303e-02 -1.30834609e-01 +7.09766448e-02 +1.04652129e-01 -6.77458495e-02 +1.55423768e-02 +1.10146843e-01 -5.62311597e-02 -8.86930302e-02 -1.49488002e-01 -6.56017289e-02 +5.21581694e-02 -2.15673536e-01 -1.37091801e-01 +1.49259791e-01 +3.54736485e-02 +2.96998508e-02 +4.85212877e-02 -2.44515091e-02 -2.76289489e-02 +5.86606599e-02 +3.03705279e-02 -3.40201892e-02 -8.41642097e-02 -1.41714737e-02 -7.19047412e-02 -2.13896763e-02 +2.69516688e-02 -1.33919075e-01 -1.85779765e-01 -1.17509283e-01 -2.01853082e-01 +3.70226577e-02 -1.77107994e-02 -1.05510049e-01 +3.84051055e-02 -7.61391968e-03 +1.54349748e-02 +2.27989361e-01 -1.63888052e-01 +4.23556827e-02 -1.98752627e-01 -1.15572356e-01 -2.05533981e-01 +5.65428548e-02 -3.52784432e-02 -1.67887449e-01 -4.51458544e-02 -7.51364306e-02 -1.99722480e-02 +1.36878833e-01 -1.78962409e-01 -7.59966299e-02 -6.23951219e-02 -1.49160787e-01 -1.25562653e-01 -1.51454493e-01 -1.03149332e-01 -5.95549913e-03 -3.11364997e-02 -1.34658769e-01 -4.39088792e-02 -1.47118449e-01 +3.63214053e-02 +7.21093118e-02 -1.19466379e-01 -1.06177546e-01 +3.62022687e-03 -9.08190757e-02 -1.70343891e-02 -3.68151232e-03 +5.84295616e-02 -1.13696113e-01 +9.96765941e-02 +6.69957474e-02 -2.12115064e-01 -1.19299524e-01 +4.46514115e-02 +1.03954906e-02 +1.17667250e-01 +1.27154037e-01 +1.13302218e-02 -2.04714641e-01 -5.99983446e-02 -4.74995077e-02 -4.56333458e-02 -5.71842305e-02 +1.94550708e-01 +1.24303371e-01 +9.92371142e-02 +9.53134447e-02 -6.44020587e-02 -8.91419873e-02 +1.26717716e-01 +1.42994493e-01 +8.63210112e-02 -7.09998533e-02 +2.84271687e-01 -1.54762366e-03 -6.86448254e-03 +4.06093560e-02 -3.24702561e-02 +8.79693478e-02 +1.06959663e-01 -1.00599386e-01 -5.88322058e-02 +8.48752633e-02 -1.10681683e-01 -1.97681084e-01 -1.65880695e-01 +8.76875073e-02 -9.50909331e-02 -1.93173826e-01 -1.68193594e-01 -1.27116339e-02 -4.58415113e-02 +1.10218003e-02 +1.79381669e-01 +8.45330581e-02 -8.28208774e-02 -4.18670699e-02 +1.40468955e-01 +3.08018103e-02 +1.11017101e-01 +2.26199538e-01 -1.07952058e-01 +1.13902576e-01 -2.33062953e-01 +1.76854014e-01 +1.80744022e-01 +7.14242384e-02 -2.07749829e-02 -1.55516624e-01 -9.37864110e-02 +1.64762437e-01 -1.79792970e-01 +4.83878925e-02 +1.44107267e-03 +3.83984484e-02 -1.31468223e-02 +1.70159176e-01 +7.56813912e-03 +2.17485949e-01 +7.73398727e-02 +1.01934440e-01 -5.76082505e-02 -2.45246049e-02 -1.47156745e-01 +7.92974085e-02 -2.74228901e-01 +1.73234507e-01 -4.66432013e-02 +2.48316750e-01 +8.55171680e-02 -1.80599123e-01 -1.34303808e-01 -1.09886482e-01 +1.64921954e-01 -3.63363139e-02 +1.70950636e-01 -1.15438789e-01 -6.70525283e-02 -1.18594080e-01 +1.10685140e-01 -3.79549712e-02 +2.21959744e-02 +3.61997969e-02 -6.93059415e-02 -7.68709555e-02 -2.12112069e-02 -5.27212396e-02 +1.57338008e-01 -1.47794247e-01 -1.63159356e-03 -8.91452432e-02 +1.81422960e-02 -9.95263606e-02 +3.24804597e-02 -1.74871281e-01 +1.10476520e-02 -7.18373805e-02 -7.95807019e-02 -8.13781545e-02 -8.35870653e-02 -7.49951750e-02 +3.01573658e-03 +3.06684542e-02 -1.40723705e-01 -1.21683322e-01 -3.88517254e-03 +1.43996626e-02 -9.15088058e-02 -1.20448424e-02 +2.64572091e-02 -2.56020688e-02 -1.59131408e-01 +9.32377875e-02 -4.83676493e-02 +7.31996596e-02 -4.29198928e-02 -1.34391291e-03 -1.32109188e-02 -1.13210149e-01 -1.20938435e-01 -4.69700359e-02 -1.47095323e-01 -7.91245475e-02 -8.55363384e-02 +6.48630457e-03 -5.51213585e-02 +5.99635765e-02 -1.99528053e-01 -7.65584111e-02 -5.20698279e-02 +2.40413081e-02 -3.97186354e-02 +8.04425776e-02 +2.66969465e-02 +2.42532231e-02 +6.28365427e-02 +5.19314827e-03 -6.64983094e-02 +6.17712140e-02 +5.88206621e-03 +4.63263430e-02 +5.42460009e-03 -4.68245242e-03 -3.47433090e-02 -2.43860707e-02 -9.55503713e-03 +2.05317792e-02 -1.11995235e-01 -4.57244702e-02 +7.63087347e-02 -5.48430569e-02 +5.84150441e-02 +1.60197578e-02 +1.93418674e-02 -3.86504718e-04 +1.01889797e-01 -8.67726132e-02 -3.89162004e-02 -4.76081260e-02 +3.70181501e-02 +8.12685397e-03 +7.08742142e-02 +8.22730083e-03 -4.48406450e-02 +2.36570202e-02 -7.55882040e-02 -2.81127542e-02 -6.78310916e-02 -3.58665846e-02 -4.58904430e-02 +1.72706500e-01 +1.64105103e-03 -2.16172859e-02 -7.30411708e-02 -1.44883059e-02 -1.01059951e-01 +6.26135170e-02 +8.25629309e-02 +1.29482634e-02 +8.73945467e-03 +2.66984547e-03 -6.61022635e-03 +4.47434410e-02 +7.26064593e-02 -1.16665989e-01 -2.65354011e-02 -1.29971996e-01 +2.14382373e-02 -5.34376316e-02 -8.44006166e-02 -1.05032362e-01 -3.08238864e-02 -8.71181637e-02 -8.29103366e-02 -4.82951999e-02 -1.00925080e-02 -1.69198722e-01 -8.70051458e-02 -3.94295789e-02 -6.88405987e-03 +3.68860960e-02 +9.13270861e-02 -7.46281296e-02 -9.89957154e-02 -3.76549102e-02 -8.39663446e-02 +1.03020724e-02 +8.42481107e-02 -5.77117503e-02 -8.86655003e-02 -3.47887981e-03 +6.14146404e-02 +9.03712437e-02 -4.84791137e-02 -2.10013576e-02 +4.77702469e-02 -2.40600705e-02 -4.02680188e-02 +8.32623839e-02 -1.15040885e-02 -8.70679244e-02 +7.29953647e-02 -2.24132743e-02 +1.08547948e-01 -8.74803364e-02 -5.30195944e-02 +9.08686966e-02 -4.56467643e-02 -1.98900234e-02 +4.01161239e-02 -7.67780766e-02 +3.75524466e-03 +5.24288565e-02 +2.89358245e-03 +2.31265696e-03 -2.64308252e-03 +1.99707244e-02 +4.33039889e-02 +1.79804359e-02 +4.61234227e-02 -4.07534614e-02 -4.83209416e-02 -1.47720929e-02 +5.83233172e-03 -2.72250455e-02 -8.37549195e-02 -3.43778916e-02 +3.56146577e-03 +9.02985781e-03 -1.51407607e-02 +1.23583287e-01 -5.77596501e-02 +1.89699307e-02 +1.98375955e-02 +2.16682762e-04 +4.47204411e-02 -8.50029755e-03 +2.14305669e-02 +5.47006428e-02 -4.76051196e-02 -1.18479766e-02 +8.97821635e-02 -1.26563143e-02 +8.09907261e-03 +4.29897979e-02 -4.51074652e-02 +4.85928096e-02 +1.33519433e-02 -6.38203323e-02 +3.66213135e-02 -5.63343838e-02 +1.58510718e-03 +2.97144279e-02 -8.36809501e-02 -5.10076135e-02 +2.85752304e-02 +4.48367409e-02 +3.73345390e-02 -5.21402732e-02 +2.38502473e-02 -2.75039356e-02 +2.86868270e-02 -2.26481203e-02 +4.46949676e-02 -8.77977461e-02 -6.44988418e-02 +5.07285371e-02 +1.93006359e-02 +9.56599414e-02 -2.31381562e-02 +3.72143276e-02 -8.45601223e-03 -6.91476166e-02 -9.49723646e-02 -1.35746747e-02 -1.20899327e-01 +3.37355956e-02 -6.51927218e-02 -1.30942464e-01 +3.41127142e-02 -7.23088309e-02 +1.45316035e-01 +1.12740517e-01 +1.53077483e-01 +6.56518862e-02 -4.05717865e-02 +6.66283518e-02 -9.22570005e-02 -1.51189476e-01 -5.60877323e-02 +1.48860693e-01 -2.20035501e-02 -1.17105603e-01 -1.42267555e-01 +1.37664184e-01 +1.00028150e-01 -1.12514451e-01 +9.48246494e-02 -1.04766421e-01 +2.26238564e-01 -9.46016461e-02 -1.53000653e-01 -3.24581116e-02 -1.43511534e-01 -2.26031970e-02 +6.36041211e-03 -8.45108107e-02 -4.43848670e-02 -1.33310392e-01 +2.85433512e-02 +2.01296043e-02 -1.54290438e-01 -3.84926461e-02 +5.97040132e-02 +2.36175749e-02 +2.95385532e-02 -9.60536227e-02 +1.84112400e-01 +3.09862420e-02 -4.92514530e-03 +1.83202967e-01 -1.51696652e-01 +2.96023697e-01 +1.46405637e-01 +1.46063626e-01 -3.22739854e-02 -5.45827933e-02 +2.48834025e-03 +1.53058497e-02 +4.91038710e-02 -6.67537823e-02 +8.50082189e-02 +1.53924614e-01 -4.38941866e-02 +4.88390513e-02 -4.41450886e-02 -1.91047221e-01 -1.49097979e-01 -1.99950859e-02 +1.14779301e-01 -1.26993135e-01 +9.46140811e-02 -1.84871480e-02 +1.35373458e-01 +1.45528570e-01 -2.27983836e-02 +4.85151224e-02 -2.06619650e-01 +5.26204845e-03 +1.42396390e-01 +2.26771422e-02 +2.61986375e-01 -5.98656423e-02 +2.06270199e-02 +1.67232722e-01 -5.17836073e-03 +9.31409895e-02 +1.52611732e-01 +1.09841518e-01 -1.42140821e-01 -1.79374635e-01 -8.75544772e-02 -1.35820964e-02 -1.39673665e-01 -4.50079478e-02 -6.12683855e-02 -3.78530808e-02 +1.02600716e-01 +1.43777341e-01 +1.58209205e-01 -9.02098268e-02 -1.83684938e-02 -7.78688416e-02 +9.60211009e-02 -2.84936994e-01 -8.25727358e-02 +2.70013418e-03 -7.05103129e-02 -1.31513402e-01 +1.60241351e-01 -3.24456915e-02 +8.42742622e-02 -3.37598920e-02 +4.46287505e-02 -1.55077711e-01 -1.15933925e-01 -7.70488456e-02 -1.64303295e-02 +2.25721262e-02 -2.15145811e-01 +9.51592717e-03 -4.25087884e-02 +1.06941089e-01 -2.09317967e-01 -7.21123889e-02 -2.86056809e-02 -1.03386141e-01 -1.02194913e-01 -2.19433736e-02 +5.20512015e-02 -1.45905213e-02 -1.09119467e-01 +1.19309872e-01 -2.55802661e-01 +4.94537018e-02 -1.48030922e-01 -1.20918304e-01 -7.44176582e-02 -3.29691218e-03 -1.40998093e-02 -1.00515364e-02 +5.23038357e-02 -1.08980343e-01 -5.17181179e-04 -6.42047524e-02 +1.07570561e-02 -1.18811280e-01 -6.27592802e-02 +1.52969271e-01 +2.18029350e-01 +4.94257659e-02 -9.98050719e-02 -5.53833395e-02 +2.31561214e-01 -7.35056996e-02 -1.28214970e-01 -7.99367726e-02 -1.37540370e-01 -1.38369882e-02 -1.19175844e-01 +4.11513299e-02 +3.68845314e-02 +5.20171449e-02 +1.23367354e-01 -3.14552113e-02 -1.97389752e-01 +2.81558540e-02 -5.34037547e-03 -1.73492298e-01 +1.69765115e-01 +1.23300388e-01 +5.74640222e-02 +1.94335282e-01 +4.08180207e-02 -8.05064067e-02 -6.27795979e-02 +9.93672982e-02 +4.82745506e-02 +1.65260434e-02 +2.43297338e-01 +1.11248791e-01 +5.97393513e-02 +1.24932297e-01 +4.15338725e-02 -1.82144314e-01 +7.91728403e-03 +1.53983116e-01 -6.30425066e-02 +6.04508817e-02 -7.61278048e-02 -1.79861441e-01 -6.46898150e-02 -3.57113302e-01 -2.95509454e-02 +5.06250672e-02 +8.37480836e-03 -2.24912930e-02 -2.23526269e-01 +3.19790505e-02 +2.00353153e-02 -1.56248966e-02 +4.57307277e-03 +9.10494849e-02 +6.45796657e-02 +2.59333309e-02 +1.41961267e-03 -8.97266194e-02 -4.62944666e-03 +3.71006615e-02 +4.58755717e-02 -1.19042479e-01 +7.99085498e-02 -7.89430216e-02 -1.49307966e-01 -7.92948976e-02 +7.22053200e-02 -1.22405402e-01 +6.60133548e-03 +5.62180430e-02 +1.76260427e-01 -7.57308826e-02 +1.02504380e-01 +1.79056581e-02 +3.10815591e-03 +7.88951293e-03 -1.89031824e-01 -9.00204778e-02 +2.66528949e-02 +6.31254688e-02 -2.01872721e-01 -2.64523655e-01 -5.16073480e-02 +1.14778683e-01 -6.10787012e-02 +2.42748554e-03 +7.34539554e-02 -1.69727683e-01 -2.80587934e-02 -1.18041411e-01 -1.31611630e-01 -5.68343028e-02 +8.61426368e-02 +1.48194849e-01 -1.39916614e-01 +8.96877944e-02 -6.63451105e-02 +1.62737206e-01 -2.89007556e-02 -1.79198682e-02 +9.35137644e-02 +3.71498577e-02 +5.62317260e-02 +3.93232284e-03 +4.93051857e-03 -1.09363653e-01 +5.88776395e-02 -4.03938144e-02 +4.10452038e-02 -1.14421785e-01 +4.82105874e-02 -2.24089846e-02 +1.28582045e-01 -3.16446275e-02 -4.86647077e-02 +7.92098492e-02 -2.90170684e-02 -3.78439315e-02 -5.77207357e-02 +1.18730471e-01 +2.20881905e-02 +1.26859948e-01 -1.43203557e-01 -1.04488470e-01 -8.77387077e-03 +6.20482601e-02 +8.28596503e-02 +5.55038601e-02 -5.57948276e-03 +4.63033505e-02 +5.10999747e-02 +1.94346294e-01 +1.42709374e-01 -8.42115507e-02 +9.41373780e-02 +1.58920903e-02 +1.41632244e-01 +1.09250043e-02 -1.21626502e-03 +5.71322516e-02 -2.24677071e-01 -6.77649081e-02 +1.15214624e-01 -6.13256358e-02 +3.45215872e-02 +1.50832564e-01 -6.67926371e-02 +3.46689820e-02 -1.35883823e-01 -1.98219828e-02 -5.91395833e-02 -1.34802446e-01 +5.55165075e-02 -9.08822492e-02 -1.38919905e-01 +1.56320520e-02 -8.74793995e-03 -8.95455256e-02 +3.06219533e-02 +9.54816584e-03 -1.19762369e-01 +3.34874988e-02 -9.49669182e-02 -1.40620947e-01 +1.46315753e-01 +3.11605632e-02 +1.81388795e-01 -7.71426335e-02 -6.91624917e-03 -4.86727841e-02 +5.65473624e-02 +2.32971787e-01 +8.81867856e-02 -1.87892541e-01 +1.32914200e-01 -3.30710411e-02 -2.90140733e-02 +1.72273025e-01 +2.35358533e-02 -6.47170050e-03 -7.86591321e-02 -1.14869429e-02 +8.76669213e-03 +9.93695036e-02 -8.81238431e-02 -4.68154028e-02 +1.24960065e-01 -4.87033166e-02 +5.34335934e-02 -4.49998118e-02 -1.06744274e-01 -7.10308850e-02 -9.90335718e-02 -4.23309878e-02 -9.17294770e-02 -5.11130244e-02 +1.09369876e-02 -4.88356687e-02 -6.31014556e-02 -1.96540970e-02 +4.98550273e-02 -9.37805921e-02 -8.43831897e-02 -6.26089796e-02 -1.77095421e-02 -9.22736749e-02 +8.10771510e-02 -5.51906414e-02 +1.24995768e-01 +1.33207992e-01 -1.23520242e-03 +4.94381040e-02 -1.09263465e-01 -1.18793719e-01 +2.38063447e-02 +4.22898866e-03 +6.15389459e-02 +6.98846430e-02 -2.92322543e-02 +1.09055579e-01 -5.33133596e-02 +1.76535174e-01 +3.88492383e-02 -6.10619485e-02 +7.50574330e-03 -1.41056227e-02 +1.91998810e-01 -1.94217321e-02 -8.08622455e-04 -1.17049821e-01 +1.97130032e-02 -1.95071138e-02 +2.05709767e-02 +1.22341430e-02 -6.04894795e-02 +4.04204428e-02 -8.74287263e-02 -1.53163925e-01 -3.17143425e-02 -3.64128202e-02 +4.18276014e-03 -4.07473259e-02 -1.83978140e-01 +2.61141419e-01 +2.18970589e-02 -2.44045809e-01 +1.92901596e-01 +9.74191818e-03 -2.33849441e-03 -7.40054026e-02 -2.04054788e-01 +9.43800956e-02 -1.49503946e-01 +2.72826571e-03 -6.26266897e-02 -4.72472422e-02 -5.02046989e-03 +1.60695344e-01 +2.56859660e-02 +4.43841852e-02 +6.79792911e-02 +5.27851768e-02 -1.10943072e-01 -5.28495014e-02 -4.36524069e-03 -4.81665554e-03 -5.79244643e-03 -5.63868731e-02 +1.44273698e-01 -2.35660635e-02 -1.14052832e-01 -7.28990659e-02 -4.94370311e-02 +1.22245371e-01 +4.87283729e-02 +7.78026506e-02 -2.56743692e-02 -8.07964429e-02 -1.19280647e-02 -1.84738412e-02 -1.71951011e-01 +3.82916853e-02 +3.76143977e-02 +2.49925368e-02 -1.15675732e-01 +5.28450496e-02 +1.18750960e-01 +8.24078619e-02 -1.68449339e-02 -7.23541379e-02 -2.35885158e-02 +1.00065455e-01 +1.93741750e-02 +5.74648194e-02 +9.07893404e-02 -2.44367085e-02 -5.23365885e-02 -4.30030040e-02 -1.72940388e-01 +8.69401470e-02 -8.52076039e-02 -1.23182975e-01 +1.99181549e-02 +6.67792410e-02 +1.42506987e-01 -8.39225873e-02 +9.67030823e-02 -3.22306268e-02 -8.55411068e-02 +4.93867602e-03 +7.50953406e-02 -2.36668680e-02 +3.42565589e-02 +2.43904797e-05 -7.27882236e-02 -5.42760864e-02 +3.95677499e-02 +1.10905543e-02 -1.28001124e-01 -2.03736067e-01 -1.07286029e-01 -1.18187986e-01 -1.85387835e-01 +4.81597856e-02 +9.77549776e-02 -1.76723469e-02 -6.83492944e-02 -1.54339060e-01 -7.52861872e-02 -7.24447295e-02 -9.89455655e-02 -1.05441064e-02 -1.58952847e-02 -1.01304032e-01 +6.39695004e-02 -1.13204822e-01 +8.46743882e-02 +6.96665049e-02 +1.64168805e-01 +9.45082232e-02 +5.06259166e-02 -6.50270060e-02 -1.74331129e-01 +1.37537524e-01 +8.77630338e-02 -1.07978238e-02 +2.41965353e-02 -2.59787049e-02 -3.70726734e-02 -1.38044795e-02 -1.34757057e-01 +2.31893193e-02 -1.00716725e-01 -3.92062729e-03 +4.10064543e-03 +4.95228432e-02 +1.06254645e-01 -8.78779516e-02 +3.41023989e-02 +2.46009063e-02 -4.98013273e-02 +6.36601001e-02 -5.48041798e-02 -9.23919827e-02 +5.87684475e-02 +2.71843076e-02 -5.38330562e-02 +4.74687219e-02 +3.51621658e-02 +4.22700262e-03 +1.11463657e-02 -8.22136253e-02 -6.30315468e-02 -3.48007083e-02 +2.69582093e-01 +1.36984065e-01 -1.03619881e-01 +6.87578321e-02 +3.53727043e-02 +7.85623044e-02 -2.91962810e-02 +2.91494578e-02 +8.90880004e-02 +6.49373978e-02 +6.03185259e-02 -6.59029558e-02 -1.14677306e-02 -7.91963190e-03 -1.64640397e-02 -5.27906977e-02 +3.13322507e-02 -2.79130545e-02 +1.34692445e-01 +2.46124100e-02 -1.45855621e-01 +9.40859504e-03 -9.21881199e-02 +1.38582662e-01 +7.63340667e-02 +3.13235261e-03 -5.49673028e-02 -1.92066524e-02 +1.33719668e-01 -2.52481811e-02 +3.12916562e-03 +2.23924872e-02 +8.77056643e-02 -3.39700989e-02 +1.36228576e-02 -1.11937523e-01 -4.14594188e-02 +1.21169955e-01 -5.99433370e-02 +6.41095787e-02 +6.27076626e-02 +4.38504145e-02 -1.37954026e-01 +3.28095779e-02 -2.05451623e-02 +6.24922998e-02 +6.31620511e-02 -5.94653524e-02 +8.14008936e-02 -2.69360691e-02 -4.82560992e-02 -8.68412554e-02 -4.84608114e-02 -7.45282844e-02 -8.62466991e-02 -3.03383432e-02 -1.39794135e-02 -6.49380237e-02 -6.54867440e-02 -2.82774735e-02 +2.46132575e-02 +1.03779666e-01 +6.68059587e-02 -1.15710432e-02 -1.38029858e-01 +4.06490527e-02 +3.57371345e-02 -8.80596414e-02 -6.40336648e-02 +5.60056604e-02 +1.41730070e-01 -1.05716795e-01 -4.52295989e-02 -9.78882834e-02 +1.65758375e-02 +9.94260386e-02 -1.02740899e-01 -6.13473170e-02 -3.12378313e-02 -6.46938086e-02 +1.40440285e-01 +2.77954135e-02 +7.54895285e-02 +1.89960212e-01 -1.02687746e-01 -7.96465501e-02 +5.21522462e-02 +2.45386045e-02 -8.45705438e-03 -5.99095672e-02 +6.20857254e-02 -4.27329615e-02 -3.83665562e-02 +4.83035482e-02 +4.44571115e-02 +9.61058587e-02 +9.40439031e-02 -2.86122449e-02 -1.09297231e-01 +1.34214625e-01 +1.13563195e-01 -6.03172630e-02 -2.64226012e-02 -4.83274721e-02 +1.69491574e-01 +2.43909992e-02 -1.12686977e-01 -1.12840876e-01 +1.78982720e-01 -3.94607708e-02 -5.03793322e-02 +7.29829445e-02 +2.70764139e-02 -2.43399050e-02 -1.06891565e-01 +5.55413514e-02 +9.23148915e-02 -5.17738909e-02 +7.64579698e-02 -3.04706171e-02 -2.79304627e-02 +8.68817270e-02 -1.06678635e-01 +7.68019184e-02 -5.32587096e-02 -1.26454338e-01 +1.35181069e-01 +9.52762365e-02 -1.65330023e-02 -2.93389522e-02 +4.50282991e-02 +1.39213979e-01 +1.02055985e-02 -4.65276476e-04 +8.12771842e-02 +1.45222813e-01 +9.33776796e-02 +2.39002444e-02 +1.16559289e-01 +7.37252533e-02 +9.35375467e-02 +1.60632476e-01 +2.34702006e-02 -7.26071447e-02 +8.29459503e-02 +1.25951814e-02 +5.57377748e-02 +9.78381261e-02 +1.55313402e-01 -1.00991033e-01 -1.01043871e-02 +1.44121572e-01 +1.15389163e-02 +9.79112536e-02 +4.29236740e-02 +4.78235409e-02 -7.71888625e-03 +9.61313695e-02 -1.68645740e-01 -2.28202883e-02 +4.31181677e-02 -8.59609917e-02 +1.25020789e-03 +2.31648028e-01 -4.11247723e-02 +9.76931900e-02 -1.00175008e-01 -1.25000170e-02 +1.03935547e-01 +3.80076729e-02 -2.21218932e-02 -6.36778399e-02 -5.22027500e-02 -1.97986756e-02 -2.41815954e-01 -3.83798480e-02 -1.07456915e-01 -1.73590526e-01 -3.89709929e-03 +4.71646152e-02 +4.58962619e-02 +8.70599039e-03 +1.40721828e-01 +1.23573601e-01 -3.21231000e-02 -9.50879827e-02 +9.08822753e-03 +9.19705853e-02 -8.82107243e-02 +1.13789113e-02 -4.63964418e-02 +1.34460673e-01 -4.65870202e-02 +8.06502178e-02 -2.04482615e-01 -4.10066582e-02 +1.76363528e-01 -2.93144048e-03 -1.15543395e-01 -5.45328073e-02 +7.71997571e-02 -1.02936581e-01 +4.00004350e-02 +1.79794114e-02 -1.87104791e-02 +7.36874193e-02 -2.08967581e-01 -9.42006037e-02 +8.89963061e-02 -3.33679579e-02 -2.01442558e-02 +4.18076180e-02 +4.03202698e-02 -6.92204456e-04 -5.08236997e-02 +6.25860319e-02 +3.19917053e-02 -8.80133882e-02 +9.18906182e-02 +2.33169347e-02 -2.32383162e-02 +3.44441719e-02 -5.17840870e-02 -1.06731631e-01 +2.01842189e-02 +3.58831324e-02 -1.82967916e-01 +3.21895182e-02 +2.28791800e-03 +7.21748024e-02 +2.27650851e-02 -6.42438233e-03 +4.17973325e-02 +4.80451249e-02 +1.63843602e-01 -3.97896394e-02 +2.72155665e-02 +1.15626760e-01 -2.56781280e-02 -8.00231323e-02 -1.21779241e-01 -1.19898640e-01 -2.03761868e-02 -1.70091540e-01 -2.60138214e-02 -1.28544504e-02 -7.31833428e-02 +3.96419056e-02 +6.44191355e-02 +2.26098653e-02 +2.44799256e-02 -6.40297309e-03 +2.39115953e-02 +2.01154575e-02 -1.61389410e-02 -6.30781204e-02 +4.92034145e-02 +5.98619599e-03 +1.85911596e-01 +9.46375728e-02 -1.00146616e-02 +1.04505889e-01 -1.27988935e-01 +7.12547591e-03 -7.79543519e-02 +5.70406616e-02 +7.48642371e-04 +4.58678027e-04 +1.97240189e-02 +7.21272752e-02 +1.81244165e-01 -2.64176354e-02 +7.72613846e-03 +8.61942545e-02 -7.30798095e-02 -9.80397314e-02 +1.94181487e-01 +4.52336408e-02 -1.82897598e-01 +1.21621424e-02 -8.80814493e-02 -3.32981423e-02 +1.73104063e-01 +5.33474535e-02 -4.75668684e-02 -1.19853199e-01 +1.40856400e-01 +4.54509445e-03 +3.09950430e-02 +5.23822606e-02 +1.58745810e-01 +1.66381419e-01 +1.18040829e-03 -2.01700881e-01 +1.94365922e-02 +5.42854285e-03 -8.53196308e-02 -1.48723349e-01 -5.38410246e-02 -1.03778746e-02 -6.92526670e-03 -5.04002608e-02 -1.48773761e-02 +4.65694293e-02 -4.41703312e-02 -1.02173358e-01 +4.55862023e-02 +1.46711081e-01 +5.96614592e-02 +7.28304386e-02 -1.51524723e-01 -2.03828856e-01 +3.87079529e-02 +1.93631694e-01 -1.22317433e-01 +9.27941054e-02 -5.09765968e-02 -5.89757971e-03 +2.22843252e-02 -6.00044280e-02 +1.83869630e-01 +1.04836412e-02 -4.02900167e-02 -7.79513940e-02 -9.38769653e-02 +1.92288458e-02 +8.68935697e-03 -8.01941454e-02 +2.18672324e-02 +1.78027879e-02 -3.11761536e-02 -6.22313172e-02 +4.12432626e-02 +4.50103916e-02 -1.62395731e-01 +1.28429830e-01 +1.67240743e-02 +6.35048226e-02 +7.42091313e-02 -1.06441721e-01 +9.96739194e-02 -5.67108952e-02 -2.54494578e-01 -1.51029587e-01 -1.46383837e-01 +2.78652906e-02 -1.15981601e-01 -1.36965318e-02 -3.18511516e-01 -1.58498660e-01 -2.34753229e-02 -1.07656218e-01 +1.13090932e-01 -9.04311985e-02 +1.03151351e-01 -1.85267493e-01 +5.65709844e-02 -1.33655950e-01 +1.21766858e-01 +1.18023098e-01 -7.89918005e-02 +9.18226968e-03 +4.42008823e-02 -1.51643515e-01 -7.02855736e-02 +2.39735469e-02 +1.00010820e-01 +6.27478510e-02 +2.46506169e-01 +4.42034937e-02 -3.26147415e-02 +7.88941607e-02 -5.83025105e-02 +3.77829149e-02 -1.24983214e-01 -9.00476277e-02 +8.77844393e-02 +6.66274503e-02 -1.12954900e-01 +3.32994349e-02 -8.28057230e-02 -4.23858203e-02 -1.27838664e-02 -5.83656430e-02 -6.48669675e-02 -2.07002908e-01 +1.06306449e-01 +7.71209523e-02 +6.96569309e-03 -9.40368101e-02 +1.73872426e-01 +2.11872667e-01 -6.34008944e-02 -1.11127719e-01 +9.78941470e-02 +9.44050401e-02 +3.63431200e-02 -4.25629355e-02 +1.25061274e-02 -1.65890560e-01 +1.58660099e-01 +6.16806075e-02 +9.37799588e-02 +1.84085235e-01 +2.50987429e-02 +1.72814474e-01 -2.45967358e-02 +1.83704436e-01 +1.43245324e-01 -1.19067535e-01 -4.45891954e-02 -1.44755095e-01 -3.54895890e-02 -1.45021230e-01 +1.94047708e-02 +2.17398435e-01 -1.90696627e-01 +2.38051638e-01 +7.25173391e-03 -1.50313735e-01 +6.09013401e-02 -1.24089830e-02 -7.15546981e-02 +2.52482206e-01 +1.33223971e-02 +6.68670330e-03 -7.35404938e-02 -1.28591061e-01 -6.67252988e-02 +1.49606746e-02 -1.17033988e-01 +1.01108298e-01 +1.61289245e-01 +1.46165982e-01 +9.19955224e-02 +2.93851420e-02 +7.98619688e-02 -1.47253098e-02 +3.72036323e-02 -1.20182103e-02 -1.02391541e-01 -1.57558545e-02 -2.33944077e-02 -6.12613522e-02 -4.56865132e-02 +1.57764301e-01 +4.53399904e-02 +1.85698986e-01 +1.93329137e-02 +4.10206849e-03 -1.16345088e-03 +3.89991738e-02 -1.32424325e-01 +6.70390651e-02 -6.80895299e-02 +1.44940943e-01 -1.08555399e-01 -5.51073477e-02 +2.99378927e-03 -2.24104926e-01 +5.37375994e-02 +2.79784352e-02 +7.38429576e-02 -2.03021973e-01 +7.46202990e-02 +3.61628942e-02 +4.34810594e-02 +1.74207799e-02 +6.25042170e-02 -2.95889508e-02 -8.06559809e-03 -8.97008032e-02 +1.61308963e-02 +2.42898762e-02 +6.55767918e-02 -2.37353630e-02 +1.09408265e-02 -2.14706883e-02 +1.50632679e-01 +4.97803241e-02 -3.71099226e-02 -1.73569154e-02 -3.82901430e-02 +1.31914005e-01 +9.22769532e-02 +6.38093948e-02 +7.55927935e-02 +1.91203207e-02 +7.27999732e-02 +1.96680706e-02 +3.92387845e-02 -8.85671750e-02 -1.32559687e-01 -5.62691428e-02 +5.40989786e-02 -1.00869544e-01 +6.78480789e-02 +2.73083476e-03 +4.35426831e-03 -3.48320976e-02 +2.40374415e-04 +1.88324273e-01 +8.52579176e-02 +1.45262340e-02 +1.09823234e-03 +7.86844548e-03 -9.50997099e-02 -4.35656719e-02 -3.34513234e-03 +2.48986688e-02 -1.00227527e-01 +3.45449708e-03 -1.11216558e-02 +1.22071899e-01 -3.24947983e-02 +4.12383117e-02 -1.96452048e-02 +1.42004237e-01 -8.44688565e-02 +9.63506475e-02 +5.84262796e-02 +7.28688911e-02 +3.60981412e-02 -5.33523820e-02 -5.67930005e-02 +7.51695037e-02 -5.06328829e-02 -4.11074385e-02 +1.04270559e-02 -4.26135920e-02 -2.65570097e-02 +2.54544020e-02 +6.07777014e-02 -1.15978234e-01 -1.40964577e-03 +4.46410365e-02 -1.25231668e-01 +4.53760214e-02 -3.79719846e-02 -5.06193116e-02 -3.64242168e-03 +3.63473557e-02 -1.52221620e-01 +1.45941332e-01 -7.29996189e-02 -8.98830295e-02 +7.19847009e-02 -7.85614848e-02 -5.82286902e-02 +1.76106632e-01 +4.30966429e-02 +6.73218910e-03 -3.31291296e-02 +2.88836565e-02 -5.54496720e-02 -5.64078987e-02 +1.74713179e-01 +3.31110135e-02 +7.17420131e-02 -3.44275981e-02 +1.55895427e-01 -7.93732032e-02 +9.44306143e-03 -1.82920977e-01 +2.24589258e-02 -8.88426900e-02 +5.49559295e-03 +5.03986562e-03 -1.00999465e-02 -2.27926392e-02 +2.78102681e-02 +6.13414720e-02 +1.53703749e-01 -2.10837442e-02 +2.69969217e-02 -8.31592754e-02 -2.14342885e-02 +5.72311729e-02 +7.09007233e-02 +8.61959085e-02 -9.36305821e-02 +9.06357244e-02 +3.43536772e-02 +8.89959484e-02 +1.55847251e-01 +1.11737721e-01 +2.62286067e-02 +9.03964490e-02 +1.86418705e-02 +7.77847320e-02 +1.73040316e-01 +1.23492725e-01 -1.13992408e-01 -8.17388147e-02 +1.88219629e-03 -1.89868528e-02 +8.80117416e-02 +3.13694663e-02 +5.79380617e-02 +1.38101116e-01 +1.06581278e-01 -4.58063632e-02 +1.95973173e-01 +1.30576462e-01 +1.66530803e-01 +5.74509660e-03 +1.30601437e-03 +4.14139368e-02 -2.23010555e-02 +2.01807275e-01 +5.94176464e-02 +5.99769801e-02 +1.20001696e-01 +1.65730417e-01 -1.16294324e-02 +9.69551355e-02 -1.13631397e-01 +4.35025953e-02 +7.64120892e-02 -1.74150109e-01 +5.00051118e-02 +3.94892544e-02 -5.27762622e-02 -4.91725728e-02 +9.71178561e-02 -3.98248620e-02 -2.40879524e-02 +1.40817659e-02 +2.06779372e-02 -6.83676824e-02 -5.05947247e-02 +1.20460689e-01 +2.77410317e-02 -3.11137643e-02 -6.70552924e-02 +3.19125913e-02 +5.84864663e-03 +8.57394412e-02 +1.55073488e-02 +9.26928595e-02 -4.01451960e-02 +3.68278250e-02 -7.76337683e-02 +9.71261004e-04 -9.44983587e-02 +8.43661651e-02 +3.47168520e-02 -1.95070989e-02 -1.58958677e-02 -1.27062961e-01 +1.06112950e-01 +1.55823007e-02 +2.89005134e-02 -4.29367200e-02 -1.47836387e-01 -1.84878141e-01 +2.32926626e-02 +4.30953912e-02 -4.71117571e-02 -2.25188602e-02 -1.36597708e-01 +5.83025403e-02 +3.27790044e-02 -1.23947605e-01 -1.02074981e-01 +6.57007992e-02 +6.01154156e-02 -4.15616482e-02 +5.66263050e-02 -1.50984004e-01 -1.13490820e-01 -1.47342402e-02 -1.13374360e-01 -1.57744393e-01 +1.87444258e-02 +1.86231006e-02 +1.03702210e-01 +2.06579082e-02 -4.18536104e-02 +3.39456163e-02 -1.04312956e-01 -3.09166759e-02 -3.79837453e-02 -1.16278720e-03 -1.47825703e-01 +1.07742511e-01 +7.45605528e-02 -1.18785091e-02 +1.55170470e-01 -4.01007421e-02 -1.15361191e-01 -9.85800177e-02 +1.50086671e-01 -8.78404975e-02 -1.61859039e-02 -5.91950826e-02 +5.65115735e-02 -7.57977292e-02 +1.31759733e-01 -1.38510302e-01 +9.16101187e-02 +3.81668806e-02 +9.49020833e-02 +3.97800580e-02 +5.16299419e-02 +1.07518710e-01 +2.64519583e-02 -4.48523723e-02 -1.60000086e-01 -1.01789385e-01 -9.58695039e-02 +1.49620185e-02 +5.43881059e-02 +7.02817813e-02 +1.80532455e-01 -1.33078039e-01 +5.51497787e-02 -1.75079793e-01 -6.32632524e-02 -4.75551700e-03 +1.59817678e-03 -7.75325764e-03 +1.49836764e-01 -2.07406916e-02 +2.61524618e-02 +1.64745510e-01 -3.58176418e-02 +7.33321980e-02 -4.08426411e-02 +3.78292091e-02 -3.50213386e-02 -8.03362057e-02 +2.47989967e-02 +5.31802922e-02 +9.46385413e-03 -1.70666039e-01 +5.66657558e-02 +7.54497498e-02 -9.45544541e-02 -1.17541701e-01 -3.31795327e-02 -3.00849024e-02 -1.12526543e-01 -1.15739681e-01 +6.61933422e-02 +7.37020075e-02 -1.03075899e-01 -1.69971466e-01 +2.48176809e-02 -5.57626784e-02 -4.73546200e-02 -1.50453493e-01 +5.72931170e-02 -1.13225495e-02 +2.08962057e-02 -6.95095211e-02 +5.16066998e-02 -7.12757707e-02 -1.10276662e-01 -9.93035883e-02 -1.40972748e-01 +1.73984878e-02 +1.50552318e-02 -1.07865341e-01 -1.25946552e-01 +2.74984092e-02 -1.55998329e-02 -1.35904830e-02 -9.56745744e-02 -1.13529317e-01 -2.70992130e-01 +1.76783726e-01 -1.75784491e-02 +7.30983838e-02 -7.48130977e-02 +3.10620908e-02 +1.46828383e-01 +4.64249924e-02 -1.60234421e-01 +1.04938157e-01 -1.71697140e-01 +3.50524038e-02 -1.47668809e-01 +7.05621764e-02 +9.01382267e-02 +1.93442535e-02 +2.36106385e-02 +8.44953656e-02 +3.94799784e-02 -2.14551210e-01 +1.00242116e-01 -8.28083232e-02 -2.89494824e-02 +3.38159241e-02 +1.13660969e-01 -1.37407750e-01 -1.42760709e-01 -1.45035103e-01 +5.87380044e-02 -2.29238108e-01 +1.56064570e-01 +5.88566214e-02 +1.22292235e-01 -1.42796919e-01 +1.22295566e-01 +5.51749719e-03 +9.73695591e-02 -9.35781673e-02 -6.30419627e-02 -9.27486494e-02 -1.26090929e-01 +1.02053106e-01 -4.02352400e-02 +1.73356906e-01 +1.00243166e-01 +5.39115109e-02 +5.81604727e-02 -1.69297345e-02 -7.84774199e-02 +5.06862812e-02 -5.76006025e-02 -5.78141734e-02 +5.59514202e-02 -5.38619757e-02 +9.93047580e-02 -1.32585511e-01 +6.37235539e-03 -5.20741940e-02 +6.88270777e-02 -7.86316246e-02 -4.71834064e-04 -1.89903319e-01 -3.91865894e-02 -9.19027627e-02 +1.10050246e-01 +2.70487890e-02 -1.32563733e-03 +1.27576247e-01 +3.90715934e-02 +4.58603390e-02 -8.13173950e-02 +1.18534770e-02 +5.33456057e-02 -1.52349863e-02 -1.77824140e-01 +1.90001708e-02 -5.07015772e-02 -3.42497155e-02 -5.27050756e-02 -6.76765591e-02 -3.39563265e-02 -7.40545467e-02 -2.25648042e-02 -1.66588232e-01 +1.13098703e-01 -4.93807271e-02 +1.10737972e-01 +1.23674415e-01 +9.34079662e-02 +4.42401282e-02 -1.13960713e-01 -1.06026910e-01 +6.66324645e-02 +6.50498737e-03 +9.86856967e-03 +2.56306585e-02 +2.62313094e-02 +1.02299817e-01 +7.37795159e-02 -3.24673980e-04 +2.19703540e-02 -1.78339243e-01 +1.31398505e-02 +3.42606939e-02 -1.84661839e-02 +2.43329480e-02 -1.68846682e-01 +1.27924800e-01 +2.14226153e-02 -6.05774410e-02 +8.02389462e-04 -4.55507264e-02 +1.05759166e-01 +1.32403806e-01 -1.04629695e-01 +1.00392282e-01 -4.06243466e-02 -5.19464025e-03 -9.39069688e-02 +1.50976211e-01 -1.14475619e-02 +1.22366749e-01 -1.74760632e-02 -1.63657680e-01 -2.07230216e-03 -5.33890165e-02 -6.51287735e-02 -2.61520897e-03 -2.98734475e-02 +5.62604629e-02 -9.44510251e-02 -2.65629262e-01 +2.20431536e-02 +3.29230241e-02 +8.65799934e-02 -1.65500000e-01 -1.69992551e-01 +1.18834391e-01 +3.71413715e-02 +7.38062561e-02 +3.69884185e-02 -4.04702947e-02 -5.18595576e-02 +7.42381737e-02 +1.04042716e-01 +5.31318039e-02 +2.53443886e-03 +2.85415143e-01 +1.72861218e-01 -1.43801585e-01 +1.45947844e-01 +1.21834530e-02 -2.04045579e-01 -1.48705542e-01 +9.78216901e-02 -9.79082286e-02 +7.42592141e-02 +2.08037626e-02 -4.26380001e-02 -6.25714660e-02 +4.28231396e-02 +1.45857364e-01 -1.22229857e-02 +1.00680560e-01 +3.25534940e-02 -1.06802776e-01 -9.89008099e-02 -7.87747130e-02 -3.73012782e-03 +6.70346320e-02 -7.88710043e-02 -5.34912944e-02 -1.41085178e-01 -1.60660744e-01 +2.75382344e-02 +9.10237134e-02 -8.07839781e-02 -4.98911254e-02 +2.06031725e-01 -8.47161859e-02 -1.27196044e-01 -1.62164494e-01 +3.13098617e-02 -3.08297444e-02 -1.12123648e-02 -1.57309827e-04 +1.78512752e-01 +7.42029026e-02 -6.98074251e-02 +1.77190974e-01 +5.89297190e-02 +1.70354974e-02 -1.42852843e-01 +5.56398816e-02 +8.62546638e-02 +1.66091070e-01 -5.10064736e-02 +8.93582329e-02 +1.37926877e-01 -5.65966740e-02 +1.40306219e-01 -1.51158661e-01 -8.57795328e-02 +2.28256062e-02 +6.38536527e-04 -5.01326546e-02 -2.61652112e-01 +2.38155648e-02 +9.79540199e-02 +5.76006398e-02 +2.63535557e-03 +8.27000663e-02 -1.75357498e-02 +1.12143904e-01 -1.12358686e-02 +1.29064277e-01 +1.55508876e-01 -1.06719760e-02 -1.04730703e-01 +5.49313091e-02 +3.83404121e-02 -1.32834777e-01 +4.75349985e-02 -1.57885030e-01 -9.84512717e-02 +9.69545543e-02 -5.29883131e-02 -1.28637224e-01 +9.87967942e-03 +1.75521061e-01 -1.60824195e-01 -2.52200276e-01 -4.11257036e-02 -8.81351605e-02 -7.64298812e-02 -8.80864337e-02 -3.25159691e-02 -1.65137257e-02 +1.38421386e-01 +6.09784834e-02 -1.68505624e-01 -1.71985999e-01 -5.10864519e-02 -1.25467807e-01 -8.76120776e-02 +6.61051795e-02 -3.07747312e-02 +3.95609811e-02 -1.41654834e-01 -1.07209712e-01 -1.58218980e-01 -2.17118859e-02 +5.12589850e-02 -8.81145895e-02 +5.70150651e-02 +2.34423846e-01 -6.36923453e-03 -2.73730103e-02 +2.16074032e-03 -5.66721931e-02 +1.37869433e-01 +1.20646313e-01 -4.45810407e-02 +2.43875906e-02 -3.22127081e-02 +2.34627843e-01 -9.62494388e-02 -5.43856099e-02 +4.79085883e-03 +4.09686565e-02 -4.85668853e-02 -1.61109883e-02 -4.51809801e-02 +2.81280112e-02 +7.91026801e-02 -1.74441785e-01 +1.09677792e-01 -7.11798668e-02 +8.07482377e-02 -5.81013486e-02 -9.89639200e-03 -2.32532341e-02 +1.70630459e-02 +6.80830553e-02 +5.30775636e-02 +5.59755079e-02 -4.09343503e-02 +1.00656956e-01 +7.08748996e-02 +7.44895786e-02 -3.15411463e-02 +1.23396553e-02 -6.45816326e-02 +8.35157409e-02 +9.58570540e-02 +1.34400548e-02 +1.75910462e-02 +4.43297699e-02 -5.53684272e-02 +8.48337933e-02 +8.70131254e-02 -1.57680064e-01 -4.90999706e-02 -1.24456339e-01 -1.27550884e-04 -2.74211727e-02 -4.59366292e-02 -6.11498430e-02 -4.22812961e-02 +5.45085333e-02 +2.76311040e-02 -5.58405258e-02 +4.36590463e-02 +2.38544084e-02 +1.61482934e-02 -7.78299645e-02 +4.85697109e-03 +4.33406495e-02 -7.14745298e-02 -1.23861544e-01 -6.78688195e-03 -9.04619023e-02 -3.70350927e-02 +1.04339927e-01 +9.02517885e-02 +8.84307250e-02 -1.69668905e-02 -3.19719836e-02 -8.39545876e-02 +5.02714813e-02 +9.83993411e-02 +2.32346226e-02 +9.17712674e-02 +5.06287031e-02 -8.70633349e-02 +3.93120721e-02 +2.77339332e-02 -1.53948948e-01 +1.91260371e-02 +5.37687801e-02 -5.23095392e-02 +8.12535584e-02 -4.46458384e-02 -5.82196936e-02 -1.33439496e-01 -2.39173938e-02 -1.10890694e-01 +6.19519502e-02 +5.00100143e-02 +7.43070990e-02 +4.75603268e-02 -4.11416255e-02 +9.37062036e-03 +1.26944095e-01 -1.01626277e-01 +6.50235787e-02 +5.35352081e-02 -6.46176934e-02 +1.37529328e-01 -1.35116920e-01 +2.74712197e-03 -1.01115607e-01 +1.23771191e-01 +1.03230149e-01 -2.48008762e-02 +5.90933636e-02 -5.59807830e-02 +2.43885070e-02 +2.95465160e-02 -3.37797590e-02 -1.89756945e-01 -5.24347126e-02 +1.14095479e-01 -2.87826117e-02 -1.36634745e-02 +7.08332509e-02 +7.65958503e-02 -7.11782742e-03 -2.68928614e-02 +8.85009393e-02 -9.38835815e-02 -4.14099023e-02 -3.41081470e-02 -1.24559812e-02 +7.14056119e-02 +7.59082288e-03 +9.52538326e-02 +9.46279541e-02 +4.29661348e-02 +4.47936803e-02 +8.13745260e-02 +1.64531183e-03 +1.67961475e-02 +2.72764079e-02 +2.62112375e-02 +6.03850968e-02 +1.38210908e-01 -1.17263697e-01 -2.28929357e-03 +3.44828218e-02 -2.28105318e-02 -2.82089785e-02 -9.30244476e-02 -1.02053797e-02 +1.20468408e-01 -2.24844385e-02 -3.80611829e-02 +1.41025661e-02 -1.29919164e-02 -1.30225256e-01 +2.19380837e-02 +4.78031971e-02 +7.53765274e-03 -1.28643364e-01 -4.28013429e-02 +5.41995578e-02 +1.00785075e-02 -1.50440596e-02 +3.51933129e-02 -1.07268430e-01 +2.80474126e-02 +3.39505710e-02 -1.79381459e-03 +1.93270762e-02 +5.34816831e-02 +6.09707721e-02 -5.84936738e-02 +1.30450919e-01 -3.82450260e-02 +3.53743043e-03 +5.27311452e-02 -3.65215577e-02 -5.68635315e-02 -6.39390051e-02 -1.94573291e-02 +8.08894634e-03 -1.61733013e-02 +3.06915566e-02 -4.09242138e-03 +6.29738197e-02 -2.25339215e-02 -9.51025914e-03 -4.31473777e-02 +8.70605484e-02 +2.04451643e-02 -6.57593831e-02 +1.36190373e-02 +1.71498768e-02 +3.80709767e-03 -3.39359343e-02 +1.39840785e-02 -9.85296816e-03 -4.39443812e-02 -2.01296005e-02 +3.79856601e-02 -7.88021162e-02 +8.16662386e-02 -3.46597331e-03 +8.21079463e-02 -7.06558228e-02 -6.53365208e-03 +4.04201634e-02 +7.28514940e-02 -8.73556733e-02 -2.51772720e-02 -3.79519537e-02 -6.04899451e-02 -1.45437028e-02 +1.42528089e-02 +2.64443234e-02 +2.33125668e-02 -1.81870013e-02 -2.28999201e-02 -6.21941814e-04 -4.37449217e-02 +4.54922505e-02 +5.49567193e-02 -3.27158011e-02 +2.34721284e-02 +7.22720698e-02 -4.43543307e-02 -3.98362577e-02 -4.13345499e-03 -5.88585176e-02 +2.27490626e-03 -3.06770368e-03 +6.17665574e-02 -5.28536700e-02 -1.88011155e-02 -6.74435198e-02 +1.57290492e-02 +6.16744980e-02 -3.72724645e-02 -7.50339255e-02 -1.04581557e-01 -7.59797078e-03 +7.48108700e-02 -4.32931371e-02 -6.38557673e-02 +2.16824457e-01 -2.93085501e-02 -1.77972652e-02 +3.03473957e-02 -2.37144575e-01 +2.56526247e-02 -1.30323460e-02 -5.10579012e-02 +1.44028798e-01 -8.23162869e-02 +1.17978491e-01 +4.91926186e-02 -1.77002341e-01 -2.98763096e-01 +2.47420021e-03 -1.31513849e-01 -1.97021157e-01 -9.50075835e-02 +2.41316602e-01 +2.02878807e-02 +3.91505845e-02 -1.38995588e-01 -2.34103203e-01 +1.18009984e-01 +8.91422201e-03 -5.42802699e-02 -9.33614671e-02 -7.29390457e-02 -6.27491027e-02 +6.36027232e-02 -9.96028408e-02 -1.19877882e-01 -1.66672423e-01 +1.69201214e-02 +9.97914672e-02 +1.32080168e-01 -1.50933996e-01 -8.88304412e-02 +1.01677207e-02 +4.13565040e-02 +9.86175612e-02 -5.08855991e-02 +5.06937280e-02 +2.46193439e-01 -1.37730334e-02 -2.09296837e-01 +1.28051698e-01 +2.99111456e-02 +1.97939828e-01 -1.23288609e-01 -9.48249921e-02 +1.59672089e-02 +4.44756113e-02 -4.06303331e-02 -4.38827723e-02 -3.42430845e-02 +4.37357351e-02 +1.07992582e-01 +5.29591031e-02 +1.26761898e-01 +1.13428459e-01 -5.34348749e-02 +2.09443584e-01 +1.50655434e-01 -2.26901174e-02 +1.02017261e-01 -1.09475471e-01 -3.59201618e-02 +4.99054156e-02 +3.90493535e-02 -3.38760321e-03 +1.65426344e-01 -1.09356657e-01 -1.36477232e-01 -3.66285630e-02 -1.55347884e-01 +1.46521688e-01 +5.57383895e-02 +4.93989252e-02 +1.00891121e-01 -1.13146447e-01 -3.88770103e-02 -4.26536649e-02 -5.06967306e-02 +1.13341399e-01 -3.65049392e-02 -3.90240876e-03 +8.35046023e-02 +9.21949074e-02 -2.82439552e-02 -7.84732625e-02 -1.17202923e-01 -1.21343471e-01 -3.24739143e-02 +8.89303014e-02 +4.19845507e-02 -1.82651654e-02 +1.71517864e-01 +8.86687264e-02 +7.13371634e-02 +8.86909664e-02 -2.70797629e-02 -3.33818533e-02 -1.20080588e-02 -8.07995871e-02 -3.94216962e-02 -2.32539445e-01 -1.08361267e-01 +1.41844317e-01 +6.27716333e-02 +1.72650263e-01 +3.93355787e-02 -1.74556434e-01 -1.92772120e-01 -1.42964497e-01 -2.18253136e-02 -1.67280007e-02 +1.46422997e-01 +7.30226189e-02 -9.48312581e-02 -1.63938999e-02 +7.46437460e-02 -1.05258457e-01 -2.06901580e-02 -1.13708533e-01 -1.22097999e-01 +5.73581532e-02 -1.15068235e-01 -5.57036400e-02 +6.14813641e-02 -8.46912265e-02 -1.11932226e-01 -1.57679677e-01 +9.22002569e-02 -6.29235804e-02 +3.48003507e-02 +3.43531817e-02 -8.49063843e-02 +1.42406188e-02 +1.05940379e-01 -1.46710485e-01 -1.45827085e-01 -2.41699070e-01 +1.92431271e-01 -2.52866030e-01 +2.14154273e-01 +2.01054633e-01 -7.11288527e-02 +1.68547392e-01 +3.21957991e-02 +9.80751142e-02 -1.74014567e-04 -8.85048881e-03 +1.42850429e-02 +2.02166419e-02 -1.45688012e-01 +6.43018354e-03 -8.65205899e-02 -7.46894777e-02 -4.46186401e-02 +7.25191236e-02 +6.99858665e-02 -8.67912844e-02 -5.79872243e-02 +1.79661244e-01 +5.49173616e-02 -6.18942454e-02 -7.89827555e-02 -7.20627781e-04 +7.69125521e-02 -1.93017051e-01 -1.54268831e-01 +9.26554960e-04 -1.52750865e-01 -7.36985505e-02 -1.04256496e-02 -1.60322055e-01 -1.25437342e-02 -2.37449519e-02 -1.38552608e-02 +1.25525996e-01 -1.13659002e-01 -1.00660529e-02 -1.24162525e-01 -5.17412014e-02 +1.50721386e-01 +5.81004433e-02 -4.39912118e-02 +1.20904356e-01 +1.32482305e-01 -7.74678811e-02 -2.59505138e-02 +1.76227584e-01 +8.78891498e-02 +1.29486650e-01 +1.13978982e-02 -1.97686329e-02 -1.50928333e-01 -1.04391262e-01 +7.54774436e-02 +5.12846969e-02 -3.15119177e-02 -5.86687066e-02 -4.30727676e-02 -8.99254084e-02 -1.29835740e-01 -1.61729887e-01 -3.45949456e-02 +1.57451317e-01 -4.45795953e-02 +8.90816078e-02 -1.08784266e-01 +5.56028895e-02 -9.34019387e-02 +1.53741203e-02 +3.33266631e-02 -4.32973765e-02 +4.05256227e-02 -1.54219553e-01 +3.69185656e-02 -5.10123521e-02 +1.62201822e-01 +1.27616646e-02 -1.62598893e-01 -4.33509983e-03 -8.59825239e-02 +7.93404281e-02 +1.22025385e-02 +1.08293794e-01 +1.11406505e-01 +6.11049170e-03 -1.93906054e-02 -2.56002489e-02 -3.22069451e-02 -1.05840331e-02 +1.07381582e-01 -6.44842396e-03 -5.12541495e-02 +9.26944762e-02 +4.02853899e-02 +1.06078267e-01 -9.93129332e-04 +1.28266020e-02 -1.05568938e-01 -1.00649130e-02 +2.18559071e-01 -6.29476532e-02 -2.02181619e-02 -9.55519378e-02 +4.50290106e-02 -4.32332456e-02 -4.14878242e-02 -4.93506081e-02 -1.93418656e-02 -2.35243086e-02 -1.44331306e-02 -7.96754956e-02 +1.78902335e-02 +5.52315973e-02 -1.71573415e-01 -5.69765409e-03 -3.48278843e-02 -1.43013149e-01 -3.98530923e-02 -2.18357574e-02 +2.15082858e-02 -4.12253849e-02 -5.26813604e-02 +6.82543730e-04 +1.72875077e-02 +9.48251635e-02 -1.38067186e-01 +4.16138247e-02 +3.78780514e-02 +1.26057982e-01 +5.29236393e-03 +7.26689324e-02 +8.93769972e-03 -3.49078444e-03 -3.71612608e-02 +1.39708295e-01 +7.98344985e-02 +9.46013927e-02 +1.60779372e-01 -1.51047669e-02 +6.60263048e-03 +3.01081613e-02 +2.51014344e-02 +9.67158675e-02 +7.56296739e-02 -1.64322048e-01 +8.90284255e-02 -1.93620082e-02 +1.92302056e-02 -2.34612729e-03 +8.82947072e-02 +6.81117699e-02 -1.06421635e-01 -4.36802469e-02 -1.16584292e-02 -2.83114742e-02 -9.09149721e-02 +6.19830005e-02 +8.89480263e-02 -1.00860357e-01 +1.36369720e-01 +6.01126552e-02 +1.58635259e-01 +2.02525437e-01 +3.26658525e-02 +5.73124178e-02 -7.18808696e-02 +5.69502972e-02 +5.05575864e-03 +2.30674203e-02 +3.60390283e-02 +2.35211831e-02 -3.26524191e-02 -2.59013306e-02 +3.18626687e-02 +9.54139605e-03 +6.13889247e-02 -1.59684811e-02 +5.94392344e-02 -7.08683208e-02 -2.46457979e-02 -7.86207523e-03 -9.84923318e-02 -3.10481768e-02 +7.73194730e-02 -4.51258458e-02 -3.60565893e-02 +1.93516817e-02 +1.60433426e-02 -1.58067048e-02 -9.57389474e-02 -5.01014404e-02 -1.35732666e-01 +1.53628429e-02 +6.27825633e-02 -3.65888700e-02 +1.04403431e-02 +2.38500554e-02 -4.83419485e-02 +5.16759837e-03 +6.00475743e-02 -1.54948413e-01 +1.97713496e-04 +6.93577901e-02 +3.94215584e-02 -9.59429890e-02 +1.14312671e-01 -1.86410528e-02 -9.34195891e-02 -3.38018015e-02 -4.36087959e-02 -4.59486023e-02 +1.08767085e-01 -1.07914783e-01 +7.12542981e-03 -7.60018677e-02 -9.00529996e-02 +3.97075228e-02 -2.95098945e-02 -7.95251597e-03 +3.03816795e-03 +2.24571861e-02 +1.05378889e-01 +6.74102316e-03 +8.59184936e-02 +4.92204465e-02 +4.93854992e-02 +1.74947139e-02 +1.19668610e-01 +2.92849299e-02 -6.07536323e-02 -8.70664269e-02 +2.84885187e-02 +4.25177403e-02 +9.76070017e-02 -1.13896877e-01 +3.38599868e-02 +5.67404479e-02 -1.68908089e-02 -2.86267772e-02 -5.22460006e-02 -2.49026380e-02 -3.63115370e-02 +3.68803218e-02 +8.74096341e-03 +2.67722216e-02 -3.61390598e-02 +1.24760056e-02 +3.65930027e-03 -4.21228446e-02 -2.41314657e-02 -2.37297621e-02 -7.50365183e-02 +3.40305082e-02 -1.66338030e-03 -1.75859168e-01 -6.15662970e-02 -8.27580839e-02 +2.35029962e-02 +2.30776519e-01 +1.81810662e-01 -6.92102015e-02 -5.44577986e-02 -1.22886509e-01 -8.86908174e-03 -5.66678979e-02 -2.16956034e-01 -4.36224230e-02 -8.88519641e-03 -9.29439366e-02 -5.96759841e-03 +1.34484857e-01 -5.21606691e-02 +5.98022575e-03 -6.01083040e-02 -1.28638774e-01 +1.39184799e-02 -4.07164395e-02 -3.85629795e-02 +2.22586654e-02 -4.51696776e-02 +1.14878781e-01 -3.87538821e-02 -1.50821581e-01 -6.12230215e-05 +1.94138940e-02 -1.54322505e-01 -7.53286332e-02 +3.75933642e-03 -2.44207442e-01 -1.62908331e-01 -1.05172563e-02 -4.93671224e-02 -9.79803205e-02 -5.55075705e-02 +3.30942124e-02 -2.15942517e-01 +7.39992335e-02 +1.37313098e-01 -9.64333396e-03 +4.39722538e-02 -2.07737789e-01 -5.09307012e-02 -2.85182241e-02 -8.96809995e-02 +4.31010276e-02 -4.62364294e-02 +8.79423879e-03 +1.00834601e-01 +2.81030059e-01 -7.12252185e-02 -9.51056406e-02 -3.04684421e-04 +7.96905905e-02 +1.08348392e-02 +4.19535600e-02 +4.04547229e-02 -8.79214983e-03 +1.56563148e-01 +4.06591408e-02 -1.21715568e-01 +1.06455445e-01 -1.24479480e-01 -9.10935327e-02 -2.15971768e-01 +6.68982044e-02 -2.73339767e-02 -2.74956435e-01 +1.16841927e-01 +1.37638122e-01 +1.04621761e-02 +7.62067884e-02 -9.85689387e-02 +1.23891376e-01 +2.57614553e-01 +6.51476011e-02 -7.18649179e-02 -1.25299811e-01 +6.82155862e-02 -1.11240700e-01 +1.05535284e-01 -7.57105425e-02 -9.38711762e-02 -1.02779083e-02 -5.78241684e-02 +4.46940139e-02 +2.93849736e-01 +6.97085857e-02 +8.99342969e-02 +2.86323309e-01 +9.21707824e-02 +6.26017153e-02 +8.59232321e-02 +1.21147837e-02 -1.30814672e-01 -1.46638453e-01 +1.07230265e-02 +7.67716244e-02 -1.59995444e-02 +1.92546472e-02 +9.51244384e-02 +8.78911372e-03 +3.84687982e-03 -1.33684531e-01 -8.59150290e-02 -3.08050383e-02 -1.37542700e-03 -7.90541396e-02 -1.53449178e-01 -1.02034375e-01 +4.07529883e-02 +1.72975272e-01 -2.30100527e-02 +6.65999874e-02 -2.17882171e-01 -1.67586744e-01 +5.55687863e-03 -9.60527733e-02 -5.72049767e-02 +5.84426038e-02 -2.14162506e-02 -5.13385646e-02 -3.87018993e-02 -1.08632939e-02 +5.83191179e-02 +4.93604038e-03 +2.79908441e-02 +3.14485095e-02 -5.72882853e-02 -5.73159382e-02 -4.49248441e-02 +3.22265700e-02 +2.24753655e-02 -1.28302559e-01 -5.62436283e-02 +1.47289019e-02 -3.48929688e-02 +1.19092964e-01 +5.13120368e-02 +1.31883606e-01 +4.34651896e-02 -1.00275740e-01 -7.29089752e-02 -1.86777458e-01 -4.72304113e-02 +4.37664464e-02 -1.09849714e-01 +1.06495969e-01 +7.20206201e-02 +3.21443714e-02 +1.29946217e-01 +8.42814986e-03 +4.94628437e-02 +6.01733550e-02 +9.38914716e-03 +1.44669354e-01 +1.02095306e-03 +1.19177196e-02 -6.72544986e-02 -7.37714097e-02 +6.98397979e-02 +5.15765697e-02 -1.77926254e-02 +7.23881125e-02 -6.64865151e-02 -1.09780440e-02 +5.50668836e-02 -1.52595937e-01 +2.91292067e-03 +7.63042718e-02 +1.94141977e-02 +3.39972191e-02 +6.81015551e-02 -9.42345858e-02 +4.52630334e-02 +8.82740691e-02 +3.21920263e-03 +3.74651775e-02 -1.34321287e-01 -1.37699604e-01 -4.34060656e-02 +1.04734972e-01 +5.90953827e-02 +3.39241279e-03 -1.11959495e-01 +1.82837263e-01 -8.79574418e-02 +2.19306406e-02 +1.39181927e-01 +2.40612268e-01 -3.27575989e-02 +8.30155164e-02 +5.43068424e-02 -6.69179484e-02 -3.17210518e-02 +3.31478678e-02 +3.36301234e-03 +9.00067016e-02 +1.50587529e-01 +5.52588981e-03 +6.30391389e-02 -5.59023321e-02 -1.48283141e-02 -1.65433774e-03 -6.64086416e-02 +5.34165539e-02 +2.11696550e-02 -3.52056557e-03 +1.03209920e-01 -1.02722526e-01 +3.03838521e-01 +1.96307734e-01 +1.53039191e-02 +8.19707587e-02 +4.34949435e-02 -8.13756436e-02 +4.58463207e-02 -1.65618241e-01 +1.09172143e-01 +1.29087627e-01 +1.34916469e-01 +1.99839771e-02 +5.15081286e-02 -4.93159257e-02 +2.22372994e-01 +1.78640723e-01 +2.08503783e-01 +5.89983389e-02 +3.84543324e-03 -3.02190818e-02 -6.20384561e-03 +7.40967169e-02 -3.89217287e-02 +8.08690116e-02 -1.32434338e-01 -4.40028822e-03 -3.84274237e-02 +5.11878170e-02 +4.92597856e-02 +1.04351521e-01 -1.97006930e-02 +8.55381563e-02 +2.06848960e-02 -4.18795794e-02 +4.28875796e-02 +1.08142465e-01 -5.21415621e-02 +7.50537887e-02 -3.69374268e-02 +7.87310600e-02 -1.54613808e-01 -1.26981243e-01 +7.24244416e-02 -5.63657805e-02 -4.98901866e-02 +1.45174265e-01 +3.52437794e-02 -3.61247845e-02 +4.85470518e-02 -9.49156843e-03 -1.67276829e-01 -3.21435109e-02 -6.47452027e-02 -1.77537408e-02 -4.49982332e-03 +9.15157273e-02 +8.22515339e-02 -9.03026685e-02 -7.66557008e-02 -8.62782672e-02 +5.74847832e-02 +5.94469681e-02 -1.56302154e-01 +1.56506866e-01 +1.56235974e-02 -8.30091387e-02 +3.42158042e-02 -1.78708583e-01 +1.68060642e-02 -1.05724975e-01 +9.60029289e-02 +8.29087049e-02 -3.72765623e-02 -1.05188712e-01 +5.17000780e-02 +8.66963193e-02 -2.33301278e-02 -7.75149465e-02 -4.35877405e-02 -1.59797534e-01 -1.36604667e-01 -1.17767103e-01 +1.77996606e-02 -4.41915356e-03 -1.13687031e-01 -6.96760193e-02 -1.39339402e-01 -1.51431197e-02 -1.02409936e-01 +7.42449984e-02 +4.65082936e-02 -2.17856035e-01 +8.88305828e-02 -1.26309618e-02 -9.43711847e-02 -2.54885778e-02 +4.45905980e-03 -2.28183996e-02 -3.91662717e-02 +1.78021006e-02 +1.19787224e-01 +1.91199139e-01 -1.63002700e-01 +8.06766748e-02 -1.01187885e-01 +9.08165239e-03 +1.28135026e-01 +6.80112094e-02 +4.97876406e-02 +1.53707892e-01 +6.96075987e-03 +1.23150833e-02 +7.28028491e-02 -3.60184982e-02 +1.44733638e-01 +9.80259329e-02 +1.32803723e-01 -6.61569163e-02 +1.58676337e-02 +2.60335635e-02 -2.67881036e-01 -1.50142759e-02 -1.45844733e-02 -1.16811335e-01 -1.50493026e-01 -2.42000185e-02 -7.62479231e-02 -3.05614322e-02 +4.86910008e-02 +2.58407354e-01 +4.25619781e-02 +1.27490237e-02 -8.65657032e-02 +1.19009940e-02 +1.24434140e-02 -9.61476043e-02 +1.21790625e-01 +4.68113124e-02 +6.38690144e-02 +3.99069004e-02 +1.27711818e-01 +3.18691395e-02 +6.53546900e-02 -1.00455567e-01 -2.68004704e-02 +7.06490278e-02 +9.65780870e-04 +7.01733157e-02 -1.06393121e-01 +8.96239951e-02 -7.30097964e-02 +7.03684688e-02 +1.89974755e-02 -6.09533228e-02 +4.46707522e-03 -5.66501208e-02 +2.66827047e-02 +6.25964953e-03 +5.46281673e-02 -6.40880987e-02 -1.64464027e-01 +1.06604032e-01 +2.66621206e-02 -6.15222268e-02 +1.08116912e-02 +1.57529339e-01 +9.42456350e-02 +3.04159969e-02 -1.74334850e-02 -2.12090120e-01 +3.62219959e-02 -1.83625966e-01 +3.43943783e-03 -6.13292381e-02 +3.15554417e-03 -1.79239884e-02 -8.08085278e-02 -3.93257365e-02 -1.30253583e-01 -5.72172627e-02 +3.69369239e-02 -4.66969348e-02 -1.32509872e-01 -1.20197825e-01 -7.01634362e-02 +7.31087103e-02 -3.30469832e-02 -6.80931136e-02 -8.28936920e-02 +8.86611193e-02 -6.43406585e-02 -7.78990239e-02 -2.13794187e-02 -4.27442454e-02 -9.33675244e-02 -9.86519270e-03 -6.69347718e-02 -6.75097108e-02 -2.19175220e-01 -1.75522014e-01 -5.89124560e-02 +1.15429901e-01 -1.39800698e-01 -3.39089185e-02 +8.13569315e-03 -4.33380865e-02 -8.44364762e-02 +1.28338352e-01 -9.47242677e-02 -1.14026040e-01 -2.31444426e-02 -1.46852667e-02 +8.78895633e-03 -3.21980506e-01 -4.04585376e-02 +1.19314767e-01 -5.01144454e-02 +8.28292295e-02 -9.02913511e-02 -3.86560336e-02 -1.44418448e-01 -1.30153432e-01 -1.00656375e-01 +1.29553869e-01 -5.90688549e-03 +5.07216938e-02 -2.57069860e-02 -1.84225664e-01 -1.38590366e-01 -1.83388218e-02 -9.52909663e-02 -1.38064465e-02 -1.67012364e-01 -5.27378405e-03 -1.02566786e-01 +1.41508311e-01 -1.40369654e-01 +7.61937816e-04 +2.87598670e-02 -6.73101246e-02 -1.37529686e-01 -4.19736244e-02 -9.06120986e-02 +1.62936643e-01 -9.46692973e-02 -4.02178727e-02 +7.32488409e-02 +2.20501446e-03 -1.06824756e-01 -1.28480628e-01 +7.32521042e-02 +2.00486645e-01 -1.02432251e-01 -8.99377689e-02 +1.12787776e-01 -8.35220516e-02 +7.88284019e-02 +5.13503775e-02 +4.47113775e-02 -1.09448202e-01 +2.71514114e-02 -3.75575596e-03 +7.09128231e-02 -2.17070151e-02 -4.88693491e-02 +5.96926641e-03 +7.77260512e-02 +4.26864773e-02 +1.21457558e-02 -1.71470288e-02 +3.75025393e-03 +6.62781894e-02 +5.29043004e-02 -5.39661795e-02 -8.59079212e-02 +1.26139279e-02 +1.49545036e-02 +4.39287759e-02 +3.94409224e-02 -7.85945356e-02 -2.13276949e-02 -8.56624842e-02 -1.23401389e-01 -6.81132227e-02 -1.38695955e-01 -3.22596692e-02 +6.84610009e-03 -9.39788073e-02 -4.56188135e-02 -7.40470365e-02 +1.81266237e-02 +1.10220667e-02 -1.04574122e-01 -5.88077977e-02 -1.23986334e-01 +1.47646358e-02 -2.83261910e-02 +1.62583534e-02 -1.32292643e-01 -4.47181016e-02 +4.89037633e-02 +1.62977815e-01 -1.07982993e-01 -3.15231122e-02 -6.99862512e-03 -1.56816244e-02 -4.62088659e-02 +1.50277302e-01 -1.21109739e-01 +9.12645161e-02 +3.18979770e-02 -1.06670642e-02 +9.60329473e-02 -1.82794809e-01 -8.73072445e-02 -7.11965933e-02 -9.61196572e-02 -4.99143712e-02 -5.67906611e-02 +3.27900089e-02 -1.73856199e-01 -7.67874643e-02 -2.79067367e-01 -3.49713825e-02 +1.38961384e-02 -5.34331463e-02 -5.16864546e-02 -3.98686416e-02 -1.10456012e-01 -5.62676452e-02 +3.00743189e-02 +1.78202003e-01 -5.52106590e-04 -4.43762243e-02 -5.55858612e-02 -8.48735794e-02 +5.45425192e-02 +4.28839438e-02 +6.52826875e-02 +1.58840902e-02 +7.17337057e-02 -1.01926059e-01 +5.62622063e-02 -3.12606767e-02 -1.51858032e-01 -5.64039424e-02 +5.66290542e-02 +7.17453286e-03 +6.36578947e-02 -3.90647538e-02 -4.30010399e-03 -7.75611773e-03 -8.29946548e-02 -2.29625404e-02 +2.85702460e-02 +7.84681514e-02 -9.59473997e-02 +4.50781658e-02 -1.53293796e-02 +4.17506173e-02 -8.05932060e-02 -3.63119468e-02 +1.03244754e-02 +6.69533312e-02 -8.56544003e-02 +2.18338426e-02 -1.62720922e-02 -3.27352807e-02 -1.96316615e-02 +1.35115478e-02 -6.20542653e-02 +1.14712015e-01 -9.97326151e-02 +9.35872085e-03 +6.96926415e-02 +3.39292027e-02 -8.03279653e-02 +7.95361921e-02 +8.85125697e-02 +6.28534928e-02 -5.24076521e-02 -9.17645097e-02 -2.29129009e-02 -3.64579298e-02 +1.76382009e-02 +1.96552444e-02 +7.15577006e-02 -2.10841708e-02 +5.92533983e-02 +5.61625548e-02 +1.44402310e-01 +1.39969558e-01 -6.57680035e-02 -3.36464867e-03 +8.34681764e-02 +9.66751855e-03 -7.58398883e-03 -4.55542952e-02 +3.84981297e-02 +6.21494725e-02 -6.54059425e-02 +5.78247057e-03 +4.81224060e-02 +6.77338690e-02 +5.14705572e-03 +4.01691832e-02 +6.72808441e-04 +1.57012586e-02 +8.69325548e-02 +2.20099539e-01 +1.32988751e-01 +8.33062604e-02 -5.27626425e-02 +1.26511276e-01 +1.68713406e-01 -3.44759859e-02 +9.47877914e-02 +1.83906645e-01 +1.79712921e-01 +8.77894014e-02 +1.30054116e-01 +8.08751136e-02 +1.58825472e-01 -1.95087403e-01 +4.08420637e-02 +1.71367228e-01 +5.20153902e-02 +7.64159709e-02 -2.90754959e-02 +1.21989986e-02 +6.03262819e-02 -3.84439365e-03 -4.17391025e-03 -5.60711585e-02 +2.46597435e-02 -5.09691760e-02 +4.39706165e-03 +2.90920008e-02 -3.60390097e-02 +3.92665789e-02 -8.42443556e-02 -2.93872487e-02 +3.74995470e-02 -1.25996828e-01 +4.94884700e-02 -1.31787648e-02 -2.98199989e-02 +1.42187811e-02 +6.24949001e-02 +8.94986540e-02 +1.03449911e-01 -6.89370334e-02 +5.32897785e-02 +8.30891281e-02 -6.05271198e-02 -1.85342634e-03 -4.31653522e-02 -1.75567251e-02 +6.15645759e-02 +2.90260045e-03 -2.64485687e-04 -2.40194738e-01 -1.51140913e-02 -6.31105378e-02 +1.35005657e-02 -7.66867697e-02 +9.18660313e-02 +4.47554067e-02 -7.30112493e-02 +3.42648625e-02 +2.12001633e-02 +7.12241754e-02 -7.88679197e-02 +2.97274906e-02 -1.86668541e-02 -1.11142889e-01 +8.96011740e-02 +1.21431544e-01 -1.03663065e-01 +3.38113420e-02 +3.71810459e-02 +5.56519851e-02 -1.89830530e-02 -7.70599693e-02 +5.78709729e-02 +3.68570462e-02 +3.49558555e-02 +9.47044641e-02 +1.09717607e-01 +1.12489760e-01 +4.23930548e-02 -7.70949386e-03 -6.10390604e-02 +1.86905622e-01 -7.93529954e-03 -2.10746378e-02 +7.63711184e-02 -8.05422142e-02 +1.48989320e-01 +8.65757614e-02 +1.10991998e-02 -5.47234081e-02 -1.02533028e-01 -1.71238750e-01 +3.92371975e-02 -1.72052439e-02 +1.65425036e-02 -4.81639104e-03 +9.36427265e-02 +4.15066816e-02 +1.68083474e-01 +1.00358233e-01 +8.32781312e-04 +1.91429764e-01 +2.12493226e-01 +1.94431059e-02 +4.32632007e-02 -5.97032486e-03 +1.43659040e-01 +1.53840363e-01 +1.12576075e-01 +4.06175992e-03 +2.74915788e-02 +1.35916853e-02 -3.11436299e-02 +1.26879469e-01 -3.11318785e-03 +7.78835490e-02 -2.10839026e-02 +1.18847638e-01 +9.52475443e-02 -7.05408975e-02 +1.03589550e-01 -1.55760512e-01 +5.05987881e-03 -1.03462212e-01 -5.46561368e-02 -7.35233277e-02 +6.13896661e-02 +6.76536188e-02 +1.17526814e-01 +4.48701009e-02 -1.06989057e-03 -2.54848469e-02 +2.43045464e-02 -1.84280917e-01 -2.44986266e-02 +6.35601580e-02 -1.85215071e-01 +5.07400148e-02 -2.04465657e-01 -6.65550353e-03 +3.24907005e-02 -1.75812468e-02 -3.77795361e-02 -6.12925887e-02 +8.07936583e-03 -5.48608648e-03 -2.15144586e-02 +7.88776428e-02 -5.15649356e-02 -3.44370864e-02 +4.29346114e-02 +4.65880595e-02 +8.07401687e-02 -9.65006500e-02 +5.29079363e-02 +4.36651986e-04 -2.50971876e-04 +1.60458852e-02 -6.01715706e-02 -9.55303907e-02 -3.33038159e-02 +1.00796282e-01 +1.26980357e-02 -7.89686367e-02 +2.59336755e-02 -1.37987072e-02 -1.50878161e-01 -5.66618610e-03 +8.18203241e-02 +3.85892950e-02 +4.23417799e-02 +2.49055796e-03 -3.83207165e-02 -1.40013993e-02 +3.03067919e-02 +1.54828385e-01 +1.95734784e-01 +5.42360032e-03 -9.41250175e-02 +7.64236227e-02 -6.64577186e-02 -1.45907044e-01 +1.48808910e-02 +4.35511842e-02 +3.53132859e-02 +1.90938830e-01 +5.47725223e-02 +9.22691673e-02 +1.33983880e-01 -1.74221825e-02 -8.31868500e-02 +6.17317781e-02 -3.87814362e-03 +7.62836710e-02 +2.83927447e-03 +1.00973688e-01 -4.34861258e-02 -1.10748246e-01 +6.37283456e-03 +3.37167159e-02 +1.01449475e-01 +1.36659071e-01 +1.34268954e-01 -5.60406372e-02 +1.51907906e-01 +4.18509804e-02 -1.37647316e-01 -1.33737609e-01 -1.96816120e-03 +9.45298970e-02 +5.87767176e-02 +2.50838045e-02 -1.52345881e-01 -1.02035822e-02 -1.94753967e-02 +3.89926042e-03 +1.18829183e-01 +2.43058633e-02 +1.05281577e-01 -4.87530837e-03 +2.04419538e-01 +1.71938032e-01 -4.53245193e-02 +2.38028303e-01 +8.78252089e-04 -4.96779643e-02 -1.54256091e-01 +1.58311963e-01 -2.41613556e-02 +3.33121680e-02 -8.73927623e-02 +1.03706839e-02 -8.19040835e-03 +1.16733693e-01 +4.85762060e-02 +4.16723043e-02 -1.09583706e-01 -1.28497422e-01 -5.79938218e-02 +3.49955074e-02 +1.10732257e-01 +3.40602640e-03 +1.19334199e-01 -1.55080006e-01 +1.48334682e-01 +1.99623965e-03 +1.28731474e-01 +1.22678801e-02 -1.16223458e-03 +3.24707814e-02 -2.06129029e-02 +1.65466532e-01 +6.97505698e-02 -2.84734488e-01 +2.05860101e-02 +2.91339718e-02 +8.94717276e-02 -6.85254037e-02 -1.56176090e-01 +3.57707171e-03 -1.06454208e-01 -1.18321739e-01 -8.85582343e-02 -9.69691202e-02 +1.62085459e-01 +2.71851104e-03 -1.50289476e-01 +1.37305379e-01 -1.71744689e-01 +7.35401548e-03 +1.23371832e-01 -2.48364490e-02 -1.39302373e-01 +3.00356876e-02 -8.45611170e-02 +2.29442626e-01 +1.21860273e-01 -5.77118285e-02 -1.09634452e-01 +1.03088588e-01 -2.01260880e-01 -1.62067503e-01 -8.48631710e-02 +1.70972809e-01 -7.03025311e-02 +9.25814807e-02 +8.46409351e-02 -6.23252243e-03 +2.79805750e-01 +1.18524075e-01 -5.85666709e-02 -1.67482123e-01 +6.58653006e-02 +1.55106008e-01 +1.10967115e-01 -1.05183376e-02 +7.56108612e-02 -4.91084643e-02 -7.33389482e-02 +1.18099130e-03 +2.55967546e-02 +3.00323188e-01 -4.29814262e-03 +1.63713023e-01 -2.74369195e-02 +9.10796300e-02 +7.33315572e-03 -1.92434251e-01 -1.51052937e-01 -4.89505893e-03 +5.47422543e-02 +2.99036689e-02 -6.94567859e-02 -3.12829949e-02 +7.11835222e-03 -2.02632528e-02 +1.19268045e-01 +1.92840159e-01 +2.62389779e-01 -1.42403647e-01 +2.23014221e-01 -1.98843740e-02 -1.79325212e-02 +2.79343482e-02 +2.81482022e-02 -3.02377474e-02 -7.46857673e-02 +4.03750986e-02 +2.48324908e-02 +4.72927690e-02 +5.58296731e-03 -1.08903535e-02 -1.77091472e-02 +7.89196137e-03 +9.50244963e-02 -3.10220793e-02 -1.21323816e-01 -6.27401695e-02 +3.32122706e-02 +2.51470460e-03 +6.13256991e-02 +2.40233559e-02 +1.60783958e-02 -2.66693551e-02 +2.20110919e-02 +1.06449679e-01 -1.78213697e-02 +1.34245574e-01 +5.52526489e-02 -8.67700353e-02 -2.18837298e-02 +1.26525303e-02 -2.37471133e-04 +1.25815377e-01 -1.13819785e-01 -9.12682489e-02 -1.31841376e-01 +4.13145907e-02 +6.85357526e-02 +3.84317189e-02 +8.87842178e-02 -1.20585356e-02 +1.02850180e-02 -7.24355429e-02 +9.31928605e-02 -1.26656204e-01 -6.41060248e-02 +4.17481102e-02 +4.09063250e-02 +1.00903548e-01 -4.70399915e-04 +3.07743195e-02 +9.69456211e-02 -1.76846594e-01 -1.36165069e-02 +6.41248748e-02 -9.90517214e-02 -1.49541155e-01 +6.38541430e-02 -1.01701438e-03 +9.08481702e-02 +9.07700583e-02 -1.11543890e-02 +2.00537238e-02 +1.58419698e-01 +2.28246283e-02 -1.12707876e-02 +5.73048890e-02 -1.07688516e-01 +7.44522065e-02 +1.60381526e-01 -4.64583226e-02 -9.61358994e-02 +8.28146860e-02 -1.05549172e-01 +1.21146120e-01 -5.37155243e-03 -1.02188960e-01 -9.81473625e-02 -9.29473266e-02 -9.39617380e-02 +1.91777959e-01 -3.50550190e-02 -2.29455560e-01 -9.80470795e-03 +8.65973458e-02 -1.86152535e-03 +2.21634850e-01 -1.06508285e-02 +1.75468642e-02 -1.41931642e-02 +1.17398225e-01 +3.02646514e-02 +8.90108570e-02 -4.34613638e-02 +1.40068859e-01 +4.24193405e-02 +3.36393379e-02 +3.80808637e-02 +4.79120575e-03 +9.07677636e-02 -2.34539737e-03 +3.86414677e-02 +6.43805489e-02 +9.95655917e-03 +2.26830430e-02 -9.77462605e-02 +1.63902223e-01 -2.02797707e-02 +2.76564304e-02 -6.02637138e-03 -5.81102706e-02 +6.07134998e-02 +1.04284538e-02 +1.22506614e-03 +1.09417848e-01 +1.25821698e-02 -2.12800503e-02 +1.11344606e-01 +9.18510780e-02 -1.05410025e-01 +3.37083153e-02 -2.00086266e-01 +8.51819590e-02 +7.73241371e-02 -1.26104560e-02 +1.72993932e-02 -1.86604057e-02 +2.19142605e-02 +1.91047475e-01 +2.87190527e-02 +9.97765269e-03 -1.42577127e-01 +2.54647762e-01 +1.63305357e-01 +1.25325546e-01 -3.60917933e-02 +2.73260605e-02 +6.49775043e-02 +4.13349457e-02 -6.37527928e-02 -4.93335258e-03 +5.53528778e-02 -4.46172133e-02 -3.31686102e-02 -8.29036161e-02 +8.36946294e-02 +7.70485550e-02 -3.56362388e-03 +5.78087904e-02 -1.90264694e-02 -8.05358589e-02 +8.63389447e-02 +4.71497513e-02 +6.88173473e-02 +3.29177007e-02 +9.78199169e-02 +1.46087669e-02 +1.65600032e-02 +1.18022308e-01 -1.91869095e-01 -6.00007549e-02 +5.62226493e-03 +1.09596863e-01 +5.76591827e-02 -1.08867297e-02 -1.15621120e-01 -8.64667296e-02 -1.31403543e-02 +2.10243478e-01 +7.10126385e-02 +1.03290670e-01 +1.34624764e-01 +4.80028652e-02 -1.38622388e-01 -3.62835601e-02 -2.32228893e-03 +9.13603604e-03 +1.18208095e-01 -1.94606818e-02 -1.73039958e-01 +6.45845085e-02 +7.83474222e-02 -1.62314802e-01 -1.38544396e-01 +6.56762198e-02 +1.10706754e-01 +1.09742045e-01 +1.07048742e-01 -2.25874335e-02 -2.31341973e-01 +1.13469660e-02 +1.80721581e-01 -1.02930460e-02 +1.02539934e-01 +1.71054363e-01 +2.80275922e-02 -1.65583659e-02 +3.07364892e-02 +2.16942176e-01 -6.89628795e-02 -5.02309576e-02 +3.93811911e-02 +1.31697088e-01 +5.94186112e-02 -8.66599903e-02 +1.73689593e-02 +5.44744991e-02 -6.05068095e-02 +3.14159063e-03 -1.43417297e-02 -1.54017076e-01 -1.30492998e-02 +5.46376929e-02 -1.93596235e-04 +2.88203787e-02 -9.66960713e-02 -9.01580974e-02 -1.22710112e-02 +2.28436552e-02 +9.50607657e-02 +6.00051470e-02 +2.96344925e-02 -6.32127933e-03 -1.13111101e-01 +7.90142715e-02 -6.16714545e-02 -5.95525317e-02 +1.80244133e-01 -9.99538824e-02 +1.42132984e-02 -7.20737353e-02 +3.62873264e-02 -5.59444465e-02 +1.28430516e-01 -1.41761273e-01 -4.99887438e-03 +2.83626243e-02 +2.62817107e-02 +1.09965065e-02 -1.34678975e-01 +7.00372756e-02 -6.27739355e-02 +8.29067156e-02 +7.49527141e-02 +8.36488977e-02 +6.42009005e-02 +1.40893102e-01 +8.36563203e-03 -9.46996920e-03 -2.88495887e-03 +5.09015806e-02 -1.17018148e-02 -3.16582294e-03 +1.12087717e-02 +4.39744517e-02 +5.26076406e-02 +1.33715915e-02 -5.18368036e-02 +5.58641031e-02 +7.59672970e-02 -1.42992865e-02 +5.20113371e-02 +6.76563233e-02 -6.50586858e-02 +1.50497362e-01 -7.60687217e-02 +9.74869579e-02 -7.16845095e-02 +1.10657595e-01 +1.16162591e-01 -4.60697785e-02 -1.46358581e-02 -3.75581495e-02 -1.67215185e-03 +6.89173117e-02 +5.82884885e-02 +5.48705310e-02 +1.77958637e-01 +1.11724027e-01 +8.00313894e-03 +4.48217951e-02 +6.74395263e-02 -3.22019979e-02 +6.39439151e-02 +9.48345661e-03 +1.42088402e-02 -3.96207944e-02 +6.92178756e-02 +9.76516381e-02 +6.31467924e-02 +3.72540615e-02 +8.91394988e-02 -1.00771189e-01 +2.58410703e-02 +2.17422582e-02 +1.17702067e-01 +7.67108351e-02 +3.76890809e-03 +8.68676379e-02 +6.65272772e-02 -2.92645618e-02 -1.60184413e-01 -1.65600628e-02 +3.52593586e-02 -1.74979847e-02 -4.14988324e-02 +9.60865244e-02 +1.37583411e-03 -8.75782296e-02 -8.00856799e-02 -4.65339199e-02 -4.30232100e-02 -7.23797008e-02 -1.57429576e-02 -8.94795060e-02 +3.95306060e-03 -5.87841645e-02 -3.50524858e-02 -6.91051632e-02 +1.68736074e-02 -1.82528961e-02 +1.42619386e-01 -8.38013068e-02 +7.05974698e-02 -6.96740597e-02 +3.76905762e-02 +5.04139066e-02 -3.29441987e-02 +4.24104631e-02 +8.26048329e-02 -9.83574092e-02 -2.83739027e-02 -7.77095035e-02 -2.92918291e-02 -3.24332193e-02 +1.57659966e-02 -1.23781607e-01 -1.70229115e-02 +2.16872673e-02 -3.64769585e-02 -8.94006900e-03 -1.45809829e-01 -1.16841041e-01 +5.61645553e-02 +2.53305808e-02 +2.55782306e-02 -5.21293655e-02 -4.78427252e-03 -1.24097317e-01 -4.06061634e-02 -8.08779970e-02 -1.37743354e-01 -7.85341933e-02 +5.89674106e-03 -9.74558666e-03 +2.94772945e-02 +9.64661241e-02 +1.08018607e-01 -8.60208943e-02 +1.17367335e-01 +1.43963555e-02 -5.47215305e-02 -1.01092383e-02 +1.51750753e-02 +1.55893182e-02 -4.29169089e-02 +8.51440802e-02 +1.78101473e-02 +9.22027044e-03 -4.19838391e-02 -6.59850016e-02 +6.63938895e-02 +5.72949211e-05 +5.25077106e-03 +3.85969169e-02 -8.01746249e-02 -6.83634505e-02 +2.37184092e-02 +3.38677946e-03 -7.22085685e-02 +8.38569459e-03 -9.20151025e-02 +9.58397239e-02 +4.35181782e-02 -4.93284613e-02 -5.00589088e-02 -2.31054015e-02 +2.27786005e-02 -2.73760743e-02 -3.61762308e-02 +5.71542569e-02 -1.34356609e-02 +1.11449361e-01 -4.51572351e-02 -1.38994336e-01 +7.49749467e-02 -1.05670303e-01 -1.15649113e-02 -3.72694843e-02 -1.04849368e-01 +2.64107995e-02 -6.69265687e-02 -3.32245603e-02 +1.19835399e-01 -1.49689410e-02 +5.86284362e-02 +7.59632215e-02 -2.02131756e-02 -5.29858470e-02 +5.72309010e-02 -6.01626746e-02 +1.84992272e-02 +2.40905248e-02 -1.38881980e-02 +7.01355115e-02 -4.67429757e-02 -1.40144601e-02 -1.15123922e-02 -4.60389145e-02 +1.07176497e-03 -3.69782783e-02 +6.12757392e-02 +3.06846313e-02 +9.65238432e-04 +8.46014731e-03 -1.91817973e-02 +1.48082164e-03 +4.79480959e-02 -1.26870135e-02 -7.92062003e-03 -6.17698440e-03 -1.00758567e-01 +2.03304030e-02 -2.18972117e-02 -1.07912757e-01 +3.17834993e-03 +5.25095388e-02 -7.78215192e-03 -3.68126594e-02 +7.63918608e-02 -2.68318933e-02 -3.38679552e-02 +3.52060050e-02 -4.64861887e-03 -1.34944804e-02 +5.78662008e-02 -5.83652370e-02 +6.34681806e-02 +2.15290580e-02 -2.87511386e-02 -1.82633195e-02 +1.15190186e-01 -3.94924022e-02 +6.33900240e-02 +1.04917534e-01 +5.37584685e-02 +4.02956828e-02 -6.24356084e-02 +7.57112354e-02 -7.91707542e-03 +1.66421905e-01 +8.95623192e-02 +4.05031303e-03 +1.03585988e-01 -9.55822095e-02 +1.00446798e-01 +9.62729752e-02 +5.79126440e-02 +1.20047584e-01 -1.07590286e-02 +2.64504869e-02 +8.45698938e-02 +8.91908556e-02 -4.02541682e-02 +1.17765822e-01 -3.22642513e-02 +2.78181303e-02 +8.46804865e-03 -6.21623956e-02 +7.61568546e-02 -7.76892751e-02 -7.35921785e-02 -2.94175725e-02 +7.37678260e-02 +9.86769125e-02 +9.92618799e-02 +8.31961185e-02 -6.81642368e-02 +1.27197772e-01 +7.17254505e-02 +1.76529244e-01 +5.39200231e-02 +5.12902699e-02 -1.97933894e-02 +5.21134138e-02 +3.86368260e-02 +3.34956050e-02 +4.91598882e-02 -5.62650897e-02 +5.07947952e-02 -1.99330528e-03 -3.59739289e-02 +1.52714420e-02 -4.25572321e-02 -6.39207363e-02 -1.49471924e-01 -4.31897528e-02 -3.87296490e-02 -1.18199196e-02 +7.29719549e-02 +3.72472368e-02 +4.80469018e-02 -1.36825055e-01 -6.14070557e-02 -7.11700991e-02 -5.65489717e-02 -1.05585933e-01 +6.23786859e-02 +1.59049444e-02 -1.58786237e-01 -1.57511547e-01 +3.82808037e-02 -1.18601605e-01 -3.42676081e-02 -1.95612013e-02 +6.05727434e-02 +5.12748845e-02 +9.42575932e-03 +5.49914725e-02 -1.85317006e-02 -2.75726877e-02 +6.76664934e-02 +8.86267330e-03 -1.04314439e-01 +3.14467102e-02 -5.20303939e-03 -7.08115101e-02 -6.51457831e-02 +2.26852689e-02 +8.80107805e-02 +7.37243704e-03 -1.90701991e-01 -2.20030500e-03 +1.68942995e-02 -6.18059747e-02 +1.09520312e-02 +7.68309310e-02 -4.76654992e-02 +6.99571334e-03 +2.70484220e-02 -5.78194782e-02 +9.49684158e-03 +1.42491519e-01 +4.41603400e-02 +3.19963656e-02 +1.24078222e-01 -4.80739661e-02 +1.48272485e-01 -3.28385690e-03 -7.14621320e-02 -1.34889996e-02 -4.84448001e-02 +9.03384238e-02 -6.21603243e-02 -8.22157115e-02 -9.82199088e-02 -1.17256399e-02 +1.96959212e-01 +1.39280325e-02 +2.98685748e-02 +1.76105630e-02 +9.81214829e-03 -2.52639526e-03 -4.64987531e-02 +3.60594131e-03 +5.27093746e-02 -1.15936242e-01 -1.44132925e-03 -2.99627073e-02 +1.20017976e-01 +7.45826587e-02 -1.35449037e-01 -9.65783559e-03 -4.64602783e-02 +9.48702097e-02 -1.09603610e-02 -1.08595394e-01 -7.37479702e-02 -4.07191813e-02 +2.52677444e-02 +9.25883576e-02 +4.83664013e-02 +5.91143854e-02 +4.91410829e-02 +5.83695620e-02 +1.58311278e-01 -9.56741199e-02 +2.80543882e-02 -1.54668927e-01 -7.11908489e-02 +1.19578674e-01 +8.49045739e-02 +9.73513443e-03 +1.47782505e-01 +9.49866325e-03 -8.13741684e-02 +7.06574768e-02 -9.03864130e-02 -6.58477768e-02 -6.17054291e-03 -1.92420837e-02 +5.53413667e-02 -2.56126262e-02 -2.79945768e-02 +3.41252610e-02 -1.66544411e-02 +1.02394633e-03 -2.31104810e-03 +2.59692427e-02 +3.46773639e-02 -5.03558200e-03 +8.52416530e-02 -9.79831442e-03 +4.03812751e-02 +3.39063779e-02 +4.07415554e-02 +1.15088716e-01 +1.43049493e-01 +5.37270084e-02 +8.70859548e-02 +2.42604706e-02 -2.64491532e-02 -8.63430202e-02 +9.74286273e-02 +1.66069120e-02 -5.50892353e-02 -3.25772241e-02 -1.00912146e-01 +3.34493234e-03 -6.32274002e-02 +6.27533570e-02 -1.83556858e-03 +6.37179911e-02 -2.41961796e-02 -1.75896715e-02 +1.07962284e-02 -7.16020241e-02 -1.12306044e-01 -2.76057655e-03 +5.36298677e-02 +1.43669723e-02 +1.03426456e-01 +9.67933014e-02 +1.67954210e-02 +1.04572386e-01 +4.87365276e-02 +2.59788539e-02 +3.46052311e-02 -3.54286209e-02 +3.24709192e-02 +8.93900618e-02 -7.27240881e-03 +8.59422311e-02 +5.94284274e-02 +8.65099654e-02 -6.67501166e-02 -8.07762891e-02 -7.46032782e-03 +1.42446175e-01 +8.36864263e-02 +1.01462640e-01 +2.96937704e-01 +6.00568764e-03 +5.26148602e-02 +1.16059976e-02 +4.41406667e-02 -6.28424212e-02 +8.41560587e-02 +1.07425466e-01 +1.10105492e-01 +6.66338429e-02 +9.73684043e-02 +1.18601501e-01 +7.69395679e-02 +4.78555337e-02 +2.51889657e-02 +1.26631036e-01 +1.88796055e-02 +1.38437286e-01 +1.05679967e-01 +7.01223090e-02 +1.04672469e-01 +2.68288571e-02 +1.11153321e-02 +6.79074377e-02 +4.06031236e-02 +2.04370171e-01 +2.48301610e-01 -6.31931350e-02 +1.37019053e-01 +2.88036242e-02 -6.36727288e-02 -1.32031828e-01 +2.19316147e-02 -1.86491549e-01 +1.20691620e-02 +8.40542540e-02 -1.01558410e-01 -5.71735948e-02 -1.06061205e-01 -2.40801889e-02 +1.12011410e-01 +2.20879819e-03 -1.75592080e-02 -1.13518246e-01 -6.39747083e-02 +6.30218256e-03 -2.66894810e-02 -1.35989368e-01 -4.30609426e-03 -3.23089696e-02 -6.65470809e-02 +8.49095881e-02 -9.83286276e-02 -2.04555150e-02 -1.72026698e-02 -4.03106539e-03 +9.84750316e-02 -2.22034920e-02 -4.35791165e-02 +5.92153333e-02 +9.68346819e-02 -1.10150300e-01 -5.49269915e-02 -1.77951142e-01 -1.14501834e-01 -6.15727343e-02 -1.11657426e-01 -1.65099036e-02 -1.26281977e-01 -6.22167103e-02 +1.44287035e-01 -1.33493990e-01 +7.39231929e-02 +2.25131903e-02 +9.62287840e-03 -5.13974242e-02 -5.59943058e-02 -2.79915193e-03 +9.69732478e-02 -2.79104318e-02 -9.79145765e-02 +3.48050235e-04 -1.66498031e-02 +7.02317208e-02 +9.60178673e-03 +5.63045032e-02 +2.46173993e-01 +1.37242889e-02 +4.72960733e-02 -2.58716140e-02 +7.27857882e-03 +8.86224508e-02 +1.09752612e-02 +2.08563328e-01 -1.20135270e-01 -7.13320915e-03 +1.60736337e-01 +8.79859999e-02 +1.89841837e-02 +1.67554580e-02 +1.58004507e-01 -8.16511884e-02 +2.63755750e-02 +9.30726901e-02 -9.75963101e-03 -2.85754837e-02 -9.39587783e-03 -8.01926758e-03 -4.15063323e-03 +9.63110197e-03 +3.36116739e-02 +1.37740046e-01 +1.17395088e-01 +1.84774045e-02 +5.12345619e-02 +4.25517187e-02 -2.26766486e-02 +4.18048687e-02 +1.95134267e-01 -7.44291544e-02 +1.11538194e-01 +8.06358457e-03 +1.01374298e-01 +2.96562482e-02 +3.67761850e-02 +1.43969640e-01 +6.36030659e-02 -2.02793777e-02 -2.10713465e-02 -7.03973845e-02 -1.95684209e-02 -9.68135297e-02 -6.31303117e-02 +6.88934186e-03 -3.45375203e-02 +3.41180759e-03 +7.56756589e-02 -7.40869120e-02 +4.92859120e-03 -9.82986465e-02 +5.85153997e-02 -7.77616724e-02 -4.05222140e-02 +1.21006416e-02 -8.66195336e-02 +3.04992939e-03 -3.40877175e-02 +2.14881040e-02 +3.44777480e-02 -7.25050196e-02 +5.13638258e-02 +3.71787846e-02 +6.22854494e-02 +3.51749621e-02 -3.95227447e-02 +8.46495405e-02 +5.50944358e-02 -6.32766932e-02 +8.74471217e-02 +2.03068219e-02 +1.28251225e-01 -2.70628463e-02 +6.42107204e-02 +2.80386303e-02 +7.63143450e-02 -1.24309093e-01 -1.97592266e-02 +1.03589088e-01 +7.90482387e-02 -2.36895867e-02 +7.26004615e-02 +3.48663442e-02 +2.39780135e-02 -1.34206656e-02 +1.10528208e-01 +6.31477013e-02 -1.22525960e-01 +1.15523331e-01 +8.51086527e-02 +3.91805246e-02 +8.76448378e-02 +1.77496653e-02 +8.36776644e-02 +1.06945321e-01 -6.47266656e-02 -4.55613658e-02 +4.59365770e-02 +1.02708131e-01 +3.92494462e-02 +1.30852878e-01 +4.50046584e-02 -2.32433043e-02 +3.19583677e-02 +8.70386511e-02 +4.04138863e-02 +4.55988906e-02 -4.22122143e-02 +1.86953768e-01 +1.24426126e-01 -6.07254505e-02 +6.76153302e-02 +4.36596060e-03 +1.13788821e-01 +1.28100529e-01 +9.59744379e-02 +1.64051424e-04 +7.82545432e-02 +5.54635329e-03 +8.11322778e-02 +2.15418451e-02 +1.68366939e-01 -9.17785764e-02 +2.03695536e-01 -5.92028946e-02 +5.01706041e-02 +5.36601059e-02 +3.03092934e-02 -6.81352392e-02 +6.31213188e-02 +4.96314578e-02 +8.43543932e-02 +3.78757194e-02 +7.27811130e-03 -1.83386505e-02 -1.98952183e-02 +5.04156053e-02 +1.07272692e-01 +3.82650644e-02 +7.69914910e-02 -2.42372602e-02 -8.78844336e-02 -7.55583271e-02 -5.45424595e-02 +8.21421221e-02 -5.35745323e-02 -5.69786504e-03 +2.63107102e-02 -1.02750167e-01 -5.58255985e-02 -7.62970746e-02 -8.54664445e-02 -2.51895934e-02 +1.71954173e-03 -2.82129236e-02 -1.65183600e-02 -5.51173314e-02 -3.01321130e-02 +8.93871337e-02 -2.30792556e-02 -6.90823868e-02 -7.65766874e-02 -1.14508299e-03 +3.64610069e-02 +7.39358515e-02 -1.21296607e-01 +5.00109140e-03 +8.79156031e-03 -4.69722040e-02 -6.09711371e-02 -3.44100632e-02 -5.50185814e-02 -1.03469566e-01 -7.28253946e-02 +2.14937199e-02 -4.12518196e-02 -1.25357866e-01 -8.48063976e-02 -6.09696396e-02 -6.93509653e-02 -6.74433261e-02 -2.70390604e-02 -6.67239800e-02 -6.78472817e-02 -3.05256117e-02 -3.82681340e-02 -1.11084767e-01 +4.12795916e-02 -1.16898805e-01 +6.55694902e-02 +2.34282631e-02 -5.62661216e-02 +1.50340116e-02 +3.49950045e-03 +2.66942997e-02 -3.27909030e-02 +5.10678254e-02 -8.96445513e-02 -3.52175571e-02 +5.45801595e-02 +1.33825108e-01 +4.08400707e-02 +1.59343779e-01 -1.91935860e-02 -1.16817432e-03 +1.32163376e-01 +5.91447093e-02 +2.15452441e-04 +4.50784415e-02 -3.14216316e-02 -6.37120306e-02 -5.01538515e-02 +9.16433260e-02 +5.37388511e-02 +4.81161289e-02 +5.09283580e-02 +8.12022835e-02 -4.13771439e-03 -4.72042486e-02 -1.56106204e-02 -5.09711355e-02 +9.48291048e-02 -2.71265599e-04 +1.10293232e-01 -1.12395540e-01 +9.31673720e-02 +7.55598815e-03 -9.05283261e-03 +8.97991732e-02 +1.19120412e-01 -4.35964577e-02 +7.51770753e-03 -1.11434106e-02 +1.81080755e-02 -6.75454810e-02 +2.90801544e-02 +5.46760745e-02 +1.14126671e-02 +1.51806232e-03 +1.94212198e-02 -5.44719808e-02 -4.09694538e-02 -1.24229705e-02 +1.27330229e-01 +1.14976456e-02 +5.46605850e-04 +1.80985108e-02 +2.07184441e-02 -8.28799903e-02 -6.71252084e-04 +2.03825478e-02 +8.68941694e-02 -1.33063868e-02 +1.78754739e-02 +3.12164575e-02 -1.73987150e-02 +8.83425027e-02 -4.67578694e-02 -3.35163213e-02 +5.90024926e-02 -9.76258218e-02 -9.39360037e-02 -3.41399461e-02 -1.00982180e-02 -2.98722293e-02 +2.04862822e-02 +2.78998725e-02 +7.43669122e-02 +6.01531304e-02 -5.55792190e-02 +2.45503779e-03 +1.72945671e-02 +1.15964748e-02 -2.05889288e-02 -6.04135133e-02 +6.31214902e-02 +5.01632877e-02 -9.76839736e-02 +6.65003136e-02 -2.32310761e-02 -2.21283808e-02 +2.12141722e-02 -4.72608097e-02 -3.88274379e-02 -1.90555360e-02 +6.16940903e-03 +2.90661212e-02 -1.37603860e-02 -5.56452200e-02 +8.55147615e-02 -7.24996105e-02 -1.35276347e-01 +5.77530675e-02 +4.46514450e-02 +7.40804197e-03 -1.67266633e-02 -1.18908398e-02 -7.29529262e-02 -5.28639853e-02 -1.69090759e-02 -4.30161916e-02 -4.65769880e-02 -1.23628132e-01 +6.56085312e-02 -1.43267781e-01 +8.71345587e-03 -3.66065539e-02 +1.10043317e-01 -2.69244798e-02 -1.79054439e-02 -6.15792312e-02 -1.29309092e-02 +2.58799084e-02 +1.95547447e-01 -5.16157448e-02 +4.24869210e-02 +4.92032580e-02 -1.27334759e-01 -6.08250387e-02 -1.03436574e-01 +1.35639861e-01 +9.75692049e-02 +1.35991409e-01 -4.58801538e-03 +2.48234365e-02 -2.09096506e-01 -2.18651250e-01 +9.05170366e-02 -1.07502818e-01 +6.11198694e-02 +1.36761810e-03 -4.57456931e-02 -1.28607094e-01 +1.26346916e-01 +7.56557137e-02 +3.90903465e-02 -2.63874084e-01 -3.54682505e-02 -3.93025614e-02 -8.42030570e-02 -6.08866150e-03 +5.83963916e-02 +5.96998222e-02 +7.25921765e-02 +4.29062881e-02 +4.80371341e-02 +2.09955275e-02 +3.52104120e-02 -3.86628211e-02 -5.13164960e-02 +1.02170683e-01 -3.64265330e-02 +2.05860548e-02 +6.49864599e-02 -1.01405624e-02 -1.88751519e-01 +1.89342499e-01 +3.20285894e-02 -2.32186280e-02 +1.08297817e-01 +7.17753991e-02 -4.75316048e-02 +7.90037331e-04 +1.16749637e-01 +3.14878784e-02 +2.09015936e-01 +1.67941198e-01 +9.00473297e-02 -1.79176837e-01 +5.67908213e-02 -6.21557049e-02 +1.65737629e-01 -7.60519952e-02 -7.79345483e-02 +2.87130550e-02 +1.80271920e-02 +4.75616232e-02 +1.06667072e-01 +1.66360557e-01 -1.03623606e-01 -1.14262234e-02 -4.12387401e-02 +1.27082601e-01 -5.93342446e-03 +4.10715193e-02 +1.07636519e-01 -8.16505849e-02 +2.63248906e-02 +3.97307649e-02 -1.08939908e-01 +1.64602362e-02 +1.14807263e-01 +1.11104421e-01 +4.20506075e-02 +4.27151397e-02 -1.49025358e-02 -1.15206964e-01 -1.48492143e-01 -8.77635702e-02 -1.18454605e-01 +7.49829262e-02 -2.08884031e-02 -6.04803897e-02 -6.60362467e-02 +4.16228287e-02 -2.57944483e-02 -6.90947473e-02 +4.23727930e-02 +4.33676131e-02 +1.54041918e-02 -1.10905051e-01 -5.99678010e-02 +7.34735131e-02 -1.71962395e-01 +3.49259027e-03 +6.33713752e-02 +1.12276962e-02 -3.20197344e-02 +1.52349528e-02 -8.36471934e-03 +1.57891423e-01 +3.11153885e-02 +1.40681982e-01 -1.74971502e-02 -1.06531288e-02 -1.28203377e-01 +7.04705045e-02 -9.42610055e-02 -1.22608952e-01 -2.60225236e-02 -1.19168535e-01 -1.14379480e-01 +8.70473906e-02 -6.91995174e-02 +1.28207415e-01 -2.79328115e-02 -4.62161861e-02 -5.24917170e-02 -1.60919100e-01 +1.26509732e-02 -5.90618700e-02 -7.54034817e-02 -7.19071627e-02 +7.43605779e-04 -2.77213641e-02 +2.06443928e-02 -5.75386807e-02 -5.83858415e-02 +9.55272838e-02 +7.21670613e-02 +9.89419296e-02 -2.38181390e-02 +5.05672842e-02 +8.60872027e-03 -1.55563410e-02 +6.98171407e-02 -1.09847747e-01 +3.47745866e-02 +1.38646066e-01 +6.39555976e-02 -1.18190348e-01 +1.36566488e-02 +4.81918529e-02 +3.70352231e-02 +7.55420253e-02 -1.55534269e-02 +5.90666905e-02 +6.36420622e-02 +6.02228306e-02 -1.46893442e-01 -1.19321391e-01 +5.62803261e-02 -6.09378330e-02 +5.35872281e-02 -6.83440734e-03 +2.03028545e-01 +8.45895708e-02 -1.00064278e-02 -9.15820990e-03 -2.03188792e-01 +3.55099216e-02 +4.79359739e-03 -4.61243615e-02 +5.76377660e-02 +1.64773185e-02 -2.14492325e-02 +6.75569102e-02 +2.68638711e-02 -8.11039433e-02 -7.60233849e-02 -7.52601177e-02 +9.62302908e-02 -1.50712460e-01 -1.40041728e-02 -1.44324094e-01 +6.75646886e-02 -7.27149472e-02 +1.08104967e-01 -1.27142698e-01 -1.62928887e-02 -1.21207543e-01 +2.74366904e-02 -1.89493969e-01 -1.26554713e-01 +8.03813897e-03 +1.31996423e-01 -1.54890925e-01 +6.07400090e-02 +1.85192339e-02 +3.03693470e-02 -1.38466641e-01 -3.96283120e-02 -9.98222381e-02 -6.84095100e-02 +1.34610280e-01 +2.42632292e-02 -2.60517956e-03 +7.03831986e-02 +4.67556827e-02 -3.44863124e-02 +4.06484120e-02 -2.22127326e-02 +5.59230261e-02 -1.84180066e-01 +4.69352026e-03 -6.23894446e-02 -3.54696102e-02 -1.14649080e-01 -7.13944808e-02 -1.34610608e-01 -4.58080024e-02 +7.53787979e-02 +1.73781216e-02 -2.84489077e-02 +4.81047891e-02 -5.38568906e-02 +3.28472890e-02 -1.66488197e-02 -6.66991249e-02 -1.45601004e-01 -1.51599735e-01 -4.77196090e-02 +8.69553611e-02 -8.27162787e-02 +3.97509038e-02 +6.01737611e-02 +2.12132111e-02 +5.86306415e-02 +8.51618871e-02 -7.47710746e-03 +1.92019567e-01 -7.77399391e-02 +3.38939466e-02 +2.95063891e-02 +4.67044003e-02 +1.24983482e-01 +1.19413305e-02 -1.37191201e-02 +1.38707504e-01 -5.38369045e-02 +9.25796106e-02 +1.04943849e-01 +7.07711950e-02 +1.09326012e-01 -5.19347936e-02 -1.17402948e-01 +3.91625278e-02 -1.74304903e-01 -4.29474711e-02 -3.24878022e-02 +7.73823559e-02 +1.31833330e-01 -2.90894154e-02 +1.64556161e-01 +7.88861960e-02 +1.53640717e-01 -1.01794600e-02 +4.31401934e-03 +1.53325973e-02 -4.46452461e-02 -5.12216128e-02 +3.41241844e-02 +2.41235979e-02 +8.22229311e-02 -2.16285847e-02 +1.07565522e-01 +6.11867569e-03 +7.92917982e-03 +8.79034325e-02 -1.05070852e-01 +2.73648389e-02 +3.40556540e-02 -3.92187014e-02 +1.09850474e-01 +2.07924601e-02 +7.87966233e-03 -8.67866054e-02 +6.65111765e-02 -8.51526633e-02 -9.84955207e-02 -1.12266205e-01 -1.51452487e-02 -1.36697501e-01 +1.15172558e-01 -1.94500815e-02 +8.58258605e-02 -1.63721904e-01 -1.53752595e-01 -6.17103018e-02 +8.46518390e-03 -7.82253519e-02 +2.18765158e-02 -1.37258284e-02 +3.93156782e-02 +4.96930629e-02 +9.53045487e-02 +4.21572030e-02 +6.05314858e-02 +2.20859759e-02 +4.41368297e-02 +1.12155132e-01 +8.43915157e-03 -1.57013342e-01 -8.25476199e-02 +8.74381810e-02 -1.31276608e-01 -3.59805971e-02 +9.01731253e-02 -6.01689965e-02 +3.77959944e-02 +1.48442164e-01 +1.76419020e-02 +5.79946488e-02 -2.77589206e-02 +4.38530371e-02 +9.95418057e-02 -1.07446082e-01 +6.66805580e-02 -7.79576302e-02 -1.75029814e-01 -1.21920511e-01 -1.29967760e-02 -1.52492279e-03 -6.75495043e-02 +5.50170243e-02 +1.23113774e-01 +1.81098893e-01 +1.20483432e-02 +1.61754228e-02 -5.59975430e-02 -2.20688824e-02 -3.69316861e-02 -1.78267702e-03 -3.40947546e-02 -9.14186239e-03 +1.72536701e-01 -1.19489953e-01 +8.28006640e-02 +5.74266091e-02 -5.66881448e-02 -1.80522092e-02 -3.47488374e-02 -2.47136839e-02 -5.28670251e-02 -8.05456042e-02 -2.67287102e-02 +2.08371934e-02 -1.11450151e-01 +3.87069099e-02 +3.07982061e-02 +8.64915699e-02 -1.74631268e-01 +1.01325616e-01 -4.65993322e-02 +6.36076033e-02 -2.43755225e-02 -9.59407166e-02 -1.95860460e-01 +7.52889141e-02 -4.84215356e-02 +4.66318987e-02 -6.90974072e-02 +4.14006747e-02 -1.30446777e-01 +9.73405465e-02 -4.94646914e-02 +9.08819810e-02 +1.04423665e-01 +3.07315048e-02 +1.40334949e-01 -4.55773473e-02 -5.06843030e-02 -8.20507854e-03 -1.10335022e-01 -3.02756578e-02 -3.94104607e-02 -3.82555723e-02 -6.55461326e-02 +2.63444949e-02 -7.29616508e-02 -2.59525981e-02 -8.08870867e-02 -7.57963285e-02 -5.34548834e-02 -9.12004933e-02 -3.17125767e-02 -1.45419315e-01 -1.47658885e-02 -2.29653716e-02 -1.44968003e-01 +2.82063428e-03 +4.57042940e-02 -5.24966344e-02 +4.76821139e-02 +8.15388560e-02 -8.71104449e-02 +2.62989774e-02 -3.23635451e-02 +8.20519999e-02 -1.71173051e-01 +1.52781028e-02 -5.55374548e-02 +3.90015133e-02 -5.34971021e-02 -1.67459667e-01 +3.03816982e-02 -5.82906082e-02 -3.05742212e-02 -1.01466507e-01 +1.17459334e-01 -1.86645165e-01 -7.44083300e-02 +9.33046415e-02 -6.98642852e-03 -4.98560667e-02 +2.70834728e-03 +9.24698729e-03 +4.64364886e-02 -6.13742322e-02 -1.08057916e-01 -5.29946536e-02 +3.57065871e-02 -8.10968783e-03 -4.74294797e-02 -3.60145159e-02 +9.71625298e-02 +2.32200976e-02 -1.04397058e-01 +1.33890688e-01 -1.16211800e-02 +2.36727335e-02 +6.75328672e-02 -4.71865349e-02 -3.36022712e-02 -1.19572449e-02 +9.98746976e-02 -3.84322577e-03 +6.25455528e-02 +3.75319384e-02 +5.25962673e-02 -4.46242355e-02 +3.16377245e-02 -3.16059738e-02 +2.14019734e-02 -2.09469837e-03 +8.80264789e-02 -1.84078757e-02 -1.36496881e-02 -2.51975600e-02 +9.07618925e-02 -9.00156572e-02 +4.46597077e-02 -1.71165355e-02 +6.41980469e-02 -4.43319641e-02 +6.54641539e-02 +3.66482437e-02 +2.96155605e-02 -4.95970286e-02 -3.23497355e-02 +1.02689922e-01 -3.18402201e-02 -1.51702706e-02 +3.08919046e-02 +1.40166068e-02 -1.83304437e-02 +8.25149268e-02 +7.55376890e-02 -8.38930195e-04 +2.89563648e-02 -4.46749106e-02 +1.54813484e-03 +8.70470926e-02 +9.09649953e-02 +2.08179969e-02 +3.61611880e-02 -4.95357439e-02 -2.41071149e-03 -2.81677749e-02 -4.51965220e-02 -1.02316789e-01 +3.00613493e-02 -7.45440051e-02 +2.32485235e-02 +1.15419842e-01 +3.94015647e-02 -1.23970233e-01 -1.22988798e-01 +1.17517605e-01 -7.71146715e-02 -2.19628476e-02 +5.80660328e-02 -3.85189727e-02 -9.17147920e-02 +6.53226823e-02 -4.02350398e-03 -4.35756966e-02 -2.46616844e-02 +3.76552604e-02 -3.92896198e-02 -2.86229774e-02 -9.81799047e-03 -8.72807130e-02 +1.56483450e-03 +9.36145615e-03 -9.49994922e-02 +4.65357304e-02 -1.26290843e-01 -1.61396731e-02 -4.75540175e-04 +1.55429281e-02 +7.37479106e-02 -1.38197979e-02 +9.33716297e-02 -7.77403172e-03 -8.20714682e-02 -1.04608215e-01 -8.37778077e-02 +5.57498634e-02 +5.71298897e-02 -2.83357725e-02 +2.91899825e-03 +1.46300094e-02 -2.51245834e-02 +4.86982241e-02 +6.38335794e-02 -4.82021319e-03 -3.89245674e-02 +1.56937893e-02 +1.89976487e-02 -3.62675413e-02 -5.36557101e-02 -4.25623097e-02 +2.98457872e-02 +1.89463347e-02 -5.78946956e-02 -1.19190440e-01 +4.42262627e-02 -7.30613843e-02 +4.11749519e-02 -5.55372499e-02 +1.14938533e-02 +5.05007617e-02 +1.16172787e-02 -7.94454757e-03 +7.96404928e-02 -3.11384033e-02 +4.43105735e-02 +4.34022024e-02 +2.49724183e-02 +7.94179961e-02 +1.09533004e-01 +8.09955001e-02 +1.24780573e-02 +1.62157305e-02 -4.02450897e-02 +2.00589877e-02 +4.00970195e-04 +4.42811139e-02 +7.78126437e-03 +3.55687998e-02 +6.07155040e-02 -2.75562219e-02 +1.92175282e-03 -6.14132322e-02 +4.58108447e-02 -4.17868532e-02 +3.85059528e-02 +6.44819587e-02 -1.18815772e-01 +1.02546252e-01 -1.35087207e-01 +5.39779738e-02 +7.97704905e-02 +1.21765397e-01 +8.93924758e-02 +1.15231954e-01 -6.17387965e-02 +2.79874131e-02 +5.56664616e-02 -1.84971280e-02 -1.45746432e-02 +2.61014104e-01 -7.40188584e-02 +1.38256788e-01 +2.40076646e-01 +1.15265653e-01 -6.54943381e-03 -2.63546631e-02 +2.54866518e-02 +5.20721637e-02 +1.45509645e-01 +4.44281884e-02 -1.89268187e-01 +1.30928248e-01 +8.97632837e-02 -4.93235774e-02 -3.55602950e-02 -1.35073021e-01 -6.47043809e-02 -7.77482837e-02 +2.15152293e-01 +1.66171387e-01 +1.19432829e-01 +7.64822662e-02 -7.29992390e-02 +8.20929036e-02 +1.82136707e-02 +1.25426203e-01 -6.29922301e-02 -5.82295805e-02 +6.83953762e-02 +1.43732995e-01 +1.47424877e-01 +5.29626338e-03 +2.76877694e-02 +1.26268864e-01 +2.52150297e-02 -1.42855681e-02 +2.33972091e-02 -4.59235348e-02 +1.22474186e-01 +1.70156091e-01 +7.31192157e-02 -1.39780805e-01 -6.99261650e-02 +4.33259411e-03 +1.31398635e-02 -4.58201505e-02 +1.94479287e-01 -3.80920395e-02 +1.38775334e-02 +1.17715672e-01 +2.02196781e-02 -8.98478460e-03 -1.28610656e-01 -1.66684672e-01 +1.29761994e-01 -1.08694164e-02 +3.71582583e-02 -6.92733750e-02 -3.97950001e-02 +1.34060711e-01 +1.36427760e-01 -1.28034130e-01 -1.67744637e-01 +7.20522925e-02 -1.82645261e-01 +6.70968220e-02 -5.69469370e-02 +6.23201858e-03 -6.04944229e-02 -9.48077515e-02 +5.77481724e-02 +2.25347094e-02 -2.73197889e-02 -1.78301081e-01 +3.84910963e-02 +8.41277167e-02 +2.65549757e-02 +3.86677161e-02 -1.90742761e-01 -1.71230182e-01 -6.40826598e-02 +1.30211394e-02 +1.69316605e-02 +3.17306779e-02 -1.04193296e-02 -6.30373657e-02 +1.03268903e-02 +6.58075511e-02 -2.17597961e-01 +1.09845325e-01 +1.15790889e-01 -6.21750392e-02 -3.40313464e-02 +9.64110903e-03 +1.08897306e-01 -6.75796270e-02 +7.34253554e-03 -8.74210522e-02 +3.02451197e-02 +4.24764343e-02 +4.21466678e-02 +8.74904543e-02 +1.83635786e-01 +9.79742408e-02 +2.19611749e-01 -2.52310908e-03 -2.10724026e-01 -4.89521027e-02 +1.17392279e-01 +1.74651314e-02 -2.40065088e-03 -1.97337955e-01 +8.74808058e-02 +8.74861032e-02 +9.05240793e-03 -1.10938540e-02 -7.28678852e-02 +8.35224614e-02 +8.36931244e-02 +6.89762682e-02 +3.40349339e-02 -1.43302262e-01 -1.48812905e-02 +8.54951590e-02 -3.47367004e-02 -3.97982635e-02 +9.71495584e-02 -7.22747445e-02 -2.96288520e-01 +3.70554850e-02 -1.63472563e-01 -1.43482536e-01 -2.12490670e-02 +2.38083512e-01 +2.01107875e-01 -2.36160122e-02 -1.68725327e-02 -1.77775249e-02 -7.36657083e-02 +1.01234406e-01 -1.36788683e-02 +4.81232181e-02 +1.22717563e-02 +1.03271291e-01 +2.22001318e-03 -8.65383595e-02 -1.32401854e-01 +6.59972206e-02 +1.49419948e-01 +5.23983128e-02 -9.18841586e-02 +8.45871568e-02 +2.75794300e-03 -5.03202081e-02 -5.64629361e-02 -2.57390775e-02 +1.11593999e-01 +5.55974580e-02 -6.63022473e-02 +8.03525969e-02 +3.87548208e-02 +5.45491092e-02 -8.75457525e-02 -1.72200799e-02 -4.60126959e-02 +4.53001931e-02 +1.08401753e-01 +9.05563012e-02 +4.17824760e-02 -3.68911363e-02 -3.77854593e-02 -1.33988887e-01 -4.67917286e-02 -2.28584185e-01 -1.17224038e-01 +3.50624174e-02 +6.92436174e-02 -2.98828483e-02 +6.65715262e-02 +1.07065633e-01 -7.75867030e-02 -1.57513008e-01 -8.93620476e-02 +1.74299963e-02 -2.23202780e-02 -7.93956891e-02 +6.52394369e-02 +3.64304781e-02 -1.49417957e-02 +4.57211249e-02 -3.13006490e-02 +3.78644578e-02 +3.85967344e-02 -1.16256490e-01 -1.05614409e-01 -5.94162308e-02 -9.03893113e-02 -4.98546660e-02 -1.85416073e-01 -1.16383709e-01 -1.22597530e-01 -8.96548852e-02 -1.55908559e-02 -2.18467295e-01 +1.06280614e-02 -3.64303105e-02 -1.58269137e-01 -8.25404897e-02 +1.69222683e-01 -1.31980358e-02 -1.01039819e-01 +3.64579894e-02 -8.66698250e-02 +1.46039706e-02 -7.91264996e-02 -3.31486836e-02 -2.03253259e-03 -1.39998682e-02 -7.47818872e-02 -3.13981362e-02 -1.66723534e-01 -5.95072843e-02 -2.97694001e-02 -1.20089427e-01 +5.34494743e-02 +2.19172109e-02 -1.02724209e-01 +8.10153559e-02 -5.50455693e-03 +8.39349553e-02 -2.54381225e-02 -1.43038362e-01 +8.54357406e-02 +4.40037698e-02 +1.38017848e-01 -3.70100066e-02 -2.27197096e-01 +6.75136521e-02 -1.01735648e-02 +1.69949569e-02 -2.23745406e-02 -5.83659299e-02 +8.90038684e-02 +1.05864421e-01 +3.02602141e-03 -7.64856860e-02 -4.28530201e-02 +1.66607890e-02 -6.62084520e-02 +7.10577741e-02 +1.61060728e-02 -1.08698800e-01 -4.34148544e-03 +1.29013807e-01 +7.95884654e-02 +7.75839016e-02 -7.20861405e-02 +8.32526293e-03 -1.77752137e-01 +1.59003913e-01 +6.76882938e-02 +1.10411629e-01 +3.49191278e-02 -6.75544068e-02 +3.10042296e-02 +2.78531909e-02 +2.00404115e-02 +1.37581542e-01 +1.28624514e-01 -1.54635515e-02 -2.88088452e-02 -4.34930203e-03 +1.46297172e-01 -4.72442694e-02 +8.53753474e-04 -9.13554505e-02 +1.50861070e-01 -1.35098338e-01 +4.50313352e-02 -1.80251990e-02 -5.92152886e-02 -1.21321324e-02 +5.89401349e-02 -4.36011106e-02 -2.31555905e-02 -2.92482954e-02 -1.21507391e-01 -1.03057422e-01 -9.38217044e-02 -1.73600554e-01 -6.05090186e-02 -1.87192187e-01 +4.04134318e-02 -5.11738323e-02 -1.31108090e-01 +4.96287942e-02 -1.40249789e-01 -5.15975431e-02 -1.89877786e-02 -7.10658133e-02 -1.36753544e-01 -1.09309681e-01 -6.85175657e-02 -1.28890350e-01 +6.31376207e-02 +4.85316254e-02 -1.27074391e-01 +1.07511533e-02 -9.99034569e-02 -2.41045114e-02 +4.28253114e-02 -3.42056677e-02 +2.09355634e-02 -8.42033071e-04 -5.80543950e-02 -1.53582692e-01 -2.88877543e-02 -1.85406283e-01 -6.81130290e-02 +2.57273857e-03 -2.80114003e-02 -1.24004416e-01 -8.70660096e-02 -1.02590278e-01 -9.33600962e-02 -1.26831442e-01 -7.97182173e-02 -8.29550177e-02 -1.68353692e-01 -4.67897318e-02 -6.50608167e-02 +1.40173167e-01 +9.11461040e-02 +8.42776429e-03 +1.08574010e-01 +6.27979562e-02 +2.20993608e-02 -7.62724355e-02 -8.13197345e-02 -1.09722920e-01 -7.84921274e-02 -2.37461571e-02 -5.85298650e-02 -2.26923339e-02 -2.94077564e-02 +6.11381121e-02 -1.47562602e-03 +8.94843936e-02 -7.90167376e-02 -3.23048681e-02 +2.88841594e-02 +1.52464705e-02 +4.57149558e-02 -2.15672925e-02 -5.24397977e-02 -4.58238758e-02 -4.36365604e-02 -4.79131239e-03 -3.38056609e-02 -3.72101180e-02 -7.42184520e-02 -5.75527959e-02 -1.83517411e-02 -9.54603776e-02 +4.57955375e-02 -1.42004654e-01 -2.18026433e-02 -1.33797184e-01 +9.82064679e-02 -1.35880699e-02 -3.47056463e-02 +2.90368069e-02 +2.58724727e-02 +1.12098800e-02 -5.21635227e-02 +6.84824819e-03 -3.25365104e-02 -5.26064672e-02 +5.76488848e-04 -4.41877842e-02 -2.83046458e-02 +9.74045992e-02 -3.27408090e-02 +5.99183775e-02 -2.00511399e-03 +5.67854270e-02 -1.49534317e-03 -7.21403584e-02 +2.41965391e-02 -2.07682289e-02 -3.56865712e-02 +1.13707975e-01 +5.67522161e-02 +9.38275456e-03 -2.18600016e-02 -2.17880076e-03 +9.61019620e-02 -1.95072312e-02 +1.83975220e-01 +6.59578294e-02 +1.31080732e-01 -6.46661371e-02 -1.09524734e-01 +5.89964613e-02 +1.27625465e-01 +5.46253584e-02 +1.71894386e-01 -1.49859324e-01 +9.43127126e-02 +1.33663550e-01 -3.02781779e-02 -9.05178934e-02 +4.31346074e-02 -1.50280390e-02 +1.11308753e-01 -2.41150684e-03 +1.39971912e-01 -1.13238366e-02 -6.54708296e-02 -1.16470255e-01 +1.41366556e-01 -4.87530231e-03 +2.62192860e-02 +1.65715545e-01 -7.65081262e-03 -6.27274141e-02 +8.68387371e-02 -5.80487959e-02 +1.42009199e-01 +1.12062478e-02 -1.71560064e-01 -7.34196650e-03 +1.19119152e-01 +1.81582704e-01 -1.13057457e-01 +7.25966245e-02 -6.02410845e-02 +8.33656341e-02 -3.94962542e-03 -2.83372831e-02 +1.25036225e-01 -4.75103520e-02 -6.12379834e-02 -6.93044290e-02 -8.18908811e-02 -6.08377606e-02 -3.82104851e-02 +9.33737904e-02 +1.71247479e-02 -1.27286911e-01 -8.31149071e-02 +1.02295332e-01 +1.02528855e-02 -1.13693371e-01 +1.27011165e-02 +1.52321771e-01 +6.10671937e-03 +1.79539267e-02 -4.37778980e-02 -3.63182388e-02 -4.52882424e-02 -7.35920891e-02 -1.75732210e-01 +3.31078283e-03 +1.94804426e-02 -8.50709155e-02 +3.15178037e-02 -1.47577196e-01 -9.32729766e-02 +3.60734062e-03 +2.01231912e-02 +3.65396142e-02 -3.93900946e-02 -8.19591656e-02 +4.44205850e-02 -8.73448700e-02 -7.24345967e-02 +5.05527668e-02 -3.43356952e-02 +5.05844541e-02 +4.44973484e-02 +3.13004181e-02 -1.46716073e-01 +1.87270027e-02 -7.59352818e-02 -4.86867130e-02 +8.91571119e-03 +2.00123303e-02 -6.42965212e-02 +1.06981322e-01 +3.58941220e-02 -2.63830516e-02 -2.54362430e-02 +1.25293046e-01 +1.74474701e-01 +8.86620060e-02 -9.62489937e-03 -8.70006457e-02 -1.07746935e-02 +4.89828065e-02 +8.39024186e-02 +2.10942235e-02 +4.21842337e-02 +4.01305817e-02 +1.22587726e-01 -2.31378302e-02 +2.63158213e-02 +9.94735062e-02 -2.53873412e-03 +8.97487998e-02 -2.53670886e-02 -3.12911421e-02 +4.23488878e-02 -2.27260310e-02 -9.54744592e-02 +8.00265837e-03 -6.77785054e-02 +3.36898044e-02 -6.56078011e-02 +3.24993208e-02 +9.19065159e-03 +4.11467068e-03 +1.31448284e-01 -6.35978160e-03 +8.34922791e-02 -7.41311982e-02 +1.59177244e-01 +3.44918631e-02 -4.76878881e-03 -6.86506415e-03 +9.72030982e-02 -1.00737542e-01 +4.32285517e-02 +8.31111744e-02 -1.24086037e-01 +2.13075671e-02 +1.15790665e-01 +1.64995685e-01 +5.55007793e-02 -2.61985161e-03 +5.23296706e-02 -2.88249943e-02 -2.58492287e-02 +6.80785850e-02 -8.62056687e-02 -7.25924373e-02 +2.50349287e-02 +4.07281481e-02 +1.14383630e-01 +1.67672690e-02 +2.30069235e-02 +1.35597577e-02 -7.90566951e-02 -5.53218881e-03 +3.23682022e-03 -8.38726610e-02 +5.18007576e-02 +3.14947031e-02 -9.36344564e-02 -2.15471443e-03 +2.01427931e-04 -3.53505723e-02 -6.12169318e-03 +4.54392843e-02 +5.69778569e-02 -3.57847363e-02 -2.94122752e-02 -1.70709901e-02 +7.33561888e-02 -4.53348011e-02 -1.14947878e-01 +2.56823245e-02 -3.19315642e-02 +9.58653167e-02 +8.53606611e-02 -4.85794339e-03 +9.33618397e-02 -5.26120104e-02 +6.99650273e-02 +7.20076934e-02 -2.93725505e-02 -9.27497596e-02 -2.19570193e-02 +6.76367953e-02 +9.93608013e-02 -1.91349778e-02 +9.47433487e-02 -6.62493780e-02 +1.35156423e-01 -5.46651380e-03 +6.48991093e-02 +1.40090883e-01 -1.41072031e-02 -2.15089973e-02 +1.54060736e-01 -2.15596974e-01 -7.97746256e-02 -9.09841731e-02 +6.22686818e-02 -6.86767399e-02 -5.66624179e-02 +6.46338537e-02 -2.59265546e-02 -2.10195743e-02 -1.68699160e-01 +1.05472036e-01 +1.41175222e-02 -2.34358728e-01 -2.39543635e-02 -1.82708055e-02 -8.85011777e-02 +3.85964997e-02 +1.34675443e-01 +8.88611004e-02 +6.73626214e-02 -8.15123413e-03 -8.05093348e-02 -3.59068736e-02 +1.59141570e-02 -2.89466772e-02 +3.74888293e-02 +6.02324158e-02 +1.06890194e-01 -1.14263661e-01 -1.70020193e-01 +6.01403080e-02 +7.25906529e-03 -1.16954893e-01 -1.03110701e-01 -9.01204795e-02 -6.72086980e-03 +2.67755017e-02 -4.69277613e-02 -6.29953146e-02 -4.15071137e-02 -7.07258582e-02 +4.62379269e-02 +1.43431455e-01 +1.07275685e-02 +1.64697438e-01 -1.48576230e-01 -6.95174038e-02 -1.77012663e-03 +1.09145172e-01 -7.12406114e-02 +2.72065923e-02 -1.36886882e-02 +5.32784313e-02 -5.10307699e-02 -3.13263349e-02 -3.11633535e-02 +1.06916599e-01 +1.23907909e-01 -3.70939560e-02 +3.38650234e-02 +1.33138344e-01 -4.95010242e-03 +1.48059621e-01 -1.51003450e-01 +4.68759350e-02 -9.98836607e-02 +6.32301066e-03 +8.12963769e-02 -1.06468853e-02 +2.90083755e-02 +2.65464820e-02 -2.51790248e-02 -9.89108980e-02 +7.64509737e-02 +6.15231395e-02 +6.77539967e-03 -9.17283527e-04 -8.62524360e-02 -1.61184147e-02 +2.09710617e-02 +5.75221851e-02 +1.14061628e-02 +6.95786476e-02 -1.03704058e-01 +1.33129716e-01 +8.29249322e-02 +3.35771590e-02 -1.01602398e-01 +1.91679969e-02 +2.17280304e-03 -3.59355360e-02 +2.98362020e-02 -1.13697581e-01 +1.43048391e-02 -1.30670518e-01 -4.95477989e-02 +1.68213814e-01 +2.94884481e-02 +1.67026985e-02 +2.02573463e-01 -1.25241026e-01 +1.03540674e-01 -2.92122066e-02 -1.00547783e-01 +2.71247979e-02 +5.80351613e-02 +1.38637856e-01 -1.01272739e-01 -1.37612760e-01 -2.43250988e-02 +5.10728965e-03 -3.52422670e-02 -6.93200007e-02 -1.71562750e-02 -9.37354192e-02 -3.22699100e-02 +1.17811253e-02 +7.62350261e-02 +5.06432541e-02 +5.98159730e-02 -1.79529175e-01 +5.05750775e-02 -5.62817305e-02 -1.77070215e-01 -1.96985453e-02 +1.27551794e-01 -1.18879676e-02 -8.51659030e-02 -2.56790537e-02 +4.92993854e-02 +1.40682384e-01 -2.97946017e-02 -5.43861128e-02 +1.14638014e-02 -1.58935636e-02 -1.09671839e-01 -1.88556742e-02 -3.33695710e-02 +2.06814229e-01 -4.24698927e-02 +1.13398053e-01 +8.25032145e-02 +1.65400822e-02 +9.52502713e-02 -6.06593378e-02 -1.39060959e-01 +5.26566505e-02 +1.04089558e-01 +9.28310752e-02 -3.31648346e-03 +4.23563011e-02 -9.98147763e-03 +2.55935807e-02 +1.21961251e-01 -4.93338928e-02 -3.97180840e-02 +4.00449877e-04 -9.27254632e-02 +5.94996884e-02 -6.94140866e-02 +4.76554558e-02 +7.97460154e-02 -1.00652473e-02 +2.19068304e-02 +2.97641549e-02 +2.60735154e-02 -2.00315705e-03 -6.96756691e-02 +1.33957788e-01 -7.41334707e-02 -8.99427831e-02 -6.88033253e-02 -7.09820092e-02 +2.69178208e-02 -1.59885865e-02 -5.95997348e-02 +2.16920767e-02 +4.84812185e-02 -3.55489738e-02 +9.97876227e-02 -8.19693729e-02 +1.19075663e-01 +6.59088939e-02 +9.47676301e-02 +1.72567065e-03 -4.64597605e-02 -1.48561401e-02 -2.94318423e-02 +5.85087314e-02 +8.31975117e-02 +3.82724889e-02 -2.14058030e-02 -1.44027397e-01 +9.77673307e-02 +1.09579615e-01 +2.00512335e-01 +5.33393249e-02 -4.79713306e-02 +6.46826029e-02 +2.83820212e-01 +1.54391453e-01 +2.70526595e-02 +5.22573553e-02 +1.65384158e-01 +7.14157745e-02 +8.58842507e-02 -5.92954271e-02 -1.04163192e-01 -1.23197893e-02 -1.95706636e-02 +1.65690377e-01 +1.06542237e-01 +8.74578431e-02 +2.68052258e-02 +2.08690047e-01 +5.13586262e-03 -1.91627350e-02 +8.33376944e-02 -1.62538514e-01 +2.90494356e-02 +1.01766763e-02 +7.59334341e-02 -4.55838218e-02 -2.99616698e-02 +6.59364983e-02 -1.05280854e-01 +1.05895899e-01 +5.63571639e-02 +3.61570455e-02 -6.39312640e-02 -1.51398983e-02 -4.87240730e-03 -5.97415976e-02 +3.18439379e-02 -9.59472731e-02 +8.36874172e-02 +8.58760178e-02 +1.18161598e-02 -4.09368798e-02 +1.31444708e-02 +8.67635682e-02 +1.26587749e-01 -3.37261185e-02 +2.00602695e-01 -1.63699687e-01 -1.11009680e-01 -1.18575677e-01 +1.45501867e-01 +1.26138955e-01 -7.09528476e-02 -1.16089627e-01 +2.03067407e-01 -5.19990213e-02 -7.79527705e-03 -1.95136055e-01 -7.87646249e-02 -1.17474804e-02 -7.52436593e-02 +5.69852479e-02 +1.12091847e-01 -1.49215952e-01 -7.07019717e-02 +1.16469160e-01 -1.00075431e-01 -1.42878115e-01 -8.90890509e-02 +4.36882973e-02 +1.17848769e-01 -6.06049784e-03 +2.47888416e-01 -3.01398616e-02 +1.23717256e-01 +6.19317815e-02 -8.26670527e-02 +7.84800723e-02 -1.76297650e-01 -2.36617122e-02 -1.92502290e-01 -5.84154688e-02 +6.16012476e-02 -1.55725300e-01 +5.34026884e-02 +2.29696706e-01 +3.15384869e-03 -6.31984472e-02 +1.02910101e-02 +4.08334658e-02 +1.21591873e-01 -3.21792290e-02 -1.19610243e-01 -5.28836884e-02 +4.73299287e-02 +7.06984028e-02 -9.00667626e-03 +8.55413228e-02 +5.48986308e-02 -2.23124605e-02 +1.06838293e-01 +6.29342496e-02 -6.53549656e-02 -9.13652182e-02 -1.01999737e-01 -1.24301568e-01 +1.54302150e-01 +3.63981239e-02 -2.16706410e-01 -5.86133525e-02 +3.33642587e-02 +1.15755782e-01 -8.46214145e-02 +1.48300268e-02 +1.64618883e-02 +8.26313570e-02 -1.43784255e-01 +7.63303488e-02 -1.54639259e-01 -5.40868640e-02 -6.42930120e-02 -1.57673836e-01 -1.81286216e-01 +7.80454427e-02 -4.32064608e-02 +6.89233467e-02 +1.04375780e-01 +1.24708163e-02 -6.91011995e-02 -9.56118852e-02 +1.58811659e-01 -1.20975718e-01 +1.19260006e-01 -2.14948371e-01 -3.87796015e-02 +4.97637093e-02 +1.24359138e-01 -6.36837631e-03 -3.95724140e-02 +6.64175600e-02 +6.74533769e-02 +1.12131916e-01 +9.62022543e-02 -6.31360561e-02 -8.59169513e-02 -1.18758082e-01 -1.41489089e-01 -1.12249345e-01 +1.13037834e-03 +6.36740327e-02 +2.30325297e-01 +6.62944913e-02 -4.78394218e-02 +4.37334515e-02 -7.48433694e-02 -4.01406595e-03 -9.04016942e-02 +1.14030115e-01 +6.32821023e-02 +1.13045871e-01 +1.41931042e-01 -1.66266352e-01 +3.72854620e-02 +9.42897722e-02 +1.36056006e-01 +1.00656956e-01 +2.28707492e-02 +7.38409907e-02 +9.05458108e-02 +9.72988233e-02 +2.65401676e-02 +1.55872256e-01 -5.88511229e-02 +1.07574947e-02 -3.08588073e-02 -1.09028339e-01 -7.76142254e-02 -1.60908803e-01 -1.14667207e-01 +1.00305595e-01 -3.15661728e-02 +2.09678426e-01 +4.51232046e-02 -1.09773949e-01 -1.27845645e-01 +1.12336509e-01 -1.52469307e-01 +1.21373191e-01 +5.19543067e-02 -1.02119014e-01 +7.38903806e-02 +2.46376842e-02 +1.68925654e-02 +9.41461846e-02 -5.96144535e-02 +1.09846421e-01 +1.08352266e-01 +2.64464468e-01 -2.92597506e-02 -1.42220065e-01 -1.46788582e-01 +1.63171962e-01 -2.12892257e-02 -4.19924334e-02 +4.63570375e-03 +7.04138353e-02 +5.51701896e-02 -9.96270850e-02 +1.54772103e-01 -1.01749301e-02 +4.01953347e-02 +1.85122803e-01 +6.82300562e-03 -6.75174147e-02 -1.06828444e-01 +1.61032211e-02 -1.04611434e-01 -7.74138272e-02 +2.22061962e-01 -1.80613756e-01 +2.66479179e-02 +1.60621807e-01 -8.73726830e-02 +1.12361796e-01 -5.10334112e-02 +1.67466998e-01 +3.73154134e-02 +1.63529981e-02 -2.04174183e-02 -1.30367905e-01 -2.71490235e-02 -2.57148832e-01 -1.40885860e-01 -6.71835393e-02 +6.23642281e-02 +6.21263385e-02 +3.39054577e-02 -2.48196036e-01 -1.81995034e-02 +1.05814701e-02 -8.62360448e-02 